{"learner":{"attributes":{"scikit_learn":"{\"_estimator_type\": \"regressor\"}"},"feature_names":[],"feature_types":[],"gradient_booster":{"model":{"gbtree_model_param":{"num_parallel_tree":"1","num_trees":"95"},"iteration_indptr":[0,1,2,3,4,5,6,7,8,9,10,11,12,13,14,15,16,17,18,19,20,21,22,23,24,25,26,27,28,29,30,31,32,33,34,35,36,37,38,39,40,41,42,43,44,45,46,47,48,49,50,51,52,53,54,55,56,57,58,59,60,61,62,63,64,65,66,67,68,69,70,71,72,73,74,75,76,77,78,79,80,81,82,83,84,85,86,87,88,89,90,91,92,93,94,95],"tree_info":[0,0,0,0,0,0,0,0,0,0,0,0,0,0,0,0,0,0,0,0,0,0,0,0,0,0,0,0,0,0,0,0,0,0,0,0,0,0,0,0,0,0,0,0,0,0,0,0,0,0,0,0,0,0,0,0,0,0,0,0,0,0,0,0,0,0,0,0,0,0,0,0,0,0,0,0,0,0,0,0,0,0,0,0,0,0,0,0,0,0,0,0,0,0,0],"trees":[{"base_weights":[-0E0,2.606028E-1,-3.7017405E-1,3.23349E-1,-0E0,-5.257343E-1,-0E0,3.6808807E-1,-0E0,-6.4226305E-1,-0E0,4.242437E-1,-0E0,-5.0922576E-2,-0E0,4.6706006E-1,-0E0,5.031552E-1,-0E0,3.179429E-2,-0E0],"categories":[],"categories_nodes":[],"categories_segments":[],"categories_sizes":[],"default_left":[0,0,0,0,0,0,0,0,0,0,0,0,0,0,0,0,0,0,0,0,0],"id":0,"left_children":[1,3,5,7,-1,9,-1,11,-1,13,-1,15,-1,-1,-1,17,-1,19,-1,-1,-1],"loss_changes":[6.1643295E1,1.1230972E1,2.7672E1,8.419121E0,0E0,1.4115242E1,0E0,9.956924E0,0E0,1.56772E1,0E0,6.2240753E0,0E0,0E0,0E0,3.0051613E0,0E0,1.1222534E0,0E0,0E0,0E0],"parents":[2147483647,0,0,1,1,2,2,3,3,5,5,7,7,9,9,11,11,15,15,17,17],"right_children":[2,4,6,8,-1,10,-1,12,-1,14,-1,16,-1,-1,-1,18,-1,20,-1,-1,-1],"split_conditions":[1E0,1E0,1E0,1E0,-0E0,1E0,-0E0,1E0,-0E0,1E0,-0E0,1E0,-0E0,-5.0922576E-2,-0E0,1E0,-0E0,1E0,-0E0,3.179429E-2,-0E0],"split_indices":[1088,552,699,197,0,1589,0,507,0,739,0,1978,0,0,0,1589,0,2000,0,0,0],"split_type":[0,0,0,0,0,0,0,0,0,0,0,0,0,0,0,0,0,0,0,0,0],"sum_hessian":[6.37E2,3.74E2,2.63E2,3.5E2,2.4E1,2.3E2,3.3E1,3.32E2,1.8E1,1.88E2,4.2E1,3.05E2,2.7E1,1.29E2,5.9E1,2.8E2,2.5E1,2.53E2,2.7E1,2.32E2,2.1E1],"tree_param":{"num_deleted":"0","num_feature":"2048","num_nodes":"21","size_leaf_vector":"1"}},{"base_weights":[-0E0,2.4093288E-1,-3.4529153E-1,3.0233413E-1,-0E0,-4.9729714E-1,-0E0,3.4593725E-1,-0E0,-6.075065E-1,-0E0,4.0013838E-1,-0E0,-4.7890738E-2,-0E0,4.4081017E-1,-0E0,2.8446892E-2,-0E0],"categories":[],"categories_nodes":[],"categories_segments":[],"categories_sizes":[],"default_left":[0,0,0,0,0,0,0,0,0,0,0,0,0,0,0,0,0,0,0],"id":1,"left_children":[1,3,5,7,-1,9,-1,11,-1,13,-1,15,-1,-1,-1,17,-1,-1,-1],"loss_changes":[5.3243965E1,1.0315233E1,2.5651608E1,7.767494E0,0E0,1.2625797E1,0E0,9.142906E0,0E0,1.3068527E1,0E0,5.608246E0,0E0,0E0,0E0,2.493248E0,0E0,0E0,0E0],"parents":[2147483647,0,0,1,1,2,2,3,3,5,5,7,7,9,9,11,11,15,15],"right_children":[2,4,6,8,-1,10,-1,12,-1,14,-1,16,-1,-1,-1,18,-1,-1,-1],"split_conditions":[1E0,1E0,1E0,1E0,-0E0,1E0,-0E0,1E0,-0E0,1E0,-0E0,1E0,-0E0,-4.7890738E-2,-0E0,1E0,-0E0,2.8446892E-2,-0E0],"split_indices":[1088,552,699,197,0,1589,0,507,0,739,0,1978,0,0,0,1589,0,0,0],"split_type":[0,0,0,0,0,0,0,0,0,0,0,0,0,0,0,0,0,0,0],"sum_hessian":[6.37E2,3.74E2,2.63E2,3.5E2,2.4E1,2.3E2,3.3E1,3.32E2,1.8E1,1.88E2,4.2E1,3.05E2,2.7E1,1.29E2,5.9E1,2.8E2,2.5E1,2.53E2,2.7E1],"tree_param":{"num_deleted":"0","num_feature":"2048","num_nodes":"19","size_leaf_vector":"1"}},{"base_weights":[-0E0,2.2174086E-1,-3.2189038E-1,2.8182983E-1,-0E0,-4.70553E-1,-0E0,3.243246E-1,-0E0,-5.748192E-1,-0E0,3.7661874E-1,-0E0,-4.5039404E-2,-0E0,4.1519803E-1,-0E0,2.6746813E-2,-0E0],"categories":[],"categories_nodes":[],"categories_segments":[],"categories_sizes":[],"default_left":[0,0,0,0,0,0,0,0,0,0,0,0,0,0,0,0,0,0,0],"id":2,"left_children":[1,3,5,7,-1,9,-1,11,-1,13,-1,15,-1,-1,-1,17,-1,-1,-1],"loss_changes":[4.579232E1,9.440868E0,2.3794104E1,7.1478424E0,0E0,1.1300793E1,0E0,8.376461E0,0E0,1.0804279E1,0E0,5.037876E0,0E0,0E0,0E0,2.0334587E0,0E0,0E0,0E0],"parents":[2147483647,0,0,1,1,2,2,3,3,5,5,7,7,9,9,11,11,15,15],"right_children":[2,4,6,8,-1,10,-1,12,-1,14,-1,16,-1,-1,-1,18,-1,-1,-1],"split_conditions":[1E0,1E0,1E0,1E0,-0E0,1E0,-0E0,1E0,-0E0,1E0,-0E0,1E0,-0E0,-4.5039404E-2,-0E0,1E0,-0E0,2.6746813E-2,-0E0],"split_indices":[1088,552,699,197,0,1589,0,507,0,739,0,1978,0,0,0,1589,0,0,0],"split_type":[0,0,0,0,0,0,0,0,0,0,0,0,0,0,0,0,0,0,0],"sum_hessian":[6.37E2,3.74E2,2.63E2,3.5E2,2.4E1,2.3E2,3.3E1,3.32E2,1.8E1,1.88E2,4.2E1,3.05E2,2.7E1,1.29E2,5.9E1,2.8E2,2.5E1,2.53E2,2.7E1],"tree_param":{"num_deleted":"0","num_feature":"2048","num_nodes":"19","size_leaf_vector":"1"}},{"base_weights":[-0E0,2.0369571E-1,-2.9988262E-1,2.6255083E-1,-0E0,-4.4540125E-1,-0E0,-0E0,3.5676983E-1,-5.4407823E-1,-0E0,4.043844E-1,-0E0,-4.2357836E-2,-0E0,2.6636366E-2,-0E0],"categories":[],"categories_nodes":[],"categories_segments":[],"categories_sizes":[],"default_left":[0,0,0,0,0,0,0,0,0,0,0,0,0,0,0,0,0],"id":3,"left_children":[1,3,5,7,-1,9,-1,-1,11,13,-1,15,-1,-1,-1,-1,-1],"loss_changes":[3.9300888E1,8.635981E0,2.2084896E1,6.734726E0,0E0,1.0121677E1,0E0,0E0,4.391588E0,8.842087E0,0E0,1.9267693E0,0E0,0E0,0E0,0E0,0E0],"parents":[2147483647,0,0,1,1,2,2,3,3,5,5,8,8,9,9,11,11],"right_children":[2,4,6,8,-1,10,-1,-1,12,14,-1,16,-1,-1,-1,-1,-1],"split_conditions":[1E0,1E0,1E0,1E0,-0E0,1E0,-0E0,-0E0,1E0,1E0,-0E0,1E0,-0E0,-4.2357836E-2,-0E0,2.6636366E-2,-0E0],"split_indices":[1088,552,699,875,0,1589,0,0,2000,739,0,1589,0,0,0,0,0],"split_type":[0,0,0,0,0,0,0,0,0,0,0,0,0,0,0,0,0],"sum_hessian":[6.37E2,3.74E2,2.63E2,3.5E2,2.4E1,2.3E2,3.3E1,1.08E2,2.42E2,1.88E2,4.2E1,2.15E2,2.7E1,1.29E2,5.9E1,1.88E2,2.7E1],"tree_param":{"num_deleted":"0","num_feature":"2048","num_nodes":"17","size_leaf_vector":"1"}},{"base_weights":[-0E0,1.903419E-1,-2.79185E-1,2.4828392E-1,-0E0,-4.2174682E-1,-0E0,2.9016528E-1,-0E0,-5.1516724E-1,-0E0,3.401417E-1,-0E0,-6.639319E-1,-0E0,3.7613928E-1,-0E0,-4.451922E-2,-0E0,2.385575E-2,-0E0],"categories":[],"categories_nodes":[],"categories_segments":[],"categories_sizes":[],"default_left":[0,0,0,0,0,0,0,0,0,0,0,0,0,0,0,0,0,0,0,0,0],"id":4,"left_children":[1,3,5,7,-1,9,-1,11,-1,13,-1,15,-1,17,-1,19,-1,-1,-1,-1,-1],"loss_changes":[3.416355E1,8.051099E0,2.0510773E1,6.399866E0,0E0,9.072029E0,0E0,7.3658657E0,0E0,7.144638E0,0E0,4.352997E0,0E0,1.6035538E0,0E0,1.5034256E0,0E0,0E0,0E0,0E0,0E0],"parents":[2147483647,0,0,1,1,2,2,3,3,5,5,7,7,9,9,11,11,13,13,15,15],"right_children":[2,4,6,8,-1,10,-1,12,-1,14,-1,16,-1,18,-1,20,-1,-1,-1,-1,-1],"split_conditions":[1E0,1E0,1E0,1E0,-0E0,1E0,-0E0,1E0,-0E0,1E0,-0E0,1E0,-0E0,1E0,-0E0,1E0,-0E0,-4.451922E-2,-0E0,2.385575E-2,-0E0],"split_indices":[1088,552,699,197,0,1589,0,507,0,739,0,1978,0,1243,0,1349,0,0,0,0,0],"split_type":[0,0,0,0,0,0,0,0,0,0,0,0,0,0,0,0,0,0,0,0,0],"sum_hessian":[6.37E2,3.74E2,2.63E2,3.5E2,2.4E1,2.3E2,3.3E1,3.32E2,1.8E1,1.88E2,4.2E1,3.05E2,2.7E1,1.29E2,5.9E1,2.8E2,2.5E1,1.06E2,2.3E1,2.6E2,2E1],"tree_param":{"num_deleted":"0","num_feature":"2048","num_nodes":"21","size_leaf_vector":"1"}},{"base_weights":[-0E0,1.7380196E-1,-2.6130977E-1,2.4040988E-1,-0E0,-4.01318E-1,-0E0,-0E0,3.5329545E-1,-4.9019867E-1,-0E0,3.939083E-1,-0E0,-3.7657883E-2,-0E0,2.628731E-2,-0E0],"categories":[],"categories_nodes":[],"categories_segments":[],"categories_sizes":[],"default_left":[0,0,0,0,0,0,0,0,0,0,0,0,0,0,0,0,0],"id":5,"left_children":[1,3,5,7,-1,9,-1,-1,11,13,-1,15,-1,-1,-1,-1,-1],"loss_changes":[2.9354326E1,7.3407326E0,1.9177315E1,8.292213E0,0E0,8.211735E0,0E0,0E0,3.7618046E0,5.794056E0,0E0,1.3333588E0,0E0,0E0,0E0,0E0,0E0],"parents":[2147483647,0,0,1,1,2,2,3,3,5,5,8,8,9,9,11,11],"right_children":[2,4,6,8,-1,10,-1,-1,12,14,-1,16,-1,-1,-1,-1,-1],"split_conditions":[1E0,1E0,1E0,1E0,-0E0,1E0,-0E0,-0E0,1E0,1E0,-0E0,1E0,-0E0,-3.7657883E-2,-0E0,2.628731E-2,-0E0],"split_indices":[1088,1063,699,875,0,1589,0,0,1970,739,0,1669,0,0,0,0,0],"split_type":[0,0,0,0,0,0,0,0,0,0,0,0,0,0,0,0,0],"sum_hessian":[6.37E2,3.74E2,2.63E2,3.22E2,5.2E1,2.3E2,3.3E1,1.07E2,2.15E2,1.88E2,4.2E1,1.97E2,1.8E1,1.29E2,5.9E1,1.66E2,3.1E1],"tree_param":{"num_deleted":"0","num_feature":"2048","num_nodes":"17","size_leaf_vector":"1"}},{"base_weights":[-0E0,1.6216554E-1,-2.4290884E-1,2.1825588E-1,-0E0,-3.8028836E-1,-0E0,2.5930348E-1,-0E0,-4.7357044E-1,-0E0,3.0724406E-1,-0E0,-5.549414E-1,-0E0,3.40689E-1,-0E0,-6.2114084E-1,-0E0,3.6600164E-1,-0E0,-4.170615E-2,-0E0,2.3345634E-2,-0E0],"categories":[],"categories_nodes":[],"categories_segments":[],"categories_sizes":[],"default_left":[0,0,0,0,0,0,0,0,0,0,0,0,0,0,0,0,0,0,0,0,0,0,0,0,0],"id":6,"left_children":[1,3,5,7,-1,9,-1,11,-1,13,-1,15,-1,17,-1,19,-1,21,-1,23,-1,-1,-1,-1,-1],"loss_changes":[2.5438866E1,6.8584805E0,1.7829803E1,5.67025E0,0E0,7.634178E0,0E0,6.495714E0,0E0,8.232376E0,0E0,3.7293186E0,0E0,3.5831833E0,0E0,1.4097404E0,0E0,2.2243118E0,0E0,1.2496872E0,0E0,0E0,0E0,0E0,0E0],"parents":[2147483647,0,0,1,1,2,2,3,3,5,5,7,7,9,9,11,11,13,13,15,15,17,17,19,19],"right_children":[2,4,6,8,-1,10,-1,12,-1,14,-1,16,-1,18,-1,20,-1,22,-1,24,-1,-1,-1,-1,-1],"split_conditions":[1E0,1E0,1E0,1E0,-0E0,1E0,-0E0,1E0,-0E0,1E0,-0E0,1E0,-0E0,1E0,-0E0,1E0,-0E0,1E0,-0E0,1E0,-0E0,-4.170615E-2,-0E0,2.3345634E-2,-0E0],"split_indices":[1088,552,699,197,0,667,0,507,0,81,0,1978,0,165,0,1589,0,1452,0,2000,0,0,0,0,0],"split_type":[0,0,0,0,0,0,0,0,0,0,0,0,0,0,0,0,0,0,0,0,0,0,0,0,0],"sum_hessian":[6.37E2,3.74E2,2.63E2,3.5E2,2.4E1,2.3E2,3.3E1,3.32E2,1.8E1,1.82E2,4.8E1,3.05E2,2.7E1,1.59E2,2.3E1,2.8E2,2.5E1,1.36E2,2.3E1,2.53E2,2.7E1,1.13E2,2.3E1,2.32E2,2.1E1],"tree_param":{"num_deleted":"0","num_feature":"2048","num_nodes":"25","size_leaf_vector":"1"}},{"base_weights":[-0E0,1.4772248E-1,-2.2505736E-1,2.0282525E-1,-0E0,-3.5988668E-1,-0E0,-0E0,2.8497174E-1,-4.4198772E-1,-0E0,3.276459E-1,-0E0,-5.289658E-1,-0E0,3.677142E-1,-0E0,-5.7623786E-1,-0E0,4.049896E-1,-0E0,-3.889133E-2,-0E0,2.7313318E-2,-0E0],"categories":[],"categories_nodes":[],"categories_segments":[],"categories_sizes":[],"default_left":[0,0,0,0,0,0,0,0,0,0,0,0,0,0,0,0,0,0,0,0,0,0,0,0,0],"id":7,"left_children":[1,3,5,7,-1,9,-1,-1,11,13,-1,15,-1,17,-1,19,-1,21,-1,23,-1,-1,-1,-1,-1],"loss_changes":[2.1555038E1,6.2562437E0,1.6546942E1,5.2942953E0,0E0,7.002989E0,0E0,0E0,3.4542332E0,5.328781E0,0E0,1.556118E0,0E0,1.5800819E0,0E0,1.6625538E0,0E0,2.3857536E0,0E0,1.7762108E0,0E0,0E0,0E0,0E0,0E0],"parents":[2147483647,0,0,1,1,2,2,3,3,5,5,8,8,9,9,11,11,13,13,15,15,17,17,19,19],"right_children":[2,4,6,8,-1,10,-1,-1,12,14,-1,16,-1,18,-1,20,-1,22,-1,24,-1,-1,-1,-1,-1],"split_conditions":[1E0,1E0,1E0,1E0,-0E0,1E0,-0E0,-0E0,1E0,1E0,-0E0,1E0,-0E0,1E0,-0E0,1E0,-0E0,1E0,-0E0,1E0,-0E0,-3.889133E-2,-0E0,2.7313318E-2,-0E0],"split_indices":[1088,552,699,875,0,1589,0,0,2000,736,0,1669,0,592,0,1349,0,1452,0,1482,0,0,0,0,0],"split_type":[0,0,0,0,0,0,0,0,0,0,0,0,0,0,0,0,0,0,0,0,0,0,0,0,0],"sum_hessian":[6.37E2,3.74E2,2.63E2,3.5E2,2.4E1,2.3E2,3.3E1,1.08E2,2.42E2,1.88E2,4.2E1,2.15E2,2.7E1,1.5E2,3.8E1,1.82E2,3.3E1,1.31E2,1.9E1,1.6E2,2.2E1,1.09E2,2.2E1,1.35E2,2.5E1],"tree_param":{"num_deleted":"0","num_feature":"2048","num_nodes":"25","size_leaf_vector":"1"}},{"base_weights":[-0E0,1.3788971E-1,-2.0899996E-1,2.0053817E-1,-0E0,-3.4153536E-1,-0E0,-0E0,3.0145428E-1,-4.3102837E-1,-0E0,2.034631E-2,-0E0,-5.027369E-1,-0E0,-3.472502E-2,-0E0],"categories":[],"categories_nodes":[],"categories_segments":[],"categories_sizes":[],"default_left":[0,0,0,0,0,0,0,0,0,0,0,0,0,0,0,0,0],"id":8,"left_children":[1,3,5,7,-1,9,-1,-1,11,13,-1,-1,-1,15,-1,-1,-1],"loss_changes":[1.866187E1,5.859535E0,1.541354E1,6.639306E0,0E0,7.0534134E0,0E0,0E0,3.1395493E0,7.1986084E0,0E0,0E0,0E0,7.370693E0,0E0,0E0,0E0],"parents":[2147483647,0,0,1,1,2,2,3,3,5,5,8,8,9,9,13,13],"right_children":[2,4,6,8,-1,10,-1,-1,12,14,-1,-1,-1,16,-1,-1,-1],"split_conditions":[1E0,1E0,1E0,1E0,-0E0,1E0,-0E0,-0E0,1E0,1E0,-0E0,2.034631E-2,-0E0,1E0,-0E0,-3.472502E-2,-0E0],"split_indices":[1088,1063,699,875,0,667,0,0,1970,2021,0,0,0,81,0,0,0],"split_type":[0,0,0,0,0,0,0,0,0,0,0,0,0,0,0,0,0],"sum_hessian":[6.37E2,3.74E2,2.63E2,3.22E2,5.2E1,2.3E2,3.3E1,1.07E2,2.15E2,1.82E2,4.8E1,1.97E2,1.8E1,1.62E2,2E1,1.44E2,1.8E1],"tree_param":{"num_deleted":"0","num_feature":"2048","num_nodes":"17","size_leaf_vector":"1"}},{"base_weights":[-0E0,1.272012E-1,-1.9005895E-1,1.8095876E-1,-0E0,-3.198885E-1,-0E0,2.2113362E-1,-0E0,-4.0370363E-1,-0E0,2.6677376E-1,-0E0,-4.7205946E-1,-0E0,2.9753855E-1,-0E0,-5.442646E-1,-0E0,3.2067618E-1,-0E0,-5.8869356E-1,-0E0,2.0875005E-2,-0E0,-3.9513424E-2,-0E0],"categories":[],"categories_nodes":[],"categories_segments":[],"categories_sizes":[],"default_left":[0,0,0,0,0,0,0,0,0,0,0,0,0,0,0,0,0,0,0,0,0,0,0,0,0,0,0],"id":9,"left_children":[1,3,5,7,-1,9,-1,11,-1,13,-1,15,-1,17,-1,19,-1,21,-1,23,-1,25,-1,-1,-1,-1,-1],"loss_changes":[1.56038685E1,5.4263186E0,1.41016035E1,4.789853E0,0E0,6.186802E0,0E0,5.4937553E0,0E0,6.4982204E0,0E0,3.0992222E0,0E0,6.6295395E0,0E0,1.2429314E0,0E0,1.0606575E0,0E0,1.3578224E0,0E0,2.3924866E0,0E0,0E0,0E0,0E0,0E0],"parents":[2147483647,0,0,1,1,2,2,3,3,5,5,7,7,9,9,11,11,13,13,15,15,17,17,19,19,21,21],"right_children":[2,4,6,8,-1,10,-1,12,-1,14,-1,16,-1,18,-1,20,-1,22,-1,24,-1,26,-1,-1,-1,-1,-1],"split_conditions":[1E0,1E0,1E0,1E0,-0E0,1E0,-0E0,1E0,-0E0,1E0,-0E0,1E0,-0E0,1E0,-0E0,1E0,-0E0,1E0,-0E0,1E0,-0E0,1E0,-0E0,2.0875005E-2,-0E0,-3.9513424E-2,-0E0],"split_indices":[1088,552,699,197,0,667,0,507,0,2021,0,1978,0,81,0,1589,0,832,0,1951,0,736,0,0,0,0,0],"split_type":[0,0,0,0,0,0,0,0,0,0,0,0,0,0,0,0,0,0,0,0,0,0,0,0,0,0,0],"sum_hessian":[6.37E2,3.74E2,2.63E2,3.5E2,2.4E1,2.3E2,3.3E1,3.32E2,1.8E1,1.82E2,4.8E1,3.05E2,2.7E1,1.62E2,2E1,2.8E2,2.5E1,1.44E2,1.8E1,2.53E2,2.7E1,1.26E2,1.8E1,2.26E2,2.7E1,1.06E2,2E1],"tree_param":{"num_deleted":"0","num_feature":"2048","num_nodes":"27","size_leaf_vector":"1"}},{"base_weights":[-0E0,1.14620544E-1,-1.7419365E-1,1.675179E-1,-0E0,-3.017567E-1,-0E0,2.0696622E-1,-0E0,-3.7565356E-1,-0E0,2.513563E-1,-0E0,-4.9044958E-1,-0E0,2.8074944E-1,-0E0,-3.338188E-2,-0E0,3.021024E-1,-0E0,1.9628024E-2,-0E0],"categories":[],"categories_nodes":[],"categories_segments":[],"categories_sizes":[],"default_left":[0,0,0,0,0,0,0,0,0,0,0,0,0,0,0,0,0,0,0,0,0,0,0],"id":10,"left_children":[1,3,5,7,-1,9,-1,11,-1,13,-1,15,-1,17,-1,19,-1,-1,-1,21,-1,-1,-1],"loss_changes":[1.29373665E1,4.9231477E0,1.302353E1,4.4142113E0,0E0,5.636654E0,0E0,5.0690165E0,0E0,4.599455E0,0E0,2.8154106E0,0E0,1.8506527E0,0E0,1.0330391E0,0E0,0E0,0E0,1.1112137E0,0E0,0E0,0E0],"parents":[2147483647,0,0,1,1,2,2,3,3,5,5,7,7,9,9,11,11,13,13,15,15,19,19],"right_children":[2,4,6,8,-1,10,-1,12,-1,14,-1,16,-1,18,-1,20,-1,-1,-1,22,-1,-1,-1],"split_conditions":[1E0,1E0,1E0,1E0,-0E0,1E0,-0E0,1E0,-0E0,1E0,-0E0,1E0,-0E0,1E0,-0E0,1E0,-0E0,-3.338188E-2,-0E0,1E0,-0E0,1.9628024E-2,-0E0],"split_indices":[1088,552,699,197,0,1589,0,507,0,739,0,1978,0,1243,0,1589,0,0,0,1951,0,0,0],"split_type":[0,0,0,0,0,0,0,0,0,0,0,0,0,0,0,0,0,0,0,0,0,0,0],"sum_hessian":[6.37E2,3.74E2,2.63E2,3.5E2,2.4E1,2.3E2,3.3E1,3.32E2,1.8E1,1.88E2,4.2E1,3.05E2,2.7E1,1.29E2,5.9E1,2.8E2,2.5E1,1.06E2,2.3E1,2.53E2,2.7E1,2.26E2,2.7E1],"tree_param":{"num_deleted":"0","num_feature":"2048","num_nodes":"23","size_leaf_vector":"1"}},{"base_weights":[-0E0,-7.808282E-2,2.435469E-1,-2.1296418E-1,4.4993807E-2,2.2715222E-2,-0E0,-2.9383034E-1,-0E0,-0E0,1.1584938E-2,-3.7001073E-1,-0E0,-4.4622892E-1,-0E0,-5.519694E-1,-0E0,-3.643754E-2,-0E0],"categories":[],"categories_nodes":[],"categories_segments":[],"categories_sizes":[],"default_left":[0,0,0,0,0,0,0,0,0,0,0,0,0,0,0,0,0,0,0],"id":11,"left_children":[1,3,5,7,9,-1,-1,11,-1,-1,-1,13,-1,15,-1,17,-1,-1,-1],"loss_changes":[1.1506134E1,1.3450633E1,5.277443E0,1.1004637E1,2.69904E0,0E0,0E0,1.0316856E1,0E0,0E0,0E0,9.877842E0,0E0,1.0192047E1,0E0,4.376396E0,0E0,0E0,0E0],"parents":[2147483647,0,0,1,1,2,2,3,3,4,4,7,7,11,11,13,13,15,15],"right_children":[2,4,6,8,10,-1,-1,12,-1,-1,-1,14,-1,16,-1,18,-1,-1,-1],"split_conditions":[1E0,1E0,1E0,1E0,1E0,2.2715222E-2,-0E0,1E0,-0E0,-0E0,1.1584938E-2,1E0,-0E0,1E0,-0E0,1E0,-0E0,-3.643754E-2,-0E0],"split_indices":[656,1665,1152,932,1855,0,0,724,0,0,0,1487,0,667,0,165,0,0,0],"split_type":[0,0,0,0,0,0,0,0,0,0,0,0,0,0,0,0,0,0,0],"sum_hessian":[6.37E2,4.95E2,1.42E2,3.56E2,1.39E2,9.5E1,4.7E1,3.14E2,4.2E1,6E1,7.9E1,2.73E2,4.1E1,2.37E2,3.6E1,1.88E2,4.9E1,1.67E2,2.1E1],"tree_param":{"num_deleted":"0","num_feature":"2048","num_nodes":"19","size_leaf_vector":"1"}},{"base_weights":[-0E0,1.0247607E-1,-1.4893357E-1,1.5301888E-1,-0E0,-2.7224994E-1,-0E0,1.913103E-1,-0E0,-3.4289387E-1,-0E0,2.3294882E-1,-0E0,-4.198998E-1,-0E0,1.5628811E-2,-0E0,-4.610909E-1,-0E0,-3.1557042E-2,-0E0],"categories":[],"categories_nodes":[],"categories_segments":[],"categories_sizes":[],"default_left":[0,0,0,0,0,0,0,0,0,0,0,0,0,0,0,0,0,0,0,0,0],"id":12,"left_children":[1,3,5,7,-1,9,-1,11,-1,13,-1,15,-1,17,-1,-1,-1,19,-1,-1,-1],"loss_changes":[9.793842E0,4.280583E0,1.1265886E1,3.9690905E0,0E0,5.1001797E0,0E0,4.4174595E0,0E0,4.401785E0,0E0,2.4606934E0,0E0,1.4401474E0,0E0,0E0,0E0,2.3648224E0,0E0,0E0,0E0],"parents":[2147483647,0,0,1,1,2,2,3,3,5,5,7,7,9,9,11,11,13,13,17,17],"right_children":[2,4,6,8,-1,10,-1,12,-1,14,-1,16,-1,18,-1,-1,-1,20,-1,-1,-1],"split_conditions":[1E0,1E0,1E0,1E0,-0E0,1E0,-0E0,1E0,-0E0,1E0,-0E0,1E0,-0E0,1E0,-0E0,1.5628811E-2,-0E0,1E0,-0E0,-3.1557042E-2,-0E0],"split_indices":[1088,552,699,197,0,1589,0,507,0,736,0,1978,0,592,0,0,0,1452,0,0,0],"split_type":[0,0,0,0,0,0,0,0,0,0,0,0,0,0,0,0,0,0,0,0,0],"sum_hessian":[6.37E2,3.74E2,2.63E2,3.5E2,2.4E1,2.3E2,3.3E1,3.32E2,1.8E1,1.88E2,4.2E1,3.05E2,2.7E1,1.5E2,3.8E1,2.8E2,2.5E1,1.31E2,1.9E1,1.09E2,2.2E1],"tree_param":{"num_deleted":"0","num_feature":"2048","num_nodes":"21","size_leaf_vector":"1"}},{"base_weights":[-0E0,-6.7409664E-2,2.2104132E-1,-1.9225135E-1,2.998959E-2,2.0771226E-2,-0E0,-2.698663E-1,-0E0,-0E0,1.0265798E-2,-3.413815E-1,-0E0,-4.1354445E-1,-0E0,-5.130676E-1,-0E0,-3.3761434E-2,-0E0],"categories":[],"categories_nodes":[],"categories_segments":[],"categories_sizes":[],"default_left":[0,0,0,0,0,0,0,0,0,0,0,0,0,0,0,0,0,0,0],"id":13,"left_children":[1,3,5,7,9,-1,-1,11,-1,-1,-1,13,-1,15,-1,17,-1,-1,-1],"loss_changes":[9.24073E0,1.1066986E1,4.518294E0,9.745835E0,2.2160122E0,0E0,0E0,8.991558E0,0E0,0E0,0E0,8.770201E0,0E0,9.04953E0,0E0,3.4402199E0,0E0,0E0,0E0],"parents":[2147483647,0,0,1,1,2,2,3,3,4,4,7,7,11,11,13,13,15,15],"right_children":[2,4,6,8,10,-1,-1,12,-1,-1,-1,14,-1,16,-1,18,-1,-1,-1],"split_conditions":[1E0,1E0,1E0,1E0,1E0,2.0771226E-2,-0E0,1E0,-0E0,-0E0,1.0265798E-2,1E0,-0E0,1E0,-0E0,1E0,-0E0,-3.3761434E-2,-0E0],"split_indices":[656,1665,1152,932,1855,0,0,724,0,0,0,1487,0,667,0,165,0,0,0],"split_type":[0,0,0,0,0,0,0,0,0,0,0,0,0,0,0,0,0,0,0],"sum_hessian":[6.37E2,4.95E2,1.42E2,3.56E2,1.39E2,9.5E1,4.7E1,3.14E2,4.2E1,6E1,7.9E1,2.73E2,4.1E1,2.37E2,3.6E1,1.88E2,4.9E1,1.67E2,2.1E1],"tree_param":{"num_deleted":"0","num_feature":"2048","num_nodes":"19","size_leaf_vector":"1"}},{"base_weights":[-0E0,-5.7677463E-2,2.0724238E-1,-1.7645817E-1,2.419673E-2,-0E0,3.2521683E-1,-2.5196734E-1,-0E0,-0E0,9.657548E-3,2.3421666E-2,-0E0,-3.208042E-1,-0E0,-3.8985464E-1,-0E0,-4.566902E-1,-0E0,-5.1334614E-1,-0E0,-3.3681728E-2,-0E0],"categories":[],"categories_nodes":[],"categories_segments":[],"categories_sizes":[],"default_left":[0,0,0,0,0,0,0,0,0,0,0,0,0,0,0,0,0,0,0,0,0,0,0],"id":14,"left_children":[1,3,5,7,9,-1,11,13,-1,-1,-1,-1,-1,15,-1,17,-1,19,-1,21,-1,-1,-1],"loss_changes":[7.7918034E0,9.548011E0,4.2233014E0,8.882494E0,1.9906601E0,0E0,1.0635672E0,8.20023E0,0E0,0E0,0E0,0E0,0E0,7.974016E0,0E0,8.460289E0,0E0,5.7000275E0,0E0,3.2385292E0,0E0,0E0,0E0],"parents":[2147483647,0,0,1,1,2,2,3,3,4,4,6,6,7,7,13,13,15,15,17,17,19,19],"right_children":[2,4,6,8,10,-1,12,14,-1,-1,-1,-1,-1,16,-1,18,-1,20,-1,22,-1,-1,-1],"split_conditions":[1E0,1E0,1E0,1E0,1E0,-0E0,1E0,1E0,-0E0,-0E0,9.657548E-3,2.3421666E-2,-0E0,1E0,-0E0,1E0,-0E0,1E0,-0E0,1E0,-0E0,-3.3681728E-2,-0E0],"split_indices":[656,1665,875,932,1855,0,322,724,0,0,0,0,0,1487,0,182,0,1911,0,165,0,0,0],"split_type":[0,0,0,0,0,0,0,0,0,0,0,0,0,0,0,0,0,0,0,0,0,0,0],"sum_hessian":[6.37E2,4.95E2,1.42E2,3.56E2,1.39E2,4.5E1,9.7E1,3.14E2,4.2E1,6E1,7.9E1,7.4E1,2.3E1,2.73E2,4.1E1,2.37E2,3.6E1,2.13E2,2.4E1,1.9E2,2.3E1,1.69E2,2.1E1],"tree_param":{"num_deleted":"0","num_feature":"2048","num_nodes":"23","size_leaf_vector":"1"}},{"base_weights":[-0E0,9.153969E-2,-1.1402899E-1,1.3831736E-1,-0E0,-2.3100978E-1,-0E0,1.7479716E-1,-0E0,-2.9653886E-1,-0E0,2.121645E-1,-0E0,-3.6852857E-1,-0E0,2.3741029E-1,-0E0,-4.2012075E-1,-0E0,1.5497521E-2,-0E0,-2.9056221E-2,-0E0],"categories":[],"categories_nodes":[],"categories_segments":[],"categories_sizes":[],"default_left":[0,0,0,0,0,0,0,0,0,0,0,0,0,0,0,0,0,0,0,0,0,0,0],"id":15,"left_children":[1,3,5,7,-1,9,-1,11,-1,13,-1,15,-1,17,-1,19,-1,21,-1,-1,-1,-1,-1],"loss_changes":[6.5750074E0,3.572906E0,8.894745E0,3.4592733E0,0E0,4.2923355E0,0E0,3.599719E0,0E0,3.8880386E0,0E0,2.0639696E0,0E0,1.0253658E0,0E0,1.1073627E0,0E0,2.153122E0,0E0,0E0,0E0,0E0,0E0],"parents":[2147483647,0,0,1,1,2,2,3,3,5,5,7,7,9,9,11,11,13,13,15,15,17,17],"right_children":[2,4,6,8,-1,10,-1,12,-1,14,-1,16,-1,18,-1,20,-1,22,-1,-1,-1,-1,-1],"split_conditions":[1E0,1E0,1E0,1E0,-0E0,1E0,-0E0,1E0,-0E0,1E0,-0E0,1E0,-0E0,1E0,-0E0,1E0,-0E0,1E0,-0E0,1.5497521E-2,-0E0,-2.9056221E-2,-0E0],"split_indices":[1088,552,699,197,0,1589,0,507,0,736,0,1978,0,1911,0,1589,0,1160,0,0,0,0,0],"split_type":[0,0,0,0,0,0,0,0,0,0,0,0,0,0,0,0,0,0,0,0,0,0,0],"sum_hessian":[6.37E2,3.74E2,2.63E2,3.5E2,2.4E1,2.3E2,3.3E1,3.32E2,1.8E1,1.88E2,4.2E1,3.05E2,2.7E1,1.5E2,3.8E1,2.8E2,2.5E1,1.21E2,2.9E1,2.53E2,2.7E1,1E2,2.1E1],"tree_param":{"num_deleted":"0","num_feature":"2048","num_nodes":"23","size_leaf_vector":"1"}},{"base_weights":[-0E0,-4.817325E-2,1.8952696E-1,-1.5826206E-1,1.1468741E-2,-0E0,1.8062824E-2,-2.3071776E-1,-0E0,-0E0,8.640755E-3,-2.95272E-1,-0E0,-3.5941854E-1,-0E0,-4.5076048E-1,-0E0,-2.9579913E-2,-0E0],"categories":[],"categories_nodes":[],"categories_segments":[],"categories_sizes":[],"default_left":[0,0,0,0,0,0,0,0,0,0,0,0,0,0,0,0,0,0,0],"id":16,"left_children":[1,3,5,7,9,-1,-1,11,-1,-1,-1,13,-1,15,-1,17,-1,-1,-1],"loss_changes":[6.2876754E0,7.8091025E0,3.7450495E0,7.8259296E0,1.6407554E0,0E0,0E0,7.121176E0,0E0,0E0,0E0,6.8563995E0,0E0,7.656725E0,0E0,2.4300308E0,0E0,0E0,0E0],"parents":[2147483647,0,0,1,1,2,2,3,3,4,4,7,7,11,11,13,13,15,15],"right_children":[2,4,6,8,10,-1,-1,12,-1,-1,-1,14,-1,16,-1,18,-1,-1,-1],"split_conditions":[1E0,1E0,1E0,1E0,1E0,-0E0,1.8062824E-2,1E0,-0E0,-0E0,8.640755E-3,1E0,-0E0,1E0,-0E0,1E0,-0E0,-2.9579913E-2,-0E0],"split_indices":[656,1665,875,932,1855,0,0,724,0,0,0,1487,0,667,0,165,0,0,0],"split_type":[0,0,0,0,0,0,0,0,0,0,0,0,0,0,0,0,0,0,0],"sum_hessian":[6.37E2,4.95E2,1.42E2,3.56E2,1.39E2,4.5E1,9.7E1,3.14E2,4.2E1,6E1,7.9E1,2.73E2,4.1E1,2.37E2,3.6E1,1.88E2,4.9E1,1.67E2,2.1E1],"tree_param":{"num_deleted":"0","num_feature":"2048","num_nodes":"19","size_leaf_vector":"1"}},{"base_weights":[-0E0,-3.9590064E-2,1.7727472E-1,-1.4442486E-1,6.59288E-3,1.7206274E-2,-0E0,-2.150356E-1,-0E0,-0E0,8.12879E-3,-2.7724323E-1,-0E0,-3.3866274E-1,-0E0,-4.0141585E-1,-0E0,-4.4881457E-1,-0E0,-5.023763E-1,-0E0,-5.658785E-1,-0E0,-3.7145507E-2,-0E0],"categories":[],"categories_nodes":[],"categories_segments":[],"categories_sizes":[],"default_left":[0,0,0,0,0,0,0,0,0,0,0,0,0,0,0,0,0,0,0,0,0,0,0,0,0],"id":17,"left_children":[1,3,5,7,9,-1,-1,11,-1,-1,-1,13,-1,15,-1,17,-1,19,-1,21,-1,23,-1,-1,-1],"loss_changes":[5.2713814E0,6.675167E0,3.4008594E0,7.1192007E0,1.4622974E0,0E0,0E0,6.4949846E0,0E0,0E0,0E0,6.2361183E0,0E0,7.18602E0,0E0,4.998348E0,0E0,4.1809044E0,0E0,2.4493866E0,0E0,1.0313263E0,0E0,0E0,0E0],"parents":[2147483647,0,0,1,1,2,2,3,3,4,4,7,7,11,11,13,13,15,15,17,17,19,19,21,21],"right_children":[2,4,6,8,10,-1,-1,12,-1,-1,-1,14,-1,16,-1,18,-1,20,-1,22,-1,24,-1,-1,-1],"split_conditions":[1E0,1E0,1E0,1E0,1E0,1.7206274E-2,-0E0,1E0,-0E0,-0E0,8.12879E-3,1E0,-0E0,1E0,-0E0,1E0,-0E0,1E0,-0E0,1E0,-0E0,1E0,-0E0,-3.7145507E-2,-0E0],"split_indices":[656,1665,1152,932,1855,0,0,724,0,0,0,1487,0,182,0,726,0,165,0,978,0,2000,0,0,0],"split_type":[0,0,0,0,0,0,0,0,0,0,0,0,0,0,0,0,0,0,0,0,0,0,0,0,0],"sum_hessian":[6.37E2,4.95E2,1.42E2,3.56E2,1.39E2,9.5E1,4.7E1,3.14E2,4.2E1,6E1,7.9E1,2.73E2,4.1E1,2.37E2,3.6E1,2.13E2,2.4E1,1.95E2,1.8E1,1.72E2,2.3E1,1.43E2,2.9E1,1.22E2,2.1E1],"tree_param":{"num_deleted":"0","num_feature":"2048","num_nodes":"25","size_leaf_vector":"1"}},{"base_weights":[-0E0,-3.1748123E-2,1.6584402E-1,-1.3173084E-1,2.006003E-3,-0E0,1.6168445E-2,-1.9859806E-1,-0E0,-0E0,7.6471674E-3,-2.8149885E-1,-0E0,-3.8840213E-1,-0E0,-4.3861982E-1,-0E0,-4.9051374E-1,-0E0,-3.3802625E-2,-0E0],"categories":[],"categories_nodes":[],"categories_segments":[],"categories_sizes":[],"default_left":[0,0,0,0,0,0,0,0,0,0,0,0,0,0,0,0,0,0,0,0,0],"id":18,"left_children":[1,3,5,7,9,-1,-1,11,-1,-1,-1,13,-1,15,-1,17,-1,19,-1,-1,-1],"loss_changes":[4.4330463E0,5.695649E0,3.18329E0,6.505036E0,1.2989739E0,0E0,0E0,9.249865E0,0E0,0E0,0E0,6.2601852E0,0E0,3.9185772E0,0E0,3.240059E0,0E0,3.3532867E0,0E0,0E0,0E0],"parents":[2147483647,0,0,1,1,2,2,3,3,4,4,7,7,11,11,13,13,15,15,17,17],"right_children":[2,4,6,8,10,-1,-1,12,-1,-1,-1,14,-1,16,-1,18,-1,20,-1,-1,-1],"split_conditions":[1E0,1E0,1E0,1E0,1E0,-0E0,1.6168445E-2,1E0,-0E0,-0E0,7.6471674E-3,1E0,-0E0,1E0,-0E0,1E0,-0E0,1E0,-0E0,-3.3802625E-2,-0E0],"split_indices":[656,1665,875,1738,1855,0,0,724,0,0,0,1634,0,165,0,1535,0,832,0,0,0],"split_type":[0,0,0,0,0,0,0,0,0,0,0,0,0,0,0,0,0,0,0,0,0],"sum_hessian":[6.37E2,4.95E2,1.42E2,3.56E2,1.39E2,4.5E1,9.7E1,3.21E2,3.5E1,6E1,7.9E1,2.76E2,4.5E1,1.86E2,9E1,1.66E2,2E1,1.46E2,2E1,1.21E2,2.5E1],"tree_param":{"num_deleted":"0","num_feature":"2048","num_nodes":"21","size_leaf_vector":"1"}},{"base_weights":[-0E0,7.993586E-2,-7.609731E-2,1.2268521E-1,-0E0,-1.8615864E-1,-0E0,1.5653802E-1,-0E0,-2.5275773E-1,-0E0,1.9058356E-1,-0E0,-3.0990884E-1,-0E0,2.1354452E-1,-0E0,-3.665714E-1,-0E0,1.4058795E-2,-0E0,-4.0668222E-1,-0E0,-2.8194318E-2,-0E0],"categories":[],"categories_nodes":[],"categories_segments":[],"categories_sizes":[],"default_left":[0,0,0,0,0,0,0,0,0,0,0,0,0,0,0,0,0,0,0,0,0,0,0,0,0],"id":19,"left_children":[1,3,5,7,-1,9,-1,11,-1,13,-1,15,-1,17,-1,19,-1,21,-1,-1,-1,23,-1,-1,-1],"loss_changes":[3.9249249E0,2.8869796E0,6.4765434E0,2.8767505E0,0E0,3.6859102E0,0E0,2.9546766E0,0E0,3.9638643E0,0E0,1.6993942E0,0E0,3.8292265E0,0E0,1.1313314E0,0E0,1.5202713E0,0E0,0E0,0E0,1.0765133E0,0E0,0E0,0E0],"parents":[2147483647,0,0,1,1,2,2,3,3,5,5,7,7,9,9,11,11,13,13,15,15,17,17,21,21],"right_children":[2,4,6,8,-1,10,-1,12,-1,14,-1,16,-1,18,-1,20,-1,22,-1,-1,-1,24,-1,-1,-1],"split_conditions":[1E0,1E0,1E0,1E0,-0E0,1E0,-0E0,1E0,-0E0,1E0,-0E0,1E0,-0E0,1E0,-0E0,1E0,-0E0,1E0,-0E0,1.4058795E-2,-0E0,1E0,-0E0,-2.8194318E-2,-0E0],"split_indices":[1088,552,699,197,0,667,0,507,0,2021,0,1978,0,81,0,1589,0,832,0,0,0,1452,0,0,0],"split_type":[0,0,0,0,0,0,0,0,0,0,0,0,0,0,0,0,0,0,0,0,0,0,0,0,0],"sum_hessian":[6.37E2,3.74E2,2.63E2,3.5E2,2.4E1,2.3E2,3.3E1,3.32E2,1.8E1,1.82E2,4.8E1,3.05E2,2.7E1,1.62E2,2E1,2.8E2,2.5E1,1.44E2,1.8E1,2.53E2,2.7E1,1.26E2,1.8E1,9.9E1,2.7E1],"tree_param":{"num_deleted":"0","num_feature":"2048","num_nodes":"25","size_leaf_vector":"1"}},{"base_weights":[-0E0,-2.4848249E-2,1.4996795E-1,-1.1797284E-1,-0E0,-0E0,1.4829791E-2,-1.8264629E-1,-0E0,-0E0,6.7935265E-3,-2.61942E-1,-0E0,-3.1312862E-1,-0E0,-3.729356E-1,-0E0,-4.1872174E-1,-0E0,-4.5840108E-1,-0E0,-3.0741055E-2,-0E0],"categories":[],"categories_nodes":[],"categories_segments":[],"categories_sizes":[],"default_left":[0,0,0,0,0,0,0,0,0,0,0,0,0,0,0,0,0,0,0,0,0,0,0],"id":20,"left_children":[1,3,5,7,9,-1,-1,11,-1,-1,-1,13,-1,15,-1,17,-1,19,-1,21,-1,-1,-1],"loss_changes":[3.5223732E0,4.662332E0,2.7706602E0,5.7732334E0,1.0256002E0,0E0,0E0,8.264156E0,0E0,0E0,0E0,5.702511E0,0E0,6.584738E0,0E0,3.2463741E0,0E0,2.6536903E0,0E0,1.6572342E0,0E0,0E0,0E0],"parents":[2147483647,0,0,1,1,2,2,3,3,4,4,7,7,11,11,13,13,15,15,17,17,19,19],"right_children":[2,4,6,8,10,-1,-1,12,-1,-1,-1,14,-1,16,-1,18,-1,20,-1,22,-1,-1,-1],"split_conditions":[1E0,1E0,1E0,1E0,1E0,-0E0,1.4829791E-2,1E0,-0E0,-0E0,6.7935265E-3,1E0,-0E0,1E0,-0E0,1E0,-0E0,1E0,-0E0,1E0,-0E0,-3.0741055E-2,-0E0],"split_indices":[656,1665,875,1738,1855,0,0,724,0,0,0,182,0,2038,0,165,0,2000,0,978,0,0,0],"split_type":[0,0,0,0,0,0,0,0,0,0,0,0,0,0,0,0,0,0,0,0,0,0,0],"sum_hessian":[6.37E2,4.95E2,1.42E2,3.56E2,1.39E2,4.5E1,9.7E1,3.21E2,3.5E1,6E1,7.9E1,2.76E2,4.5E1,2.51E2,2.5E1,2.24E2,2.7E1,1.96E2,2.8E1,1.76E2,2E1,1.47E2,2.9E1],"tree_param":{"num_deleted":"0","num_feature":"2048","num_nodes":"23","size_leaf_vector":"1"}},{"base_weights":[-0E0,-1.6819475E-2,1.3990869E-1,-1.053147E-1,-0E0,1.4155275E-2,-0E0,-1.708059E-1,-0E0,-2.2552438E-1,-0E0,-2.736713E-1,-0E0,-3.3679852E-1,-0E0,-3.8656214E-1,-0E0,-2.5237717E-2,-0E0],"categories":[],"categories_nodes":[],"categories_segments":[],"categories_sizes":[],"default_left":[0,0,0,0,0,0,0,0,0,0,0,0,0,0,0,0,0,0,0],"id":21,"left_children":[1,3,5,7,-1,-1,-1,9,-1,11,-1,13,-1,15,-1,17,-1,-1,-1],"loss_changes":[2.9394608E0,3.8192375E0,2.5441039E0,5.2304635E0,0E0,0E0,0E0,4.745964E0,0E0,4.7131205E0,0E0,5.625614E0,0E0,4.266472E0,0E0,1.5366497E0,0E0,0E0,0E0],"parents":[2147483647,0,0,1,1,2,2,3,3,7,7,9,9,11,11,13,13,15,15],"right_children":[2,4,6,8,-1,-1,-1,10,-1,12,-1,14,-1,16,-1,18,-1,-1,-1],"split_conditions":[1E0,1E0,1E0,1E0,-0E0,1.4155275E-2,-0E0,1E0,-0E0,1E0,-0E0,1E0,-0E0,1E0,-0E0,1E0,-0E0,-2.5237717E-2,-0E0],"split_indices":[656,1665,1152,932,0,0,0,724,0,182,0,1487,0,1911,0,94,0,0,0],"split_type":[0,0,0,0,0,0,0,0,0,0,0,0,0,0,0,0,0,0,0],"sum_hessian":[6.37E2,4.95E2,1.42E2,3.56E2,1.39E2,9.5E1,4.7E1,3.14E2,4.2E1,2.73E2,4.1E1,2.48E2,2.5E1,2.13E2,3.5E1,1.9E2,2.3E1,1.69E2,2.1E1],"tree_param":{"num_deleted":"0","num_feature":"2048","num_nodes":"19","size_leaf_vector":"1"}},{"base_weights":[-0E0,-9.750618E-3,1.3581242E-1,-1.1428385E-1,-0E0,2.0204553E-1,-0E0,-1.8724573E-1,-0E0,-0E0,1.5849879E-2,-2.7832064E-1,-0E0,-3.595288E-1,-0E0,-4.0836298E-1,-0E0,-4.5488432E-1,-0E0,-3.1284764E-2,-0E0],"categories":[],"categories_nodes":[],"categories_segments":[],"categories_sizes":[],"default_left":[0,0,0,0,0,0,0,0,0,0,0,0,0,0,0,0,0,0,0,0,0],"id":22,"left_children":[1,3,5,7,-1,9,-1,11,-1,-1,-1,13,-1,15,-1,17,-1,19,-1,-1,-1],"loss_changes":[2.6847937E0,3.9494474E0,2.4243407E0,4.873819E0,0E0,2.3350177E0,0E0,5.9248905E0,0E0,0E0,0E0,7.1790495E0,0E0,3.039688E0,0E0,1.6785965E0,0E0,1.0382175E0,0E0,0E0,0E0],"parents":[2147483647,0,0,1,1,2,2,3,3,5,5,7,7,11,11,13,13,15,15,17,17],"right_children":[2,4,6,8,-1,10,-1,12,-1,-1,-1,14,-1,16,-1,18,-1,20,-1,-1,-1],"split_conditions":[1E0,1E0,1E0,1E0,-0E0,1E0,-0E0,1E0,-0E0,-0E0,1.5849879E-2,1E0,-0E0,1E0,-0E0,1E0,-0E0,1E0,-0E0,-3.1284764E-2,-0E0],"split_indices":[1452,1928,464,81,0,875,0,294,0,0,0,119,0,165,0,235,0,1634,0,0,0],"split_type":[0,0,0,0,0,0,0,0,0,0,0,0,0,0,0,0,0,0,0,0,0],"sum_hessian":[6.37E2,4.95E2,1.42E2,3.05E2,1.9E2,1.23E2,1.9E1,2.52E2,5.3E1,1.8E1,1.05E2,1.9E2,6.2E1,1.69E2,2.1E1,1.49E2,2E1,1.28E2,2.1E1,1.01E2,2.7E1],"tree_param":{"num_deleted":"0","num_feature":"2048","num_nodes":"21","size_leaf_vector":"1"}},{"base_weights":[-0E0,7.241175E-2,-4.194709E-2,1.1081949E-1,-0E0,-1.4624031E-1,-0E0,-0E0,1.6715555E-1,-2.0846385E-1,-0E0,1.8906358E-1,-0E0,-2.6022077E-1,-0E0,2.2002013E-1,-0E0,-3.1293344E-1,-0E0,1.5460792E-2,-0E0,-2.0903282E-2,-0E0],"categories":[],"categories_nodes":[],"categories_segments":[],"categories_sizes":[],"default_left":[0,0,0,0,0,0,0,0,0,0,0,0,0,0,0,0,0,0,0,0,0,0,0],"id":23,"left_children":[1,3,5,7,-1,9,-1,-1,11,13,-1,15,-1,17,-1,19,-1,21,-1,-1,-1,-1,-1],"loss_changes":[2.4308217E0,2.3443182E0,4.4756956E0,2.479041E0,0E0,3.012444E0,0E0,0E0,1.0742502E0,3.0848565E0,0E0,1.6726379E0,0E0,3.1619453E0,0E0,1.4856758E0,0E0,1.2150621E0,0E0,0E0,0E0,0E0,0E0],"parents":[2147483647,0,0,1,1,2,2,3,3,5,5,8,8,9,9,11,11,13,13,15,15,17,17],"right_children":[2,4,6,8,-1,10,-1,-1,12,14,-1,16,-1,18,-1,20,-1,22,-1,-1,-1,-1,-1],"split_conditions":[1E0,1E0,1E0,1E0,-0E0,1E0,-0E0,-0E0,1E0,1E0,-0E0,1E0,-0E0,1E0,-0E0,1E0,-0E0,1E0,-0E0,1.5460792E-2,-0E0,-2.0903282E-2,-0E0],"split_indices":[1088,552,699,875,0,667,0,0,1970,2021,0,1063,0,81,0,1669,0,832,0,0,0,0,0],"split_type":[0,0,0,0,0,0,0,0,0,0,0,0,0,0,0,0,0,0,0,0,0,0,0],"sum_hessian":[6.37E2,3.74E2,2.63E2,3.5E2,2.4E1,2.3E2,3.3E1,1.08E2,2.42E2,1.82E2,4.8E1,2.19E2,2.3E1,1.62E2,2E1,1.96E2,2.3E1,1.44E2,1.8E1,1.65E2,3.1E1,1.26E2,1.8E1],"tree_param":{"num_deleted":"0","num_feature":"2048","num_nodes":"23","size_leaf_vector":"1"}},{"base_weights":[-0E0,-3.0993377E-3,1.2377889E-1,-8.456812E-2,-0E0,-0E0,2.077823E-1,-1.4501587E-1,-0E0,1.5854344E-2,-0E0,-2.1823403E-1,-0E0,-2.657053E-1,-0E0,-3.1984568E-1,-0E0,-3.5954252E-1,-0E0,-3.9628986E-1,-0E0,-2.6561089E-2,-0E0],"categories":[],"categories_nodes":[],"categories_segments":[],"categories_sizes":[],"default_left":[0,0,0,0,0,0,0,0,0,0,0,0,0,0,0,0,0,0,0,0,0,0,0],"id":24,"left_children":[1,3,5,7,-1,-1,9,11,-1,-1,-1,13,-1,15,-1,17,-1,19,-1,21,-1,-1,-1],"loss_changes":[2.1956978E0,2.5484164E0,2.0400681E0,4.2183514E0,0E0,0E0,1.0056696E0,6.4208956E0,0E0,0E0,0E0,4.5985956E0,0E0,5.226759E0,0E0,2.4485703E0,0E0,2.3307285E0,0E0,1.2064552E0,0E0,0E0,0E0],"parents":[2147483647,0,0,1,1,2,2,3,3,6,6,7,7,11,11,13,13,15,15,17,17,19,19],"right_children":[2,4,6,8,-1,-1,10,12,-1,-1,-1,14,-1,16,-1,18,-1,20,-1,22,-1,-1,-1],"split_conditions":[1E0,1E0,1E0,1E0,-0E0,-0E0,1E0,1E0,-0E0,1.5854344E-2,-0E0,1E0,-0E0,1E0,-0E0,1E0,-0E0,1E0,-0E0,1E0,-0E0,-2.6561089E-2,-0E0],"split_indices":[656,1665,875,1738,0,0,322,724,0,0,0,182,0,2038,0,165,0,2000,0,978,0,0,0],"split_type":[0,0,0,0,0,0,0,0,0,0,0,0,0,0,0,0,0,0,0,0,0,0,0],"sum_hessian":[6.37E2,4.95E2,1.42E2,3.56E2,1.39E2,4.5E1,9.7E1,3.21E2,3.5E1,7.4E1,2.3E1,2.76E2,4.5E1,2.51E2,2.5E1,2.24E2,2.7E1,1.96E2,2.8E1,1.76E2,2E1,1.47E2,2.9E1],"tree_param":{"num_deleted":"0","num_feature":"2048","num_nodes":"23","size_leaf_vector":"1"}},{"base_weights":[-0E0,-0E0,1.1963028E-1,-9.283316E-2,-0E0,1.8362153E-1,-0E0,-1.6170731E-1,-0E0,-0E0,1.4371859E-2,-2.623954E-1,-0E0,-3.7144464E-1,-0E0,-2.7719855E-2,-0E0],"categories":[],"categories_nodes":[],"categories_segments":[],"categories_sizes":[],"default_left":[0,0,0,0,0,0,0,0,0,0,0,0,0,0,0,0,0],"id":25,"left_children":[1,3,5,7,-1,9,-1,11,-1,-1,-1,13,-1,15,-1,-1,-1],"loss_changes":[2.0465307E0,2.6371064E0,2.1343603E0,3.9786549E0,0E0,1.9008689E0,0E0,5.088968E0,0E0,0E0,0E0,6.7834015E0,0E0,5.8442326E0,0E0,0E0,0E0],"parents":[2147483647,0,0,1,1,2,2,3,3,5,5,7,7,11,11,13,13],"right_children":[2,4,6,8,-1,10,-1,12,-1,-1,-1,14,-1,16,-1,-1,-1],"split_conditions":[1E0,1E0,1E0,1E0,-0E0,1E0,-0E0,1E0,-0E0,-0E0,1.4371859E-2,1E0,-0E0,1E0,-0E0,-2.7719855E-2,-0E0],"split_indices":[1452,1928,464,81,0,875,0,739,0,0,0,1243,0,1589,0,0,0],"split_type":[0,0,0,0,0,0,0,0,0,0,0,0,0,0,0,0,0],"sum_hessian":[6.37E2,4.95E2,1.42E2,3.05E2,1.9E2,1.23E2,1.9E1,2.52E2,5.3E1,1.8E1,1.05E2,1.69E2,8.3E1,1.33E2,3.6E1,1.13E2,2E1],"tree_param":{"num_deleted":"0","num_feature":"2048","num_nodes":"17","size_leaf_vector":"1"}},{"base_weights":[-0E0,1.00175224E-1,-0E0,-0E0,2.4527247E-1,-1.0066515E-1,-0E0,1.7330924E-2,-0E0,-2.1877676E-1,-0E0,-0E0,7.4039614E-3,-1.851943E-2,-0E0],"categories":[],"categories_nodes":[],"categories_segments":[],"categories_sizes":[],"default_left":[0,0,0,0,0,0,0,0,0,0,0,0,0,0,0],"id":26,"left_children":[1,3,5,-1,7,9,11,-1,-1,13,-1,-1,-1,-1,-1],"loss_changes":[2.0070152E0,6.415187E0,2.0165613E0,0E0,1.0892277E0,5.0672026E0,1.3552388E0,0E0,0E0,4.6343536E0,0E0,0E0,0E0,0E0,0E0],"parents":[2147483647,0,0,1,1,2,2,4,4,5,5,6,6,9,9],"right_children":[2,4,6,-1,8,10,12,-1,-1,14,-1,-1,-1,-1,-1],"split_conditions":[1E0,1E0,1E0,-0E0,1E0,1E0,1E0,1.7330924E-2,-0E0,1E0,-0E0,-0E0,7.4039614E-3,-1.851943E-2,-0E0],"split_indices":[1152,875,1855,0,322,1487,1665,0,0,1911,0,0,0,0,0],"split_type":[0,0,0,0,0,0,0,0,0,0,0,0,0,0,0],"sum_hessian":[6.37E2,1.99E2,4.38E2,6E1,1.39E2,1.98E2,2.4E2,1.13E2,2.6E1,1.47E2,5.1E1,1.52E2,8.8E1,1.22E2,2.5E1],"tree_param":{"num_deleted":"0","num_feature":"2048","num_nodes":"15","size_leaf_vector":"1"}},{"base_weights":[-0E0,-0E0,1.0743282E-1,-6.57857E-2,-0E0,1.6521792E-1,-0E0,-1.2306911E-1,-0E0,1.230209E-2,-0E0,-1.9210845E-1,-0E0,-2.3687382E-1,-0E0,-2.8755444E-1,-0E0,-3.2274908E-1,-0E0,-3.671222E-1,-0E0,-2.4406405E-2,-0E0],"categories":[],"categories_nodes":[],"categories_segments":[],"categories_sizes":[],"default_left":[0,0,0,0,0,0,0,0,0,0,0,0,0,0,0,0,0,0,0,0,0,0,0],"id":27,"left_children":[1,3,5,7,-1,9,-1,11,-1,-1,-1,13,-1,15,-1,17,-1,19,-1,21,-1,-1,-1],"loss_changes":[1.650479E0,1.5450096E0,1.7616411E0,3.332004E0,0E0,1.0860832E0,0E0,5.3458543E0,0E0,0E0,0E0,3.9166527E0,0E0,4.4651775E0,0E0,2.124529E0,0E0,2.3179321E0,0E0,1.607069E0,0E0,0E0,0E0],"parents":[2147483647,0,0,1,1,2,2,3,3,5,5,7,7,11,11,13,13,15,15,17,17,19,19],"right_children":[2,4,6,8,-1,10,-1,12,-1,-1,-1,14,-1,16,-1,18,-1,20,-1,22,-1,-1,-1],"split_conditions":[1E0,1E0,1E0,1E0,-0E0,1E0,-0E0,1E0,-0E0,1.230209E-2,-0E0,1E0,-0E0,1E0,-0E0,1E0,-0E0,1E0,-0E0,1E0,-0E0,-2.4406405E-2,-0E0],"split_indices":[656,1665,121,1738,0,486,0,724,0,0,0,182,0,2038,0,1535,0,832,0,165,0,0,0],"split_type":[0,0,0,0,0,0,0,0,0,0,0,0,0,0,0,0,0,0,0,0,0,0,0],"sum_hessian":[6.37E2,4.95E2,1.42E2,3.56E2,1.39E2,1.24E2,1.8E1,3.21E2,3.5E1,1.06E2,1.8E1,2.76E2,4.5E1,2.51E2,2.5E1,2.24E2,2.7E1,1.98E2,2.6E1,1.7E2,2.8E1,1.48E2,2.2E1],"tree_param":{"num_deleted":"0","num_feature":"2048","num_nodes":"23","size_leaf_vector":"1"}},{"base_weights":[-0E0,6.553762E-2,-7.959633E-3,9.999943E-2,-0E0,-1.0541829E-1,-0E0,1.297535E-1,-0E0,-1.6452275E-1,-0E0,1.6299497E-1,-0E0,-2.0990573E-1,-0E0,1.2033486E-2,-0E0,-2.5808626E-1,-0E0,-1.7479591E-2,-0E0],"categories":[],"categories_nodes":[],"categories_segments":[],"categories_sizes":[],"default_left":[0,0,0,0,0,0,0,0,0,0,0,0,0,0,0,0,0,0,0,0,0],"id":28,"left_children":[1,3,5,7,-1,9,-1,11,-1,13,-1,15,-1,17,-1,-1,-1,19,-1,-1,-1],"loss_changes":[1.6274179E0,1.8992679E0,2.5503805E0,2.0964186E0,0E0,2.3862894E0,0E0,2.0981555E0,0E0,2.2284522E0,0E0,1.5468831E0,0E0,2.4763875E0,0E0,0E0,0E0,1.1203995E0,0E0,0E0,0E0],"parents":[2147483647,0,0,1,1,2,2,3,3,5,5,7,7,9,9,11,11,13,13,17,17],"right_children":[2,4,6,8,-1,10,-1,12,-1,14,-1,16,-1,18,-1,-1,-1,20,-1,-1,-1],"split_conditions":[1E0,1E0,1E0,1E0,-0E0,1E0,-0E0,1E0,-0E0,1E0,-0E0,1E0,-0E0,1E0,-0E0,1.2033486E-2,-0E0,1E0,-0E0,-1.7479591E-2,-0E0],"split_indices":[1088,552,699,197,0,667,0,335,0,2021,0,1536,0,81,0,0,0,832,0,0,0],"split_type":[0,0,0,0,0,0,0,0,0,0,0,0,0,0,0,0,0,0,0,0,0],"sum_hessian":[6.37E2,3.74E2,2.63E2,3.5E2,2.4E1,2.3E2,3.3E1,3.32E2,1.8E1,1.82E2,4.8E1,2.89E2,4.3E1,1.62E2,2E1,2.29E2,6E1,1.44E2,1.8E1,1.26E2,1.8E1],"tree_param":{"num_deleted":"0","num_feature":"2048","num_nodes":"21","size_leaf_vector":"1"}},{"base_weights":[-0E0,8.673458E-2,-0E0,-0E0,1.3382539E-2,-8.375009E-2,-0E0,-1.9382308E-1,-0E0,-0E0,6.585569E-3,-1.6797036E-2,-0E0],"categories":[],"categories_nodes":[],"categories_segments":[],"categories_sizes":[],"default_left":[0,0,0,0,0,0,0,0,0,0,0,0,0],"id":29,"left_children":[1,3,5,-1,-1,7,9,11,-1,-1,-1,-1,-1],"loss_changes":[1.5045775E0,5.460126E0,1.3958017E0,0E0,0E0,4.1641717E0,1.0721959E0,4.079826E0,0E0,0E0,0E0,0E0,0E0],"parents":[2147483647,0,0,1,1,2,2,5,5,6,6,7,7],"right_children":[2,4,6,-1,-1,8,10,12,-1,-1,-1,-1,-1],"split_conditions":[1E0,1E0,1E0,-0E0,1.3382539E-2,1E0,1E0,1E0,-0E0,-0E0,6.585569E-3,-1.6797036E-2,-0E0],"split_indices":[1152,875,1855,0,0,1487,1665,1911,0,0,0,0,0],"split_type":[0,0,0,0,0,0,0,0,0,0,0,0,0],"sum_hessian":[6.37E2,1.99E2,4.38E2,6E1,1.39E2,1.98E2,2.4E2,1.47E2,5.1E1,1.52E2,8.8E1,1.22E2,2.5E1],"tree_param":{"num_deleted":"0","num_feature":"2048","num_nodes":"13","size_leaf_vector":"1"}},{"base_weights":[-0E0,-0E0,9.534951E-2,-6.69435E-2,-0E0,1.547976E-1,-0E0,-1.2826076E-1,-0E0,-0E0,1.2202871E-2,-2.2854723E-1,-0E0,-2.854224E-1,-0E0,-2.1743298E-2,-0E0],"categories":[],"categories_nodes":[],"categories_segments":[],"categories_sizes":[],"default_left":[0,0,0,0,0,0,0,0,0,0,0,0,0,0,0,0,0],"id":30,"left_children":[1,3,5,7,-1,9,-1,11,-1,-1,-1,13,-1,15,-1,-1,-1],"loss_changes":[1.3000889E0,1.3713181E0,1.6712363E0,2.7907403E0,0E0,1.4132488E0,0E0,4.2475896E0,0E0,0E0,0E0,3.077052E0,0E0,2.5651054E0,0E0,0E0,0E0],"parents":[2147483647,0,0,1,1,2,2,3,3,5,5,7,7,11,11,13,13],"right_children":[2,4,6,8,-1,10,-1,12,-1,-1,-1,14,-1,16,-1,-1,-1],"split_conditions":[1E0,1E0,1E0,1E0,-0E0,1E0,-0E0,1E0,-0E0,-0E0,1.2202871E-2,1E0,-0E0,1E0,-0E0,-2.1743298E-2,-0E0],"split_indices":[1452,1928,464,81,0,875,0,310,0,0,0,910,0,1039,0,0,0],"split_type":[0,0,0,0,0,0,0,0,0,0,0,0,0,0,0,0,0],"sum_hessian":[6.37E2,4.95E2,1.42E2,3.05E2,1.9E2,1.23E2,1.9E1,2.52E2,5.3E1,1.8E1,1.05E2,1.6E2,9.2E1,1.4E2,2E1,1.06E2,3.4E1],"tree_param":{"num_deleted":"0","num_feature":"2048","num_nodes":"17","size_leaf_vector":"1"}},{"base_weights":[-0E0,-0E0,8.6662516E-2,-0E0,-9.167707E-2,1.535779E-1,-0E0,-1.52799E-1,-0E0,2.2432625E-1,-0E0,-1.916135E-1,-0E0,1.7747965E-2,-0E0,-2.3133817E-1,-0E0,-1.6500087E-2,-0E0],"categories":[],"categories_nodes":[],"categories_segments":[],"categories_sizes":[],"default_left":[0,0,0,0,0,0,0,0,0,0,0,0,0,0,0,0,0,0,0],"id":31,"left_children":[1,3,5,-1,7,9,-1,11,-1,13,-1,15,-1,-1,-1,17,-1,-1,-1],"loss_changes":[1.2392147E0,1.7145557E0,2.204366E0,0E0,1.9510069E0,2.8467026E0,0E0,1.4379239E0,0E0,3.071927E0,0E0,1.2650781E0,0E0,0E0,0E0,1.2696424E0,0E0,0E0,0E0],"parents":[2147483647,0,0,1,1,2,2,4,4,5,5,7,7,9,9,11,11,15,15],"right_children":[2,4,6,-1,8,10,-1,12,-1,14,-1,16,-1,-1,-1,18,-1,-1,-1],"split_conditions":[1E0,1E0,1E0,-0E0,1E0,1E0,-0E0,1E0,-0E0,1E0,-0E0,1E0,-0E0,1.7747965E-2,-0E0,1E0,-0E0,-1.6500087E-2,-0E0],"split_indices":[216,1088,2004,0,667,1722,0,1243,0,197,0,1099,0,0,0,1452,0,0,0],"split_type":[0,0,0,0,0,0,0,0,0,0,0,0,0,0,0,0,0,0,0],"sum_hessian":[6.37E2,4.73E2,1.64E2,2.7E2,2.03E2,1.45E2,1.9E1,1.56E2,4.7E1,1.24E2,2.1E1,1.38E2,1.8E1,1.06E2,1.8E1,1.18E2,2E1,1E2,1.8E1],"tree_param":{"num_deleted":"0","num_feature":"2048","num_nodes":"19","size_leaf_vector":"1"}},{"base_weights":[-0E0,-0E0,6.911814E-2,-0E0,-8.280362E-2,1.270066E-1,-0E0,-1.4461955E-1,-0E0,1.2714144E-2,-0E0,-1.2156062E-2,-0E0],"categories":[],"categories_nodes":[],"categories_segments":[],"categories_sizes":[],"default_left":[0,0,0,0,0,0,0,0,0,0,0,0,0],"id":32,"left_children":[1,3,5,-1,7,9,-1,11,-1,-1,-1,-1,-1],"loss_changes":[1.1322243E0,1.261585E0,2.319741E0,0E0,2.0847852E0,3.2834287E0,0E0,1.7845268E0,0E0,0E0,0E0,0E0,0E0],"parents":[2147483647,0,0,1,1,2,2,4,4,5,5,7,7],"right_children":[2,4,6,-1,8,10,-1,12,-1,-1,-1,-1,-1],"split_conditions":[1E0,1E0,1E0,-0E0,1E0,1E0,-0E0,1E0,-0E0,1.2714144E-2,-0E0,-1.2156062E-2,-0E0],"split_indices":[1928,1088,197,0,1589,695,0,736,0,0,0,0,0],"split_type":[0,0,0,0,0,0,0,0,0,0,0,0,0],"sum_hessian":[6.37E2,4.01E2,2.36E2,2.18E2,1.83E2,2.13E2,2.3E1,1.59E2,2.4E1,1.49E2,6.4E1,1.24E2,3.5E1],"tree_param":{"num_deleted":"0","num_feature":"2048","num_nodes":"13","size_leaf_vector":"1"}},{"base_weights":[-0E0],"categories":[],"categories_nodes":[],"categories_segments":[],"categories_sizes":[],"default_left":[0],"id":33,"left_children":[-1],"loss_changes":[0E0],"parents":[2147483647],"right_children":[-1],"split_conditions":[-0E0],"split_indices":[0],"split_type":[0],"sum_hessian":[6.37E2],"tree_param":{"num_deleted":"0","num_feature":"2048","num_nodes":"1","size_leaf_vector":"1"}},{"base_weights":[-0E0],"categories":[],"categories_nodes":[],"categories_segments":[],"categories_sizes":[],"default_left":[0],"id":34,"left_children":[-1],"loss_changes":[0E0],"parents":[2147483647],"right_children":[-1],"split_conditions":[-0E0],"split_indices":[0],"split_type":[0],"sum_hessian":[6.37E2],"tree_param":{"num_deleted":"0","num_feature":"2048","num_nodes":"1","size_leaf_vector":"1"}},{"base_weights":[-0E0],"categories":[],"categories_nodes":[],"categories_segments":[],"categories_sizes":[],"default_left":[0],"id":35,"left_children":[-1],"loss_changes":[0E0],"parents":[2147483647],"right_children":[-1],"split_conditions":[-0E0],"split_indices":[0],"split_type":[0],"sum_hessian":[6.37E2],"tree_param":{"num_deleted":"0","num_feature":"2048","num_nodes":"1","size_leaf_vector":"1"}},{"base_weights":[-0E0],"categories":[],"categories_nodes":[],"categories_segments":[],"categories_sizes":[],"default_left":[0],"id":36,"left_children":[-1],"loss_changes":[0E0],"parents":[2147483647],"right_children":[-1],"split_conditions":[-0E0],"split_indices":[0],"split_type":[0],"sum_hessian":[6.37E2],"tree_param":{"num_deleted":"0","num_feature":"2048","num_nodes":"1","size_leaf_vector":"1"}},{"base_weights":[-0E0],"categories":[],"categories_nodes":[],"categories_segments":[],"categories_sizes":[],"default_left":[0],"id":37,"left_children":[-1],"loss_changes":[0E0],"parents":[2147483647],"right_children":[-1],"split_conditions":[-0E0],"split_indices":[0],"split_type":[0],"sum_hessian":[6.37E2],"tree_param":{"num_deleted":"0","num_feature":"2048","num_nodes":"1","size_leaf_vector":"1"}},{"base_weights":[-0E0],"categories":[],"categories_nodes":[],"categories_segments":[],"categories_sizes":[],"default_left":[0],"id":38,"left_children":[-1],"loss_changes":[0E0],"parents":[2147483647],"right_children":[-1],"split_conditions":[-0E0],"split_indices":[0],"split_type":[0],"sum_hessian":[6.37E2],"tree_param":{"num_deleted":"0","num_feature":"2048","num_nodes":"1","size_leaf_vector":"1"}},{"base_weights":[-0E0],"categories":[],"categories_nodes":[],"categories_segments":[],"categories_sizes":[],"default_left":[0],"id":39,"left_children":[-1],"loss_changes":[0E0],"parents":[2147483647],"right_children":[-1],"split_conditions":[-0E0],"split_indices":[0],"split_type":[0],"sum_hessian":[6.37E2],"tree_param":{"num_deleted":"0","num_feature":"2048","num_nodes":"1","size_leaf_vector":"1"}},{"base_weights":[-0E0],"categories":[],"categories_nodes":[],"categories_segments":[],"categories_sizes":[],"default_left":[0],"id":40,"left_children":[-1],"loss_changes":[0E0],"parents":[2147483647],"right_children":[-1],"split_conditions":[-0E0],"split_indices":[0],"split_type":[0],"sum_hessian":[6.37E2],"tree_param":{"num_deleted":"0","num_feature":"2048","num_nodes":"1","size_leaf_vector":"1"}},{"base_weights":[-0E0],"categories":[],"categories_nodes":[],"categories_segments":[],"categories_sizes":[],"default_left":[0],"id":41,"left_children":[-1],"loss_changes":[0E0],"parents":[2147483647],"right_children":[-1],"split_conditions":[-0E0],"split_indices":[0],"split_type":[0],"sum_hessian":[6.37E2],"tree_param":{"num_deleted":"0","num_feature":"2048","num_nodes":"1","size_leaf_vector":"1"}},{"base_weights":[-0E0],"categories":[],"categories_nodes":[],"categories_segments":[],"categories_sizes":[],"default_left":[0],"id":42,"left_children":[-1],"loss_changes":[0E0],"parents":[2147483647],"right_children":[-1],"split_conditions":[-0E0],"split_indices":[0],"split_type":[0],"sum_hessian":[6.37E2],"tree_param":{"num_deleted":"0","num_feature":"2048","num_nodes":"1","size_leaf_vector":"1"}},{"base_weights":[-0E0],"categories":[],"categories_nodes":[],"categories_segments":[],"categories_sizes":[],"default_left":[0],"id":43,"left_children":[-1],"loss_changes":[0E0],"parents":[2147483647],"right_children":[-1],"split_conditions":[-0E0],"split_indices":[0],"split_type":[0],"sum_hessian":[6.37E2],"tree_param":{"num_deleted":"0","num_feature":"2048","num_nodes":"1","size_leaf_vector":"1"}},{"base_weights":[-0E0],"categories":[],"categories_nodes":[],"categories_segments":[],"categories_sizes":[],"default_left":[0],"id":44,"left_children":[-1],"loss_changes":[0E0],"parents":[2147483647],"right_children":[-1],"split_conditions":[-0E0],"split_indices":[0],"split_type":[0],"sum_hessian":[6.37E2],"tree_param":{"num_deleted":"0","num_feature":"2048","num_nodes":"1","size_leaf_vector":"1"}},{"base_weights":[-0E0],"categories":[],"categories_nodes":[],"categories_segments":[],"categories_sizes":[],"default_left":[0],"id":45,"left_children":[-1],"loss_changes":[0E0],"parents":[2147483647],"right_children":[-1],"split_conditions":[-0E0],"split_indices":[0],"split_type":[0],"sum_hessian":[6.37E2],"tree_param":{"num_deleted":"0","num_feature":"2048","num_nodes":"1","size_leaf_vector":"1"}},{"base_weights":[-0E0],"categories":[],"categories_nodes":[],"categories_segments":[],"categories_sizes":[],"default_left":[0],"id":46,"left_children":[-1],"loss_changes":[0E0],"parents":[2147483647],"right_children":[-1],"split_conditions":[-0E0],"split_indices":[0],"split_type":[0],"sum_hessian":[6.37E2],"tree_param":{"num_deleted":"0","num_feature":"2048","num_nodes":"1","size_leaf_vector":"1"}},{"base_weights":[-0E0],"categories":[],"categories_nodes":[],"categories_segments":[],"categories_sizes":[],"default_left":[0],"id":47,"left_children":[-1],"loss_changes":[0E0],"parents":[2147483647],"right_children":[-1],"split_conditions":[-0E0],"split_indices":[0],"split_type":[0],"sum_hessian":[6.37E2],"tree_param":{"num_deleted":"0","num_feature":"2048","num_nodes":"1","size_leaf_vector":"1"}},{"base_weights":[-0E0],"categories":[],"categories_nodes":[],"categories_segments":[],"categories_sizes":[],"default_left":[0],"id":48,"left_children":[-1],"loss_changes":[0E0],"parents":[2147483647],"right_children":[-1],"split_conditions":[-0E0],"split_indices":[0],"split_type":[0],"sum_hessian":[6.37E2],"tree_param":{"num_deleted":"0","num_feature":"2048","num_nodes":"1","size_leaf_vector":"1"}},{"base_weights":[-0E0],"categories":[],"categories_nodes":[],"categories_segments":[],"categories_sizes":[],"default_left":[0],"id":49,"left_children":[-1],"loss_changes":[0E0],"parents":[2147483647],"right_children":[-1],"split_conditions":[-0E0],"split_indices":[0],"split_type":[0],"sum_hessian":[6.37E2],"tree_param":{"num_deleted":"0","num_feature":"2048","num_nodes":"1","size_leaf_vector":"1"}},{"base_weights":[-0E0],"categories":[],"categories_nodes":[],"categories_segments":[],"categories_sizes":[],"default_left":[0],"id":50,"left_children":[-1],"loss_changes":[0E0],"parents":[2147483647],"right_children":[-1],"split_conditions":[-0E0],"split_indices":[0],"split_type":[0],"sum_hessian":[6.37E2],"tree_param":{"num_deleted":"0","num_feature":"2048","num_nodes":"1","size_leaf_vector":"1"}},{"base_weights":[-0E0],"categories":[],"categories_nodes":[],"categories_segments":[],"categories_sizes":[],"default_left":[0],"id":51,"left_children":[-1],"loss_changes":[0E0],"parents":[2147483647],"right_children":[-1],"split_conditions":[-0E0],"split_indices":[0],"split_type":[0],"sum_hessian":[6.37E2],"tree_param":{"num_deleted":"0","num_feature":"2048","num_nodes":"1","size_leaf_vector":"1"}},{"base_weights":[-0E0],"categories":[],"categories_nodes":[],"categories_segments":[],"categories_sizes":[],"default_left":[0],"id":52,"left_children":[-1],"loss_changes":[0E0],"parents":[2147483647],"right_children":[-1],"split_conditions":[-0E0],"split_indices":[0],"split_type":[0],"sum_hessian":[6.37E2],"tree_param":{"num_deleted":"0","num_feature":"2048","num_nodes":"1","size_leaf_vector":"1"}},{"base_weights":[-0E0],"categories":[],"categories_nodes":[],"categories_segments":[],"categories_sizes":[],"default_left":[0],"id":53,"left_children":[-1],"loss_changes":[0E0],"parents":[2147483647],"right_children":[-1],"split_conditions":[-0E0],"split_indices":[0],"split_type":[0],"sum_hessian":[6.37E2],"tree_param":{"num_deleted":"0","num_feature":"2048","num_nodes":"1","size_leaf_vector":"1"}},{"base_weights":[-0E0],"categories":[],"categories_nodes":[],"categories_segments":[],"categories_sizes":[],"default_left":[0],"id":54,"left_children":[-1],"loss_changes":[0E0],"parents":[2147483647],"right_children":[-1],"split_conditions":[-0E0],"split_indices":[0],"split_type":[0],"sum_hessian":[6.37E2],"tree_param":{"num_deleted":"0","num_feature":"2048","num_nodes":"1","size_leaf_vector":"1"}},{"base_weights":[-0E0],"categories":[],"categories_nodes":[],"categories_segments":[],"categories_sizes":[],"default_left":[0],"id":55,"left_children":[-1],"loss_changes":[0E0],"parents":[2147483647],"right_children":[-1],"split_conditions":[-0E0],"split_indices":[0],"split_type":[0],"sum_hessian":[6.37E2],"tree_param":{"num_deleted":"0","num_feature":"2048","num_nodes":"1","size_leaf_vector":"1"}},{"base_weights":[-0E0],"categories":[],"categories_nodes":[],"categories_segments":[],"categories_sizes":[],"default_left":[0],"id":56,"left_children":[-1],"loss_changes":[0E0],"parents":[2147483647],"right_children":[-1],"split_conditions":[-0E0],"split_indices":[0],"split_type":[0],"sum_hessian":[6.37E2],"tree_param":{"num_deleted":"0","num_feature":"2048","num_nodes":"1","size_leaf_vector":"1"}},{"base_weights":[-0E0],"categories":[],"categories_nodes":[],"categories_segments":[],"categories_sizes":[],"default_left":[0],"id":57,"left_children":[-1],"loss_changes":[0E0],"parents":[2147483647],"right_children":[-1],"split_conditions":[-0E0],"split_indices":[0],"split_type":[0],"sum_hessian":[6.37E2],"tree_param":{"num_deleted":"0","num_feature":"2048","num_nodes":"1","size_leaf_vector":"1"}},{"base_weights":[-0E0],"categories":[],"categories_nodes":[],"categories_segments":[],"categories_sizes":[],"default_left":[0],"id":58,"left_children":[-1],"loss_changes":[0E0],"parents":[2147483647],"right_children":[-1],"split_conditions":[-0E0],"split_indices":[0],"split_type":[0],"sum_hessian":[6.37E2],"tree_param":{"num_deleted":"0","num_feature":"2048","num_nodes":"1","size_leaf_vector":"1"}},{"base_weights":[-0E0],"categories":[],"categories_nodes":[],"categories_segments":[],"categories_sizes":[],"default_left":[0],"id":59,"left_children":[-1],"loss_changes":[0E0],"parents":[2147483647],"right_children":[-1],"split_conditions":[-0E0],"split_indices":[0],"split_type":[0],"sum_hessian":[6.37E2],"tree_param":{"num_deleted":"0","num_feature":"2048","num_nodes":"1","size_leaf_vector":"1"}},{"base_weights":[-0E0],"categories":[],"categories_nodes":[],"categories_segments":[],"categories_sizes":[],"default_left":[0],"id":60,"left_children":[-1],"loss_changes":[0E0],"parents":[2147483647],"right_children":[-1],"split_conditions":[-0E0],"split_indices":[0],"split_type":[0],"sum_hessian":[6.37E2],"tree_param":{"num_deleted":"0","num_feature":"2048","num_nodes":"1","size_leaf_vector":"1"}},{"base_weights":[-0E0],"categories":[],"categories_nodes":[],"categories_segments":[],"categories_sizes":[],"default_left":[0],"id":61,"left_children":[-1],"loss_changes":[0E0],"parents":[2147483647],"right_children":[-1],"split_conditions":[-0E0],"split_indices":[0],"split_type":[0],"sum_hessian":[6.37E2],"tree_param":{"num_deleted":"0","num_feature":"2048","num_nodes":"1","size_leaf_vector":"1"}},{"base_weights":[-0E0],"categories":[],"categories_nodes":[],"categories_segments":[],"categories_sizes":[],"default_left":[0],"id":62,"left_children":[-1],"loss_changes":[0E0],"parents":[2147483647],"right_children":[-1],"split_conditions":[-0E0],"split_indices":[0],"split_type":[0],"sum_hessian":[6.37E2],"tree_param":{"num_deleted":"0","num_feature":"2048","num_nodes":"1","size_leaf_vector":"1"}},{"base_weights":[-0E0],"categories":[],"categories_nodes":[],"categories_segments":[],"categories_sizes":[],"default_left":[0],"id":63,"left_children":[-1],"loss_changes":[0E0],"parents":[2147483647],"right_children":[-1],"split_conditions":[-0E0],"split_indices":[0],"split_type":[0],"sum_hessian":[6.37E2],"tree_param":{"num_deleted":"0","num_feature":"2048","num_nodes":"1","size_leaf_vector":"1"}},{"base_weights":[-0E0],"categories":[],"categories_nodes":[],"categories_segments":[],"categories_sizes":[],"default_left":[0],"id":64,"left_children":[-1],"loss_changes":[0E0],"parents":[2147483647],"right_children":[-1],"split_conditions":[-0E0],"split_indices":[0],"split_type":[0],"sum_hessian":[6.37E2],"tree_param":{"num_deleted":"0","num_feature":"2048","num_nodes":"1","size_leaf_vector":"1"}},{"base_weights":[-0E0],"categories":[],"categories_nodes":[],"categories_segments":[],"categories_sizes":[],"default_left":[0],"id":65,"left_children":[-1],"loss_changes":[0E0],"parents":[2147483647],"right_children":[-1],"split_conditions":[-0E0],"split_indices":[0],"split_type":[0],"sum_hessian":[6.37E2],"tree_param":{"num_deleted":"0","num_feature":"2048","num_nodes":"1","size_leaf_vector":"1"}},{"base_weights":[-0E0],"categories":[],"categories_nodes":[],"categories_segments":[],"categories_sizes":[],"default_left":[0],"id":66,"left_children":[-1],"loss_changes":[0E0],"parents":[2147483647],"right_children":[-1],"split_conditions":[-0E0],"split_indices":[0],"split_type":[0],"sum_hessian":[6.37E2],"tree_param":{"num_deleted":"0","num_feature":"2048","num_nodes":"1","size_leaf_vector":"1"}},{"base_weights":[-0E0],"categories":[],"categories_nodes":[],"categories_segments":[],"categories_sizes":[],"default_left":[0],"id":67,"left_children":[-1],"loss_changes":[0E0],"parents":[2147483647],"right_children":[-1],"split_conditions":[-0E0],"split_indices":[0],"split_type":[0],"sum_hessian":[6.37E2],"tree_param":{"num_deleted":"0","num_feature":"2048","num_nodes":"1","size_leaf_vector":"1"}},{"base_weights":[-0E0],"categories":[],"categories_nodes":[],"categories_segments":[],"categories_sizes":[],"default_left":[0],"id":68,"left_children":[-1],"loss_changes":[0E0],"parents":[2147483647],"right_children":[-1],"split_conditions":[-0E0],"split_indices":[0],"split_type":[0],"sum_hessian":[6.37E2],"tree_param":{"num_deleted":"0","num_feature":"2048","num_nodes":"1","size_leaf_vector":"1"}},{"base_weights":[-0E0],"categories":[],"categories_nodes":[],"categories_segments":[],"categories_sizes":[],"default_left":[0],"id":69,"left_children":[-1],"loss_changes":[0E0],"parents":[2147483647],"right_children":[-1],"split_conditions":[-0E0],"split_indices":[0],"split_type":[0],"sum_hessian":[6.37E2],"tree_param":{"num_deleted":"0","num_feature":"2048","num_nodes":"1","size_leaf_vector":"1"}},{"base_weights":[-0E0],"categories":[],"categories_nodes":[],"categories_segments":[],"categories_sizes":[],"default_left":[0],"id":70,"left_children":[-1],"loss_changes":[0E0],"parents":[2147483647],"right_children":[-1],"split_conditions":[-0E0],"split_indices":[0],"split_type":[0],"sum_hessian":[6.37E2],"tree_param":{"num_deleted":"0","num_feature":"2048","num_nodes":"1","size_leaf_vector":"1"}},{"base_weights":[-0E0],"categories":[],"categories_nodes":[],"categories_segments":[],"categories_sizes":[],"default_left":[0],"id":71,"left_children":[-1],"loss_changes":[0E0],"parents":[2147483647],"right_children":[-1],"split_conditions":[-0E0],"split_indices":[0],"split_type":[0],"sum_hessian":[6.37E2],"tree_param":{"num_deleted":"0","num_feature":"2048","num_nodes":"1","size_leaf_vector":"1"}},{"base_weights":[-0E0],"categories":[],"categories_nodes":[],"categories_segments":[],"categories_sizes":[],"default_left":[0],"id":72,"left_children":[-1],"loss_changes":[0E0],"parents":[2147483647],"right_children":[-1],"split_conditions":[-0E0],"split_indices":[0],"split_type":[0],"sum_hessian":[6.37E2],"tree_param":{"num_deleted":"0","num_feature":"2048","num_nodes":"1","size_leaf_vector":"1"}},{"base_weights":[-0E0],"categories":[],"categories_nodes":[],"categories_segments":[],"categories_sizes":[],"default_left":[0],"id":73,"left_children":[-1],"loss_changes":[0E0],"parents":[2147483647],"right_children":[-1],"split_conditions":[-0E0],"split_indices":[0],"split_type":[0],"sum_hessian":[6.37E2],"tree_param":{"num_deleted":"0","num_feature":"2048","num_nodes":"1","size_leaf_vector":"1"}},{"base_weights":[-0E0],"categories":[],"categories_nodes":[],"categories_segments":[],"categories_sizes":[],"default_left":[0],"id":74,"left_children":[-1],"loss_changes":[0E0],"parents":[2147483647],"right_children":[-1],"split_conditions":[-0E0],"split_indices":[0],"split_type":[0],"sum_hessian":[6.37E2],"tree_param":{"num_deleted":"0","num_feature":"2048","num_nodes":"1","size_leaf_vector":"1"}},{"base_weights":[-0E0],"categories":[],"categories_nodes":[],"categories_segments":[],"categories_sizes":[],"default_left":[0],"id":75,"left_children":[-1],"loss_changes":[0E0],"parents":[2147483647],"right_children":[-1],"split_conditions":[-0E0],"split_indices":[0],"split_type":[0],"sum_hessian":[6.37E2],"tree_param":{"num_deleted":"0","num_feature":"2048","num_nodes":"1","size_leaf_vector":"1"}},{"base_weights":[-0E0],"categories":[],"categories_nodes":[],"categories_segments":[],"categories_sizes":[],"default_left":[0],"id":76,"left_children":[-1],"loss_changes":[0E0],"parents":[2147483647],"right_children":[-1],"split_conditions":[-0E0],"split_indices":[0],"split_type":[0],"sum_hessian":[6.37E2],"tree_param":{"num_deleted":"0","num_feature":"2048","num_nodes":"1","size_leaf_vector":"1"}},{"base_weights":[-0E0],"categories":[],"categories_nodes":[],"categories_segments":[],"categories_sizes":[],"default_left":[0],"id":77,"left_children":[-1],"loss_changes":[0E0],"parents":[2147483647],"right_children":[-1],"split_conditions":[-0E0],"split_indices":[0],"split_type":[0],"sum_hessian":[6.37E2],"tree_param":{"num_deleted":"0","num_feature":"2048","num_nodes":"1","size_leaf_vector":"1"}},{"base_weights":[-0E0],"categories":[],"categories_nodes":[],"categories_segments":[],"categories_sizes":[],"default_left":[0],"id":78,"left_children":[-1],"loss_changes":[0E0],"parents":[2147483647],"right_children":[-1],"split_conditions":[-0E0],"split_indices":[0],"split_type":[0],"sum_hessian":[6.37E2],"tree_param":{"num_deleted":"0","num_feature":"2048","num_nodes":"1","size_leaf_vector":"1"}},{"base_weights":[-0E0],"categories":[],"categories_nodes":[],"categories_segments":[],"categories_sizes":[],"default_left":[0],"id":79,"left_children":[-1],"loss_changes":[0E0],"parents":[2147483647],"right_children":[-1],"split_conditions":[-0E0],"split_indices":[0],"split_type":[0],"sum_hessian":[6.37E2],"tree_param":{"num_deleted":"0","num_feature":"2048","num_nodes":"1","size_leaf_vector":"1"}},{"base_weights":[-0E0],"categories":[],"categories_nodes":[],"categories_segments":[],"categories_sizes":[],"default_left":[0],"id":80,"left_children":[-1],"loss_changes":[0E0],"parents":[2147483647],"right_children":[-1],"split_conditions":[-0E0],"split_indices":[0],"split_type":[0],"sum_hessian":[6.37E2],"tree_param":{"num_deleted":"0","num_feature":"2048","num_nodes":"1","size_leaf_vector":"1"}},{"base_weights":[-0E0],"categories":[],"categories_nodes":[],"categories_segments":[],"categories_sizes":[],"default_left":[0],"id":81,"left_children":[-1],"loss_changes":[0E0],"parents":[2147483647],"right_children":[-1],"split_conditions":[-0E0],"split_indices":[0],"split_type":[0],"sum_hessian":[6.37E2],"tree_param":{"num_deleted":"0","num_feature":"2048","num_nodes":"1","size_leaf_vector":"1"}},{"base_weights":[-0E0],"categories":[],"categories_nodes":[],"categories_segments":[],"categories_sizes":[],"default_left":[0],"id":82,"left_children":[-1],"loss_changes":[0E0],"parents":[2147483647],"right_children":[-1],"split_conditions":[-0E0],"split_indices":[0],"split_type":[0],"sum_hessian":[6.37E2],"tree_param":{"num_deleted":"0","num_feature":"2048","num_nodes":"1","size_leaf_vector":"1"}},{"base_weights":[-0E0],"categories":[],"categories_nodes":[],"categories_segments":[],"categories_sizes":[],"default_left":[0],"id":83,"left_children":[-1],"loss_changes":[0E0],"parents":[2147483647],"right_children":[-1],"split_conditions":[-0E0],"split_indices":[0],"split_type":[0],"sum_hessian":[6.37E2],"tree_param":{"num_deleted":"0","num_feature":"2048","num_nodes":"1","size_leaf_vector":"1"}},{"base_weights":[-0E0],"categories":[],"categories_nodes":[],"categories_segments":[],"categories_sizes":[],"default_left":[0],"id":84,"left_children":[-1],"loss_changes":[0E0],"parents":[2147483647],"right_children":[-1],"split_conditions":[-0E0],"split_indices":[0],"split_type":[0],"sum_hessian":[6.37E2],"tree_param":{"num_deleted":"0","num_feature":"2048","num_nodes":"1","size_leaf_vector":"1"}},{"base_weights":[-0E0],"categories":[],"categories_nodes":[],"categories_segments":[],"categories_sizes":[],"default_left":[0],"id":85,"left_children":[-1],"loss_changes":[0E0],"parents":[2147483647],"right_children":[-1],"split_conditions":[-0E0],"split_indices":[0],"split_type":[0],"sum_hessian":[6.37E2],"tree_param":{"num_deleted":"0","num_feature":"2048","num_nodes":"1","size_leaf_vector":"1"}},{"base_weights":[-0E0],"categories":[],"categories_nodes":[],"categories_segments":[],"categories_sizes":[],"default_left":[0],"id":86,"left_children":[-1],"loss_changes":[0E0],"parents":[2147483647],"right_children":[-1],"split_conditions":[-0E0],"split_indices":[0],"split_type":[0],"sum_hessian":[6.37E2],"tree_param":{"num_deleted":"0","num_feature":"2048","num_nodes":"1","size_leaf_vector":"1"}},{"base_weights":[-0E0],"categories":[],"categories_nodes":[],"categories_segments":[],"categories_sizes":[],"default_left":[0],"id":87,"left_children":[-1],"loss_changes":[0E0],"parents":[2147483647],"right_children":[-1],"split_conditions":[-0E0],"split_indices":[0],"split_type":[0],"sum_hessian":[6.37E2],"tree_param":{"num_deleted":"0","num_feature":"2048","num_nodes":"1","size_leaf_vector":"1"}},{"base_weights":[-0E0],"categories":[],"categories_nodes":[],"categories_segments":[],"categories_sizes":[],"default_left":[0],"id":88,"left_children":[-1],"loss_changes":[0E0],"parents":[2147483647],"right_children":[-1],"split_conditions":[-0E0],"split_indices":[0],"split_type":[0],"sum_hessian":[6.37E2],"tree_param":{"num_deleted":"0","num_feature":"2048","num_nodes":"1","size_leaf_vector":"1"}},{"base_weights":[-0E0],"categories":[],"categories_nodes":[],"categories_segments":[],"categories_sizes":[],"default_left":[0],"id":89,"left_children":[-1],"loss_changes":[0E0],"parents":[2147483647],"right_children":[-1],"split_conditions":[-0E0],"split_indices":[0],"split_type":[0],"sum_hessian":[6.37E2],"tree_param":{"num_deleted":"0","num_feature":"2048","num_nodes":"1","size_leaf_vector":"1"}},{"base_weights":[-0E0],"categories":[],"categories_nodes":[],"categories_segments":[],"categories_sizes":[],"default_left":[0],"id":90,"left_children":[-1],"loss_changes":[0E0],"parents":[2147483647],"right_children":[-1],"split_conditions":[-0E0],"split_indices":[0],"split_type":[0],"sum_hessian":[6.37E2],"tree_param":{"num_deleted":"0","num_feature":"2048","num_nodes":"1","size_leaf_vector":"1"}},{"base_weights":[-0E0],"categories":[],"categories_nodes":[],"categories_segments":[],"categories_sizes":[],"default_left":[0],"id":91,"left_children":[-1],"loss_changes":[0E0],"parents":[2147483647],"right_children":[-1],"split_conditions":[-0E0],"split_indices":[0],"split_type":[0],"sum_hessian":[6.37E2],"tree_param":{"num_deleted":"0","num_feature":"2048","num_nodes":"1","size_leaf_vector":"1"}},{"base_weights":[-0E0],"categories":[],"categories_nodes":[],"categories_segments":[],"categories_sizes":[],"default_left":[0],"id":92,"left_children":[-1],"loss_changes":[0E0],"parents":[2147483647],"right_children":[-1],"split_conditions":[-0E0],"split_indices":[0],"split_type":[0],"sum_hessian":[6.37E2],"tree_param":{"num_deleted":"0","num_feature":"2048","num_nodes":"1","size_leaf_vector":"1"}},{"base_weights":[-0E0],"categories":[],"categories_nodes":[],"categories_segments":[],"categories_sizes":[],"default_left":[0],"id":93,"left_children":[-1],"loss_changes":[0E0],"parents":[2147483647],"right_children":[-1],"split_conditions":[-0E0],"split_indices":[0],"split_type":[0],"sum_hessian":[6.37E2],"tree_param":{"num_deleted":"0","num_feature":"2048","num_nodes":"1","size_leaf_vector":"1"}},{"base_weights":[-0E0],"categories":[],"categories_nodes":[],"categories_segments":[],"categories_sizes":[],"default_left":[0],"id":94,"left_children":[-1],"loss_changes":[0E0],"parents":[2147483647],"right_children":[-1],"split_conditions":[-0E0],"split_indices":[0],"split_type":[0],"sum_hessian":[6.37E2],"tree_param":{"num_deleted":"0","num_feature":"2048","num_nodes":"1","size_leaf_vector":"1"}}]},"name":"gbtree"},"learner_model_param":{"base_score":"7.1986117E0","boost_from_average":"1","num_class":"0","num_feature":"2048","num_target":"1"},"objective":{"name":"reg:squarederror","reg_loss_param":{"scale_pos_weight":"1"}}},"version":[2,0,3]}