{"learner":{"attributes":{"scikit_learn":"{\"_estimator_type\": \"regressor\"}"},"feature_names":[],"feature_types":[],"gradient_booster":{"model":{"gbtree_model_param":{"num_parallel_tree":"1","num_trees":"74"},"iteration_indptr":[0,1,2,3,4,5,6,7,8,9,10,11,12,13,14,15,16,17,18,19,20,21,22,23,24,25,26,27,28,29,30,31,32,33,34,35,36,37,38,39,40,41,42,43,44,45,46,47,48,49,50,51,52,53,54,55,56,57,58,59,60,61,62,63,64,65,66,67,68,69,70,71,72,73,74],"tree_info":[0,0,0,0,0,0,0,0,0,0,0,0,0,0,0,0,0,0,0,0,0,0,0,0,0,0,0,0,0,0,0,0,0,0,0,0,0,0,0,0,0,0,0,0,0,0,0,0,0,0,0,0,0,0,0,0,0,0,0,0,0,0,0,0,0,0,0,0,0,0,0,0,0,0],"trees":[{"base_weights":[-0E0,2.896214E-1,-3.4754547E-1,4.5082235E-1,-0E0,-5.57263E-1,-0E0,-0E0,1.6339248E-2,-6.803718E-1,-0E0,-8.003747E-1,-0E0,-3.100847E-2,-0E0],"categories":[],"categories_nodes":[],"categories_segments":[],"categories_sizes":[],"default_left":[0,0,0,0,0,0,0,0,0,0,0,0,0,0,0],"id":0,"left_children":[1,3,5,7,-1,9,-1,-1,-1,11,-1,13,-1,-1,-1],"loss_changes":[2.2144453E1,9.851931E0,1.3075121E1,2.03335E0,0E0,7.2494984E0,0E0,0E0,0E0,5.3919716E0,0E0,8.144165E0,0E0,0E0,0E0],"parents":[2147483647,0,0,1,1,2,2,3,3,5,5,9,9,11,11],"right_children":[2,4,6,8,-1,10,-1,-1,-1,12,-1,14,-1,-1,-1],"split_conditions":[1E0,1E0,1E0,1E0,-0E0,1E0,-0E0,-0E0,1.6339248E-2,1E0,-0E0,1E0,-0E0,-3.100847E-2,-0E0],"split_indices":[1088,675,77,1357,0,739,0,0,0,1738,0,182,0,0,0],"split_type":[0,0,0,0,0,0,0,0,0,0,0,0,0,0,0],"sum_hessian":[2.18E2,1.19E2,9.9E1,9.7E1,2.2E1,8E1,1.9E1,2.4E1,7.3E1,6.9E1,1.1E1,5.8E1,1.1E1,4.2E1,1.6E1],"tree_param":{"num_deleted":"0","num_feature":"2048","num_nodes":"15","size_leaf_vector":"1"}},{"base_weights":[-0E0,2.3428538E-1,-4.0069222E-1,1.6700799E-2,-0E0,-5.272493E-1,-0E0,-1.8961566E-2,-0E0],"categories":[],"categories_nodes":[],"categories_segments":[],"categories_sizes":[],"default_left":[0,0,0,0,0,0,0,0,0],"id":1,"left_children":[1,3,5,-1,-1,7,-1,-1,-1],"loss_changes":[2.0634552E1,1.3444046E1,6.4545317E0,0E0,0E0,2.1130352E0,0E0,0E0,0E0],"parents":[2147483647,0,0,1,1,2,2,5,5],"right_children":[2,4,6,-1,-1,8,-1,-1,-1],"split_conditions":[1E0,1E0,1E0,1.6700799E-2,-0E0,1E0,-0E0,-1.8961566E-2,-0E0],"split_indices":[1199,1152,726,0,0,182,0,0,0],"split_type":[0,0,0,0,0,0,0,0,0],"sum_hessian":[2.18E2,1.38E2,8E1,6.7E1,7.1E1,6.9E1,1.1E1,5.3E1,1.6E1],"tree_param":{"num_deleted":"0","num_feature":"2048","num_nodes":"9","size_leaf_vector":"1"}},{"base_weights":[-0E0,2.7133128E-1,-3.256415E-1,4.2859674E-1,-0E0,-5.300707E-1,-0E0,-0E0,1.5544247E-2,-6.5107346E-1,-0E0,-7.666547E-1,-0E0,-2.9620461E-2,-0E0],"categories":[],"categories_nodes":[],"categories_segments":[],"categories_sizes":[],"default_left":[0,0,0,0,0,0,0,0,0,0,0,0,0,0,0],"id":2,"left_children":[1,3,5,7,-1,9,-1,-1,-1,11,-1,13,-1,-1,-1],"loss_changes":[1.943872E1,9.167644E0,1.2154731E1,1.8647022E0,0E0,6.9137936E0,0E0,0E0,0E0,5.005039E0,0E0,7.24107E0,0E0,0E0,0E0],"parents":[2147483647,0,0,1,1,2,2,3,3,5,5,9,9,11,11],"right_children":[2,4,6,8,-1,10,-1,-1,-1,12,-1,14,-1,-1,-1],"split_conditions":[1E0,1E0,1E0,1E0,-0E0,1E0,-0E0,-0E0,1.5544247E-2,1E0,-0E0,1E0,-0E0,-2.9620461E-2,-0E0],"split_indices":[1088,675,77,1357,0,739,0,0,0,1738,0,182,0,0,0],"split_type":[0,0,0,0,0,0,0,0,0,0,0,0,0,0,0],"sum_hessian":[2.18E2,1.19E2,9.9E1,9.7E1,2.2E1,8E1,1.9E1,2.4E1,7.3E1,6.9E1,1.1E1,5.8E1,1.1E1,4.2E1,1.6E1],"tree_param":{"num_deleted":"0","num_feature":"2048","num_nodes":"15","size_leaf_vector":"1"}},{"base_weights":[-0E0,2.6187512E-1,-3.1320083E-1,4.1701773E-1,-0E0,-5.1471186E-1,-0E0,1.6885944E-2,-0E0,-6.333011E-1,-0E0,-7.455688E-1,-0E0,-2.8752508E-2,-0E0],"categories":[],"categories_nodes":[],"categories_segments":[],"categories_sizes":[],"default_left":[0,0,0,0,0,0,0,0,0,0,0,0,0,0,0],"id":3,"left_children":[1,3,5,7,-1,9,-1,-1,-1,11,-1,13,-1,-1,-1],"loss_changes":[1.8038904E1,8.813142E0,1.1649714E1,1.9664364E0,0E0,6.6157265E0,0E0,0E0,0E0,4.7215805E0,0E0,6.7017136E0,0E0,0E0,0E0],"parents":[2147483647,0,0,1,1,2,2,3,3,5,5,9,9,11,11],"right_children":[2,4,6,8,-1,10,-1,-1,-1,12,-1,14,-1,-1,-1],"split_conditions":[1E0,1E0,1E0,1E0,-0E0,1E0,-0E0,1.6885944E-2,-0E0,1E0,-0E0,1E0,-0E0,-2.8752508E-2,-0E0],"split_indices":[1088,675,77,1152,0,739,0,0,0,1738,0,182,0,0,0],"split_type":[0,0,0,0,0,0,0,0,0,0,0,0,0,0,0],"sum_hessian":[2.18E2,1.19E2,9.9E1,9.7E1,2.2E1,8E1,1.9E1,5.9E1,3.8E1,6.9E1,1.1E1,5.8E1,1.1E1,4.2E1,1.6E1],"tree_param":{"num_deleted":"0","num_feature":"2048","num_nodes":"15","size_leaf_vector":"1"}},{"base_weights":[-0E0,2.1258423E-1,-3.609005E-1,1.5503663E-2,-0E0,-4.8120457E-1,-0E0,-1.7170938E-2,-0E0],"categories":[],"categories_nodes":[],"categories_segments":[],"categories_sizes":[],"default_left":[0,0,0,0,0,0,0,0,0],"id":4,"left_children":[1,3,5,-1,-1,7,-1,-1,-1],"loss_changes":[1.6831879E1,1.1879108E1,5.658866E0,0E0,0E0,1.4814186E0,0E0,0E0,0E0],"parents":[2147483647,0,0,1,1,2,2,5,5],"right_children":[2,4,6,-1,-1,8,-1,-1,-1],"split_conditions":[1E0,1E0,1E0,1.5503663E-2,-0E0,1E0,-0E0,-1.7170938E-2,-0E0],"split_indices":[1199,1152,726,0,0,182,0,0,0],"split_type":[0,0,0,0,0,0,0,0,0],"sum_hessian":[2.18E2,1.38E2,8E1,6.7E1,7.1E1,6.9E1,1.1E1,5.3E1,1.6E1],"tree_param":{"num_deleted":"0","num_feature":"2048","num_nodes":"9","size_leaf_vector":"1"}},{"base_weights":[-0E0,2.45821E-1,-2.9310954E-1,3.9751783E-1,-0E0,-4.8975754E-1,-0E0,-0E0,1.4480192E-2,-6.0638773E-1,-0E0,-7.1456736E-1,-0E0,-2.7476402E-2,-0E0],"categories":[],"categories_nodes":[],"categories_segments":[],"categories_sizes":[],"default_left":[0,0,0,0,0,0,0,0,0,0,0,0,0,0,0],"id":5,"left_children":[1,3,5,7,-1,9,-1,-1,-1,11,-1,13,-1,-1,-1],"loss_changes":[1.5842677E1,8.234646E0,1.0837537E1,1.7540226E0,0E0,6.31057E0,0E0,0E0,0E0,4.3863564E0,0E0,5.9441776E0,0E0,0E0,0E0],"parents":[2147483647,0,0,1,1,2,2,3,3,5,5,9,9,11,11],"right_children":[2,4,6,8,-1,10,-1,-1,-1,12,-1,14,-1,-1,-1],"split_conditions":[1E0,1E0,1E0,1E0,-0E0,1E0,-0E0,-0E0,1.4480192E-2,1E0,-0E0,1E0,-0E0,-2.7476402E-2,-0E0],"split_indices":[1088,675,77,1357,0,739,0,0,0,1738,0,182,0,0,0],"split_type":[0,0,0,0,0,0,0,0,0,0,0,0,0,0,0],"sum_hessian":[2.18E2,1.19E2,9.9E1,9.7E1,2.2E1,8E1,1.9E1,2.4E1,7.3E1,6.9E1,1.1E1,5.8E1,1.1E1,4.2E1,1.6E1],"tree_param":{"num_deleted":"0","num_feature":"2048","num_nodes":"15","size_leaf_vector":"1"}},{"base_weights":[-0E0,2.3701227E-1,-2.815695E-1,3.8673162E-1,-0E0,-4.7551057E-1,-0E0,-0E0,1.4051659E-2,-5.89902E-1,-0E0,-6.95008E-1,-0E0,-2.6671283E-2,-0E0],"categories":[],"categories_nodes":[],"categories_segments":[],"categories_sizes":[],"default_left":[0,0,0,0,0,0,0,0,0,0,0,0,0,0,0],"id":6,"left_children":[1,3,5,7,-1,9,-1,-1,-1,11,-1,13,-1,-1,-1],"loss_changes":[1.4669116E1,7.916034E0,1.0386795E1,1.5776949E0,0E0,6.043968E0,0E0,0E0,0E0,4.1402245E0,0E0,5.4879494E0,0E0,0E0,0E0],"parents":[2147483647,0,0,1,1,2,2,3,3,5,5,9,9,11,11],"right_children":[2,4,6,8,-1,10,-1,-1,-1,12,-1,14,-1,-1,-1],"split_conditions":[1E0,1E0,1E0,1E0,-0E0,1E0,-0E0,-0E0,1.4051659E-2,1E0,-0E0,1E0,-0E0,-2.6671283E-2,-0E0],"split_indices":[1088,675,77,1357,0,739,0,0,0,1738,0,182,0,0,0],"split_type":[0,0,0,0,0,0,0,0,0,0,0,0,0,0,0],"sum_hessian":[2.18E2,1.19E2,9.9E1,9.7E1,2.2E1,8E1,1.9E1,2.4E1,7.3E1,6.9E1,1.1E1,5.8E1,1.1E1,4.2E1,1.6E1],"tree_param":{"num_deleted":"0","num_feature":"2048","num_nodes":"15","size_leaf_vector":"1"}},{"base_weights":[-0E0,1.9168514E-1,-3.242626E-1,1.4514142E-2,-0E0,-1.3164278E-2,-0E0],"categories":[],"categories_nodes":[],"categories_segments":[],"categories_sizes":[],"default_left":[0,0,0,0,0,0,0],"id":7,"left_children":[1,3,5,-1,-1,-1,-1],"loss_changes":[1.3624147E1,1.0809254E1,4.9619064E0,0E0,0E0,0E0,0E0],"parents":[2147483647,0,0,1,1,2,2],"right_children":[2,4,6,-1,-1,-1,-1],"split_conditions":[1E0,1E0,1E0,1.4514142E-2,-0E0,-1.3164278E-2,-0E0],"split_indices":[1199,1152,726,0,0,0,0],"split_type":[0,0,0,0,0,0,0],"sum_hessian":[2.18E2,1.38E2,8E1,6.7E1,7.1E1,6.9E1,1.1E1],"tree_param":{"num_deleted":"0","num_feature":"2048","num_nodes":"7","size_leaf_vector":"1"}},{"base_weights":[-0E0,2.2120732E-1,-2.6230028E-1,3.6752674E-1,-0E0,-4.515089E-1,-0E0,1.4846061E-2,-0E0,-5.636331E-1,-0E0,-6.6446507E-1,-0E0,-2.5561001E-2,-0E0],"categories":[],"categories_nodes":[],"categories_segments":[],"categories_sizes":[],"default_left":[0,0,0,0,0,0,0,0,0,0,0,0,0,0,0],"id":8,"left_children":[1,3,5,7,-1,9,-1,-1,-1,11,-1,13,-1,-1,-1],"loss_changes":[1.2752067E1,7.365516E0,9.63254E0,1.4562654E0,0E0,5.725075E0,0E0,0E0,0E0,3.8115578E0,0E0,5.167E0,0E0,0E0,0E0],"parents":[2147483647,0,0,1,1,2,2,3,3,5,5,9,9,11,11],"right_children":[2,4,6,8,-1,10,-1,-1,-1,12,-1,14,-1,-1,-1],"split_conditions":[1E0,1E0,1E0,1E0,-0E0,1E0,-0E0,1.4846061E-2,-0E0,1E0,-0E0,1E0,-0E0,-2.5561001E-2,-0E0],"split_indices":[1088,675,77,1152,0,739,0,0,0,1738,0,182,0,0,0],"split_type":[0,0,0,0,0,0,0,0,0,0,0,0,0,0,0],"sum_hessian":[2.18E2,1.19E2,9.9E1,9.7E1,2.2E1,8E1,1.9E1,5.9E1,3.8E1,6.9E1,1.1E1,5.8E1,1.1E1,4.2E1,1.6E1],"tree_param":{"num_deleted":"0","num_feature":"2048","num_nodes":"15","size_leaf_vector":"1"}},{"base_weights":[-0E0,2.1390812E-1,-2.5156474E-1,3.5858893E-1,-0E0,-4.3825513E-1,-0E0,-0E0,1.30882915E-2,-5.482966E-1,-0E0,-6.462692E-1,-0E0,-2.4812007E-2,-0E0],"categories":[],"categories_nodes":[],"categories_segments":[],"categories_sizes":[],"default_left":[0,0,0,0,0,0,0,0,0,0,0,0,0,0,0],"id":9,"left_children":[1,3,5,7,-1,9,-1,-1,-1,11,-1,13,-1,-1,-1],"loss_changes":[1.18192835E1,7.110629E0,9.228991E0,1.4835138E0,0E0,5.4865665E0,0E0,0E0,0E0,3.5981312E0,0E0,4.771538E0,0E0,0E0,0E0],"parents":[2147483647,0,0,1,1,2,2,3,3,5,5,9,9,11,11],"right_children":[2,4,6,8,-1,10,-1,-1,-1,12,-1,14,-1,-1,-1],"split_conditions":[1E0,1E0,1E0,1E0,-0E0,1E0,-0E0,-0E0,1.30882915E-2,1E0,-0E0,1E0,-0E0,-2.4812007E-2,-0E0],"split_indices":[1088,675,77,1357,0,739,0,0,0,1738,0,182,0,0,0],"split_type":[0,0,0,0,0,0,0,0,0,0,0,0,0,0,0],"sum_hessian":[2.18E2,1.19E2,9.9E1,9.7E1,2.2E1,8E1,1.9E1,2.4E1,7.3E1,6.9E1,1.1E1,5.8E1,1.1E1,4.2E1,1.6E1],"tree_param":{"num_deleted":"0","num_feature":"2048","num_nodes":"15","size_leaf_vector":"1"}},{"base_weights":[-0E0,1.7296363E-1,-2.8941694E-1,4.4925103E-1,-0E0,-1.1954636E-2,-0E0,-0E0,1.6905013E-2],"categories":[],"categories_nodes":[],"categories_segments":[],"categories_sizes":[],"default_left":[0,0,0,0,0,0,0,0,0],"id":10,"left_children":[1,3,5,7,-1,-1,-1,-1,-1],"loss_changes":[1.0943118E1,9.565818E0,4.3307467E0,1.1998386E0,0E0,0E0,0E0,0E0,0E0],"parents":[2147483647,0,0,1,1,2,2,3,3],"right_children":[2,4,6,8,-1,-1,-1,-1,-1],"split_conditions":[1E0,1E0,1E0,1E0,-0E0,-1.1954636E-2,-0E0,-0E0,1.6905013E-2],"split_indices":[1199,1152,726,1480,0,0,0,0,0],"split_type":[0,0,0,0,0,0,0,0,0],"sum_hessian":[2.18E2,1.38E2,8E1,6.7E1,7.1E1,6.9E1,1.1E1,2.1E1,4.6E1],"tree_param":{"num_deleted":"0","num_feature":"2048","num_nodes":"9","size_leaf_vector":"1"}},{"base_weights":[-0E0,2.001703E-1,-2.3374005E-1,3.417671E-1,-0E0,-4.159184E-1,-0E0,-0E0,1.2474792E-2,-5.2381605E-1,-0E0,-6.1766464E-1,-0E0,-2.3768011E-2,-0E0],"categories":[],"categories_nodes":[],"categories_segments":[],"categories_sizes":[],"default_left":[0,0,0,0,0,0,0,0,0,0,0,0,0,0,0],"id":11,"left_children":[1,3,5,7,-1,9,-1,-1,-1,11,-1,13,-1,-1,-1],"loss_changes":[1.0271618E1,6.6386886E0,8.548597E0,1.3485918E0,0E0,5.194791E0,0E0,0E0,0E0,3.3022346E0,0E0,4.4814796E0,0E0,0E0,0E0],"parents":[2147483647,0,0,1,1,2,2,3,3,5,5,9,9,11,11],"right_children":[2,4,6,8,-1,10,-1,-1,-1,12,-1,14,-1,-1,-1],"split_conditions":[1E0,1E0,1E0,1E0,-0E0,1E0,-0E0,-0E0,1.2474792E-2,1E0,-0E0,1E0,-0E0,-2.3768011E-2,-0E0],"split_indices":[1088,675,77,1357,0,739,0,0,0,1738,0,182,0,0,0],"split_type":[0,0,0,0,0,0,0,0,0,0,0,0,0,0,0],"sum_hessian":[2.18E2,1.19E2,9.9E1,9.7E1,2.2E1,8E1,1.9E1,2.4E1,7.3E1,6.9E1,1.1E1,5.8E1,1.1E1,4.2E1,1.6E1],"tree_param":{"num_deleted":"0","num_feature":"2048","num_nodes":"15","size_leaf_vector":"1"}},{"base_weights":[-0E0,1.9258133E-1,-2.237575E-1,3.324745E-1,-0E0,-4.035943E-1,-0E0,1.3473606E-2,-0E0,-5.095553E-1,-0E0,-6.007451E-1,-0E0,-2.3071555E-2,-0E0],"categories":[],"categories_nodes":[],"categories_segments":[],"categories_sizes":[],"default_left":[0,0,0,0,0,0,0,0,0,0,0,0,0,0,0],"id":12,"left_children":[1,3,5,7,-1,9,-1,-1,-1,11,-1,13,-1,-1,-1],"loss_changes":[9.457251E0,6.3823423E0,8.187214E0,1.2696857E0,0E0,4.981306E0,0E0,0E0,0E0,3.1175194E0,0E0,4.1391716E0,0E0,0E0,0E0],"parents":[2147483647,0,0,1,1,2,2,3,3,5,5,9,9,11,11],"right_children":[2,4,6,8,-1,10,-1,-1,-1,12,-1,14,-1,-1,-1],"split_conditions":[1E0,1E0,1E0,1E0,-0E0,1E0,-0E0,1.3473606E-2,-0E0,1E0,-0E0,1E0,-0E0,-2.3071555E-2,-0E0],"split_indices":[1088,675,77,1152,0,739,0,0,0,1738,0,182,0,0,0],"split_type":[0,0,0,0,0,0,0,0,0,0,0,0,0,0,0],"sum_hessian":[2.18E2,1.19E2,9.9E1,9.7E1,2.2E1,8E1,1.9E1,5.9E1,3.8E1,6.9E1,1.1E1,5.8E1,1.1E1,4.2E1,1.6E1],"tree_param":{"num_deleted":"0","num_feature":"2048","num_nodes":"15","size_leaf_vector":"1"}},{"base_weights":[-0E0,1.5644655E-1,-2.5725907E-1,4.190638E-1,-0E0,-1.0838298E-2,-0E0,-0E0,1.5793283E-2],"categories":[],"categories_nodes":[],"categories_segments":[],"categories_sizes":[],"default_left":[0,0,0,0,0,0,0,0,0],"id":13,"left_children":[1,3,5,7,-1,-1,-1,-1,-1],"loss_changes":[8.762857E0,8.539686E0,3.7756958E0,1.083888E0,0E0,0E0,0E0,0E0,0E0],"parents":[2147483647,0,0,1,1,2,2,3,3],"right_children":[2,4,6,8,-1,-1,-1,-1,-1],"split_conditions":[1E0,1E0,1E0,1E0,-0E0,-1.0838298E-2,-0E0,-0E0,1.5793283E-2],"split_indices":[1199,1152,726,1480,0,0,0,0,0],"split_type":[0,0,0,0,0,0,0,0,0],"sum_hessian":[2.18E2,1.38E2,8E1,6.7E1,7.1E1,6.9E1,1.1E1,2.1E1,4.6E1],"tree_param":{"num_deleted":"0","num_feature":"2048","num_nodes":"9","size_leaf_vector":"1"}},{"base_weights":[-0E0,1.805608E-1,-2.0737846E-1,3.177555E-1,-0E0,-3.8305593E-1,-0E0,-0E0,1.1643047E-2,-4.8702815E-1,-0E0,-5.744011E-1,-0E0,-2.2108153E-2,-0E0],"categories":[],"categories_nodes":[],"categories_segments":[],"categories_sizes":[],"default_left":[0,0,0,0,0,0,0,0,0,0,0,0,0,0,0],"id":14,"left_children":[1,3,5,7,-1,9,-1,-1,-1,11,-1,13,-1,-1,-1],"loss_changes":[8.212847E0,5.982653E0,7.5846963E0,1.2511721E0,0E0,4.7184715E0,0E0,0E0,0E0,2.8625107E0,0E0,3.8861027E0,0E0,0E0,0E0],"parents":[2147483647,0,0,1,1,2,2,3,3,5,5,9,9,11,11],"right_children":[2,4,6,8,-1,10,-1,-1,-1,12,-1,14,-1,-1,-1],"split_conditions":[1E0,1E0,1E0,1E0,-0E0,1E0,-0E0,-0E0,1.1643047E-2,1E0,-0E0,1E0,-0E0,-2.2108153E-2,-0E0],"split_indices":[1088,675,77,1357,0,739,0,0,0,1738,0,182,0,0,0],"split_type":[0,0,0,0,0,0,0,0,0,0,0,0,0,0,0],"sum_hessian":[2.18E2,1.19E2,9.9E1,9.7E1,2.2E1,8E1,1.9E1,2.4E1,7.3E1,6.9E1,1.1E1,5.8E1,1.1E1,4.2E1,1.6E1],"tree_param":{"num_deleted":"0","num_feature":"2048","num_nodes":"15","size_leaf_vector":"1"}},{"base_weights":[-0E0,1.7347802E-1,-1.9809307E-1,3.090827E-1,-0E0,-3.7159246E-1,-0E0,-0E0,1.1298479E-2,-4.7376332E-1,-0E0,-5.5866313E-1,-0E0,-2.1460334E-2,-0E0],"categories":[],"categories_nodes":[],"categories_segments":[],"categories_sizes":[],"default_left":[0,0,0,0,0,0,0,0,0,0,0,0,0,0,0],"id":15,"left_children":[1,3,5,7,-1,9,-1,-1,-1,11,-1,13,-1,-1,-1],"loss_changes":[7.535441E0,5.7507915E0,7.2604713E0,1.1339836E0,0E0,4.5270576E0,0E0,0E0,0E0,2.70255E0,0E0,3.589697E0,0E0,0E0,0E0],"parents":[2147483647,0,0,1,1,2,2,3,3,5,5,9,9,11,11],"right_children":[2,4,6,8,-1,10,-1,-1,-1,12,-1,14,-1,-1,-1],"split_conditions":[1E0,1E0,1E0,1E0,-0E0,1E0,-0E0,-0E0,1.1298479E-2,1E0,-0E0,1E0,-0E0,-2.1460334E-2,-0E0],"split_indices":[1088,675,77,1357,0,739,0,0,0,1738,0,182,0,0,0],"split_type":[0,0,0,0,0,0,0,0,0,0,0,0,0,0,0],"sum_hessian":[2.18E2,1.19E2,9.9E1,9.7E1,2.2E1,8E1,1.9E1,2.4E1,7.3E1,6.9E1,1.1E1,5.8E1,1.1E1,4.2E1,1.6E1],"tree_param":{"num_deleted":"0","num_feature":"2048","num_nodes":"15","size_leaf_vector":"1"}},{"base_weights":[-0E0,-1.0996618E-2,9.258349E-2,4.6095648E-1,-0E0,1.6287982E-2,-0E0],"categories":[],"categories_nodes":[],"categories_segments":[],"categories_sizes":[],"default_left":[0,0,0,0,0,0,0],"id":16,"left_children":[1,-1,3,5,-1,-1,-1],"loss_changes":[7.168959E0,0E0,1.4410302E1,2.9295979E0,0E0,0E0,0E0],"parents":[2147483647,0,0,2,2,3,3],"right_children":[2,-1,4,6,-1,-1,-1],"split_conditions":[1E0,-1.0996618E-2,1E0,1E0,-0E0,1.6287982E-2,-0E0],"split_indices":[875,0,1152,14,0,0,0],"split_type":[0,0,0,0,0,0,0],"sum_hessian":[2.18E2,4.1E1,1.77E2,7.4E1,1.03E2,6.3E1,1.1E1],"tree_param":{"num_deleted":"0","num_feature":"2048","num_nodes":"7","size_leaf_vector":"1"}},{"base_weights":[-0E0,-1.067457E-2,8.681871E-2,4.4727474E-1,-0E0,1.5806984E-2,-0E0],"categories":[],"categories_nodes":[],"categories_segments":[],"categories_sizes":[],"default_left":[0,0,0,0,0,0,0],"id":17,"left_children":[1,-1,3,5,-1,-1,-1],"loss_changes":[6.659173E0,0E0,1.3662429E1,2.763772E0,0E0,0E0,0E0],"parents":[2147483647,0,0,2,2,3,3],"right_children":[2,-1,4,6,-1,-1,-1],"split_conditions":[1E0,-1.067457E-2,1E0,1E0,-0E0,1.5806984E-2,-0E0],"split_indices":[875,0,1152,14,0,0,0],"split_type":[0,0,0,0,0,0,0],"sum_hessian":[2.18E2,4.1E1,1.77E2,7.4E1,1.03E2,6.3E1,1.1E1],"tree_param":{"num_deleted":"0","num_feature":"2048","num_nodes":"7","size_leaf_vector":"1"}},{"base_weights":[-0E0,1.2905996E-1,-2.2207652E-1,-0E0,2.730786E-1,-9.644825E-3,-0E0,4.1713795E-1,-0E0,4.7838596E-1,-0E0,1.6027668E-2,-0E0],"categories":[],"categories_nodes":[],"categories_segments":[],"categories_sizes":[],"default_left":[0,0,0,0,0,0,0,0,0,0,0,0,0],"id":18,"left_children":[1,3,5,-1,7,-1,-1,9,-1,11,-1,-1,-1],"loss_changes":[6.310006E0,7.080811E0,3.2403383E0,0E0,8.52636E0,0E0,0E0,2.6743603E0,0E0,1.3812599E0,0E0,0E0,0E0],"parents":[2147483647,0,0,1,1,2,2,4,4,7,7,9,9],"right_children":[2,4,6,-1,8,-1,-1,10,-1,12,-1,-1,-1],"split_conditions":[1E0,1E0,1E0,-0E0,1E0,-9.644825E-3,-0E0,1E0,-0E0,1E0,-0E0,1.6027668E-2,-0E0],"split_indices":[1199,875,726,0,675,0,0,255,0,1722,0,0,0],"split_type":[0,0,0,0,0,0,0,0,0,0,0,0,0],"sum_hessian":[2.18E2,1.38E2,8E1,1.3E1,1.25E2,6.9E1,1.1E1,1.02E2,2.3E1,8.9E1,1.3E1,7.6E1,1.3E1],"tree_param":{"num_deleted":"0","num_feature":"2048","num_nodes":"13","size_leaf_vector":"1"}},{"base_weights":[-0E0,-9.4926044E-2,2.9511788E-1,-2.82347E-1,-0E0,-0E0,1.4077597E-2,-5.010118E-1,-0E0,-6.258064E-1,-0E0,-2.241476E-2,-0E0],"categories":[],"categories_nodes":[],"categories_segments":[],"categories_sizes":[],"default_left":[0,0,0,0,0,0,0,0,0,0,0,0,0],"id":19,"left_children":[1,3,5,7,-1,-1,-1,9,-1,11,-1,-1,-1],"loss_changes":[6.0427575E0,9.009176E0,2.5174384E0,1.4578263E1,0E0,0E0,0E0,7.01268E0,0E0,4.7302856E0,0E0,0E0,0E0],"parents":[2147483647,0,0,1,1,2,2,3,3,7,7,9,9],"right_children":[2,4,6,8,-1,-1,-1,10,-1,12,-1,-1,-1],"split_conditions":[1E0,1E0,1E0,1E0,-0E0,-0E0,1.4077597E-2,1E0,-0E0,1E0,-0E0,-2.241476E-2,-0E0],"split_indices":[656,1733,1928,1243,0,0,0,726,0,182,0,0,0],"split_type":[0,0,0,0,0,0,0,0,0,0,0,0,0],"sum_hessian":[2.18E2,1.67E2,5.1E1,1.31E2,3.6E1,2E1,3.1E1,9.9E1,3.2E1,8.1E1,1.8E1,6.5E1,1.6E1],"tree_param":{"num_deleted":"0","num_feature":"2048","num_nodes":"13","size_leaf_vector":"1"}},{"base_weights":[-0E0,-9.78351E-3,7.930346E-2,4.193665E-1,-0E0,1.4836886E-2,-0E0],"categories":[],"categories_nodes":[],"categories_segments":[],"categories_sizes":[],"default_left":[0,0,0,0,0,0,0],"id":20,"left_children":[1,-1,3,5,-1,-1,-1],"loss_changes":[5.5862455E0,0E0,1.2070672E1,2.4637947E0,0E0,0E0,0E0],"parents":[2147483647,0,0,2,2,3,3],"right_children":[2,-1,4,6,-1,-1,-1],"split_conditions":[1E0,-9.78351E-3,1E0,1E0,-0E0,1.4836886E-2,-0E0],"split_indices":[875,0,1152,14,0,0,0],"split_type":[0,0,0,0,0,0,0],"sum_hessian":[2.18E2,4.1E1,1.77E2,7.4E1,1.03E2,6.3E1,1.1E1],"tree_param":{"num_deleted":"0","num_feature":"2048","num_nodes":"7","size_leaf_vector":"1"}},{"base_weights":[-0E0,1.4069721E-1,-1.6998148E-1,7.98318E-3,-0E0,-3.2112622E-1,-0E0,-4.2605126E-1,-0E0,-5.1392305E-1,-0E0,-1.9065822E-2,-0E0],"categories":[],"categories_nodes":[],"categories_segments":[],"categories_sizes":[],"default_left":[0,0,0,0,0,0,0,0,0,0,0,0,0],"id":21,"left_children":[1,3,5,-1,-1,7,-1,9,-1,11,-1,-1,-1],"loss_changes":[5.2648544E0,4.5641317E0,6.288492E0,0E0,0E0,4.617633E0,0E0,3.3721056E0,0E0,3.027151E0,0E0,0E0,0E0],"parents":[2147483647,0,0,1,1,2,2,5,5,7,7,9,9],"right_children":[2,4,6,-1,-1,8,-1,10,-1,12,-1,-1,-1],"split_conditions":[1E0,1E0,1E0,7.98318E-3,-0E0,1E0,-0E0,1E0,-0E0,1E0,-0E0,-1.9065822E-2,-0E0],"split_indices":[1088,675,1866,0,0,1294,0,1243,0,9,0,0,0],"split_type":[0,0,0,0,0,0,0,0,0,0,0,0,0],"sum_hessian":[2.18E2,1.19E2,9.9E1,9.7E1,2.2E1,8.8E1,1.1E1,7.5E1,1.3E1,6.4E1,1.1E1,4.9E1,1.5E1],"tree_param":{"num_deleted":"0","num_feature":"2048","num_nodes":"13","size_leaf_vector":"1"}},{"base_weights":[-0E0,-8.489103E-2,2.7513587E-1,-2.6611412E-1,-0E0,-0E0,1.3111455E-2,-4.779552E-1,-0E0,-5.9804654E-1,-0E0,-2.141497E-2,-0E0],"categories":[],"categories_nodes":[],"categories_segments":[],"categories_sizes":[],"default_left":[0,0,0,0,0,0,0,0,0,0,0,0,0],"id":22,"left_children":[1,3,5,7,-1,-1,-1,9,-1,11,-1,-1,-1],"loss_changes":[5.147077E0,8.137117E0,2.175978E0,1.3496309E1,0E0,0E0,0E0,6.4839783E0,0E0,4.302639E0,0E0,0E0,0E0],"parents":[2147483647,0,0,1,1,2,2,3,3,7,7,9,9],"right_children":[2,4,6,8,-1,-1,-1,10,-1,12,-1,-1,-1],"split_conditions":[1E0,1E0,1E0,1E0,-0E0,-0E0,1.3111455E-2,1E0,-0E0,1E0,-0E0,-2.141497E-2,-0E0],"split_indices":[656,1733,1928,1243,0,0,0,726,0,182,0,0,0],"split_type":[0,0,0,0,0,0,0,0,0,0,0,0,0],"sum_hessian":[2.18E2,1.67E2,5.1E1,1.31E2,3.6E1,2E1,3.1E1,9.9E1,3.2E1,8.1E1,1.8E1,6.5E1,1.6E1],"tree_param":{"num_deleted":"0","num_feature":"2048","num_nodes":"13","size_leaf_vector":"1"}},{"base_weights":[-0E0,-7.660556E-2,2.6731935E-1,-2.5556895E-1,-0E0,-0E0,1.27304E-2,-4.640356E-1,-0E0,-5.8107144E-1,-0E0,-2.078226E-2,-0E0],"categories":[],"categories_nodes":[],"categories_segments":[],"categories_sizes":[],"default_left":[0,0,0,0,0,0,0,0,0,0,0,0,0],"id":23,"left_children":[1,3,5,7,-1,-1,-1,9,-1,11,-1,-1,-1],"loss_changes":[4.7017946E0,7.6357517E0,2.046342E0,1.2911259E1,0E0,0E0,0E0,6.153906E0,0E0,3.9860306E0,0E0,0E0,0E0],"parents":[2147483647,0,0,1,1,2,2,3,3,7,7,9,9],"right_children":[2,4,6,8,-1,-1,-1,10,-1,12,-1,-1,-1],"split_conditions":[1E0,1E0,1E0,1E0,-0E0,-0E0,1.27304E-2,1E0,-0E0,1E0,-0E0,-2.078226E-2,-0E0],"split_indices":[656,1733,1928,1243,0,0,0,726,0,182,0,0,0],"split_type":[0,0,0,0,0,0,0,0,0,0,0,0,0],"sum_hessian":[2.18E2,1.67E2,5.1E1,1.31E2,3.6E1,2E1,3.1E1,9.9E1,3.2E1,8.1E1,1.8E1,6.5E1,1.6E1],"tree_param":{"num_deleted":"0","num_feature":"2048","num_nodes":"13","size_leaf_vector":"1"}},{"base_weights":[-0E0,-8.497114E-3,7.7994645E-2,3.9543667E-1,-0E0,1.3972351E-2,-0E0],"categories":[],"categories_nodes":[],"categories_segments":[],"categories_sizes":[],"default_left":[0,0,0,0,0,0,0],"id":24,"left_children":[1,-1,3,5,-1,-1,-1],"loss_changes":[4.452182E0,0E0,1.064496E1,2.1550179E0,0E0,0E0,0E0],"parents":[2147483647,0,0,2,2,3,3],"right_children":[2,-1,4,6,-1,-1,-1],"split_conditions":[1E0,-8.497114E-3,1E0,1E0,-0E0,1.3972351E-2,-0E0],"split_indices":[875,0,1152,14,0,0,0],"split_type":[0,0,0,0,0,0,0],"sum_hessian":[2.18E2,4.1E1,1.77E2,7.4E1,1.03E2,6.3E1,1.1E1],"tree_param":{"num_deleted":"0","num_feature":"2048","num_nodes":"7","size_leaf_vector":"1"}},{"base_weights":[-0E0,1.3220827E-1,-1.4409776E-1,7.5266487E-3,-0E0,-2.9111E-1,-0E0,-3.9149567E-1,-0E0,-4.7378108E-1,-0E0,-1.7561115E-2,-0E0],"categories":[],"categories_nodes":[],"categories_segments":[],"categories_sizes":[],"default_left":[0,0,0,0,0,0,0,0,0,0,0,0,0],"id":25,"left_children":[1,3,5,-1,-1,7,-1,9,-1,11,-1,-1,-1],"loss_changes":[4.1738997E0,4.0711193E0,5.465892E0,0E0,0E0,4.106127E0,0E0,2.9420185E0,0E0,2.5424814E0,0E0,0E0,0E0],"parents":[2147483647,0,0,1,1,2,2,5,5,7,7,9,9],"right_children":[2,4,6,-1,-1,8,-1,10,-1,12,-1,-1,-1],"split_conditions":[1E0,1E0,1E0,7.5266487E-3,-0E0,1E0,-0E0,1E0,-0E0,1E0,-0E0,-1.7561115E-2,-0E0],"split_indices":[1088,675,1866,0,0,1294,0,1243,0,9,0,0,0],"split_type":[0,0,0,0,0,0,0,0,0,0,0,0,0],"sum_hessian":[2.18E2,1.19E2,9.9E1,9.7E1,2.2E1,8.8E1,1.1E1,7.5E1,1.3E1,6.4E1,1.1E1,4.9E1,1.5E1],"tree_param":{"num_deleted":"0","num_feature":"2048","num_nodes":"13","size_leaf_vector":"1"}},{"base_weights":[-0E0,-6.751876E-2,2.4862982E-1,-2.4073747E-1,-0E0,-0E0,1.18346065E-2,-4.429076E-1,-0E0,-5.556165E-1,-0E0,-1.9865155E-2,-0E0],"categories":[],"categories_nodes":[],"categories_segments":[],"categories_sizes":[],"default_left":[0,0,0,0,0,0,0,0,0,0,0,0,0],"id":26,"left_children":[1,3,5,7,-1,-1,-1,9,-1,11,-1,-1,-1],"loss_changes":[3.9803486E0,6.884122E0,1.7653642E0,1.1966717E1,0E0,0E0,0E0,5.6974792E0,0E0,3.6249294E0,0E0,0E0,0E0],"parents":[2147483647,0,0,1,1,2,2,3,3,7,7,9,9],"right_children":[2,4,6,8,-1,-1,-1,10,-1,12,-1,-1,-1],"split_conditions":[1E0,1E0,1E0,1E0,-0E0,-0E0,1.18346065E-2,1E0,-0E0,1E0,-0E0,-1.9865155E-2,-0E0],"split_indices":[656,1733,1928,1243,0,0,0,726,0,182,0,0,0],"split_type":[0,0,0,0,0,0,0,0,0,0,0,0,0],"sum_hessian":[2.18E2,1.67E2,5.1E1,1.31E2,3.6E1,2E1,3.1E1,9.9E1,3.2E1,8.1E1,1.8E1,6.5E1,1.6E1],"tree_param":{"num_deleted":"0","num_feature":"2048","num_nodes":"13","size_leaf_vector":"1"}},{"base_weights":[-0E0,-7.672772E-3,7.4448496E-2,3.7636685E-1,-0E0,1.3284053E-2,-0E0],"categories":[],"categories_nodes":[],"categories_segments":[],"categories_sizes":[],"default_left":[0,0,0,0,0,0,0],"id":27,"left_children":[1,-1,3,5,-1,-1,-1],"loss_changes":[3.733912E0,0E0,9.637321E0,1.924797E0,0E0,0E0,0E0],"parents":[2147483647,0,0,2,2,3,3],"right_children":[2,-1,4,6,-1,-1,-1],"split_conditions":[1E0,-7.672772E-3,1E0,1E0,-0E0,1.3284053E-2,-0E0],"split_indices":[875,0,1152,14,0,0,0],"split_type":[0,0,0,0,0,0,0],"sum_hessian":[2.18E2,4.1E1,1.77E2,7.4E1,1.03E2,6.3E1,1.1E1],"tree_param":{"num_deleted":"0","num_feature":"2048","num_nodes":"7","size_leaf_vector":"1"}},{"base_weights":[-0E0,-7.4480684E-3,6.974678E-2,3.6520812E-1,-0E0,1.2891753E-2,-0E0],"categories":[],"categories_nodes":[],"categories_segments":[],"categories_sizes":[],"default_left":[0,0,0,0,0,0,0],"id":28,"left_children":[1,-1,3,5,-1,-1,-1],"loss_changes":[3.454675E0,0E0,9.137371E0,1.8152037E0,0E0,0E0,0E0],"parents":[2147483647,0,0,2,2,3,3],"right_children":[2,-1,4,6,-1,-1,-1],"split_conditions":[1E0,-7.4480684E-3,1E0,1E0,-0E0,1.2891753E-2,-0E0],"split_indices":[875,0,1152,14,0,0,0],"split_type":[0,0,0,0,0,0,0],"sum_hessian":[2.18E2,4.1E1,1.77E2,7.4E1,1.03E2,6.3E1,1.1E1],"tree_param":{"num_deleted":"0","num_feature":"2048","num_nodes":"7","size_leaf_vector":"1"}},{"base_weights":[-0E0,9.9540696E-2,-1.5253495E-1,-0E0,2.3130016E-1,-7.273684E-3,-0E0,3.5665298E-1,-0E0,1.2275918E-2,-0E0],"categories":[],"categories_nodes":[],"categories_segments":[],"categories_sizes":[],"default_left":[0,0,0,0,0,0,0,0,0,0,0],"id":29,"left_children":[1,3,5,-1,7,-1,-1,9,-1,-1,-1],"loss_changes":[3.2618802E0,5.3637094E0,2.230329E0,0E0,6.360768E0,0E0,0E0,1.9680805E0,0E0,0E0,0E0],"parents":[2147483647,0,0,1,1,2,2,4,4,7,7],"right_children":[2,4,6,-1,8,-1,-1,10,-1,-1,-1],"split_conditions":[1E0,1E0,1E0,-0E0,1E0,-7.273684E-3,-0E0,1E0,-0E0,1.2275918E-2,-0E0],"split_indices":[1199,875,726,0,675,0,0,255,0,0,0],"split_type":[0,0,0,0,0,0,0,0,0,0,0],"sum_hessian":[2.18E2,1.38E2,8E1,1.3E1,1.25E2,6.9E1,1.1E1,1.02E2,2.3E1,8.9E1,1.3E1],"tree_param":{"num_deleted":"0","num_feature":"2048","num_nodes":"11","size_leaf_vector":"1"}},{"base_weights":[-0E0,-6.145534E-2,2.1566673E-1,-2.2803962E-1,-0E0,-0E0,1.050912E-2,-4.2382285E-1,-0E0,-5.3289557E-1,-0E0,-1.9084932E-2,-0E0],"categories":[],"categories_nodes":[],"categories_segments":[],"categories_sizes":[],"default_left":[0,0,0,0,0,0,0,0,0,0,0,0,0],"id":30,"left_children":[1,3,5,7,-1,-1,-1,9,-1,11,-1,-1,-1],"loss_changes":[3.0531266E0,6.2297783E0,1.508182E0,1.1098307E1,0E0,0E0,0E0,5.323591E0,0E0,3.4243698E0,0E0,0E0,0E0],"parents":[2147483647,0,0,1,1,2,2,3,3,7,7,9,9],"right_children":[2,4,6,8,-1,-1,-1,10,-1,12,-1,-1,-1],"split_conditions":[1E0,1E0,1E0,1E0,-0E0,-0E0,1.050912E-2,1E0,-0E0,1E0,-0E0,-1.9084932E-2,-0E0],"split_indices":[656,1733,1928,1243,0,0,0,726,0,182,0,0,0],"split_type":[0,0,0,0,0,0,0,0,0,0,0,0,0],"sum_hessian":[2.18E2,1.67E2,5.1E1,1.31E2,3.6E1,2E1,3.1E1,9.9E1,3.2E1,8.1E1,1.8E1,6.5E1,1.6E1],"tree_param":{"num_deleted":"0","num_feature":"2048","num_nodes":"13","size_leaf_vector":"1"}},{"base_weights":[-0E0,-6.7531276E-3,6.325445E-2,3.4224612E-1,-0E0,1.2092199E-2,-0E0],"categories":[],"categories_nodes":[],"categories_segments":[],"categories_sizes":[],"default_left":[0,0,0,0,0,0,0],"id":31,"left_children":[1,-1,3,5,-1,-1,-1],"loss_changes":[2.8404212E0,0E0,8.07273E0,1.6130276E0,0E0,0E0,0E0],"parents":[2147483647,0,0,2,2,3,3],"right_children":[2,-1,4,6,-1,-1,-1],"split_conditions":[1E0,-6.7531276E-3,1E0,1E0,-0E0,1.2092199E-2,-0E0],"split_indices":[875,0,1152,14,0,0,0],"split_type":[0,0,0,0,0,0,0],"sum_hessian":[2.18E2,4.1E1,1.77E2,7.4E1,1.03E2,6.3E1,1.1E1],"tree_param":{"num_deleted":"0","num_feature":"2048","num_nodes":"7","size_leaf_vector":"1"}},{"base_weights":[-0E0,1.0614049E-1,-1.1416876E-1,6.4312015E-3,-0E0,-2.559282E-1,-0E0,-3.5107195E-1,-0E0,-4.275181E-1,-0E0,-1.5895313E-2,-0E0],"categories":[],"categories_nodes":[],"categories_segments":[],"categories_sizes":[],"default_left":[0,0,0,0,0,0,0,0,0,0,0,0,0],"id":32,"left_children":[1,3,5,-1,-1,7,-1,9,-1,11,-1,-1,-1],"loss_changes":[2.6553469E0,3.1517868E0,4.5259814E0,0E0,0E0,3.537683E0,0E0,2.5130472E0,0E0,2.156559E0,0E0,0E0,0E0],"parents":[2147483647,0,0,1,1,2,2,5,5,7,7,9,9],"right_children":[2,4,6,-1,-1,8,-1,10,-1,12,-1,-1,-1],"split_conditions":[1E0,1E0,1E0,6.4312015E-3,-0E0,1E0,-0E0,1E0,-0E0,1E0,-0E0,-1.5895313E-2,-0E0],"split_indices":[1088,675,1866,0,0,1294,0,1243,0,9,0,0,0],"split_type":[0,0,0,0,0,0,0,0,0,0,0,0,0],"sum_hessian":[2.18E2,1.19E2,9.9E1,9.7E1,2.2E1,8.8E1,1.1E1,7.5E1,1.3E1,6.4E1,1.1E1,4.9E1,1.5E1],"tree_param":{"num_deleted":"0","num_feature":"2048","num_nodes":"13","size_leaf_vector":"1"}},{"base_weights":[-0E0,-5.3099807E-2,1.9991934E-1,-2.1458954E-1,-0E0,-0E0,9.750759E-3,-4.0473232E-1,-0E0,-5.098615E-1,-0E0,-1.8254204E-2,-0E0],"categories":[],"categories_nodes":[],"categories_segments":[],"categories_sizes":[],"default_left":[0,0,0,0,0,0,0,0,0,0,0,0,0],"id":33,"left_children":[1,3,5,7,-1,-1,-1,9,-1,11,-1,-1,-1],"loss_changes":[2.5520136E0,5.604733E0,1.3022037E0,1.0302401E1,0E0,0E0,0E0,4.935795E0,0E0,3.1192188E0,0E0,0E0,0E0],"parents":[2147483647,0,0,1,1,2,2,3,3,7,7,9,9],"right_children":[2,4,6,8,-1,-1,-1,10,-1,12,-1,-1,-1],"split_conditions":[1E0,1E0,1E0,1E0,-0E0,-0E0,9.750759E-3,1E0,-0E0,1E0,-0E0,-1.8254204E-2,-0E0],"split_indices":[656,1733,1928,1243,0,0,0,726,0,182,0,0,0],"split_type":[0,0,0,0,0,0,0,0,0,0,0,0,0],"sum_hessian":[2.18E2,1.67E2,5.1E1,1.31E2,3.6E1,2E1,3.1E1,9.9E1,3.2E1,8.1E1,1.8E1,6.5E1,1.6E1],"tree_param":{"num_deleted":"0","num_feature":"2048","num_nodes":"13","size_leaf_vector":"1"}},{"base_weights":[-0E0,-6.026231E-3,6.0651764E-2,3.2613128E-1,-0E0,1.1508367E-2,-0E0],"categories":[],"categories_nodes":[],"categories_segments":[],"categories_sizes":[],"default_left":[0,0,0,0,0,0,0],"id":34,"left_children":[1,-1,3,5,-1,-1,-1],"loss_changes":[2.3495188E0,0E0,7.322324E0,1.4410133E0,0E0,0E0,0E0],"parents":[2147483647,0,0,2,2,3,3],"right_children":[2,-1,4,6,-1,-1,-1],"split_conditions":[1E0,-6.026231E-3,1E0,1E0,-0E0,1.1508367E-2,-0E0],"split_indices":[875,0,1152,14,0,0,0],"split_type":[0,0,0,0,0,0,0],"sum_hessian":[2.18E2,4.1E1,1.77E2,7.4E1,1.03E2,6.3E1,1.1E1],"tree_param":{"num_deleted":"0","num_feature":"2048","num_nodes":"7","size_leaf_vector":"1"}},{"base_weights":[-0E0,-5.8497475E-3,5.6578543E-2,3.164642E-1,-0E0,1.1168508E-2,-0E0],"categories":[],"categories_nodes":[],"categories_segments":[],"categories_sizes":[],"default_left":[0,0,0,0,0,0,0],"id":35,"left_children":[1,-1,3,5,-1,-1,-1],"loss_changes":[2.1667135E0,0E0,6.9414167E0,1.3588676E0,0E0,0E0,0E0],"parents":[2147483647,0,0,2,2,3,3],"right_children":[2,-1,4,6,-1,-1,-1],"split_conditions":[1E0,-5.8497475E-3,1E0,1E0,-0E0,1.1168508E-2,-0E0],"split_indices":[875,0,1152,14,0,0,0],"split_type":[0,0,0,0,0,0,0],"sum_hessian":[2.18E2,4.1E1,1.77E2,7.4E1,1.03E2,6.3E1,1.1E1],"tree_param":{"num_deleted":"0","num_feature":"2048","num_nodes":"7","size_leaf_vector":"1"}},{"base_weights":[-0E0,-3.0924894E-2,7.576777E-3,-3.8885713E-1,-0E0,-1.4279673E-2,-0E0],"categories":[],"categories_nodes":[],"categories_segments":[],"categories_sizes":[],"default_left":[0,0,0,0,0,0,0],"id":36,"left_children":[1,3,-1,5,-1,-1,-1],"loss_changes":[2.0324614E0,7.9826703E0,0E0,1.5769892E0,0E0,0E0,0E0],"parents":[2147483647,0,0,1,1,3,3],"right_children":[2,4,-1,6,-1,-1,-1],"split_conditions":[1E0,1E0,7.576777E-3,1E0,-0E0,-1.4279673E-2,-0E0],"split_indices":[1980,1357,0,1160,0,0,0],"split_type":[0,0,0,0,0,0,0],"sum_hessian":[2.18E2,1.9E2,2.8E1,5.3E1,1.37E2,4.2E1,1.1E1],"tree_param":{"num_deleted":"0","num_feature":"2048","num_nodes":"7","size_leaf_vector":"1"}},{"base_weights":[-0E0,8.0649085E-2,-1.1611186E-1,-0E0,2.0469514E-1,-6.0234927E-3,-0E0,3.1913316E-1,-0E0,1.0982384E-2,-0E0],"categories":[],"categories_nodes":[],"categories_segments":[],"categories_sizes":[],"default_left":[0,0,0,0,0,0,0,0,0,0,0],"id":37,"left_children":[1,3,5,-1,7,-1,-1,9,-1,-1,-1],"loss_changes":[1.9961333E0,4.375318E0,1.7299304E0,0E0,5.210724E0,0E0,0E0,1.5711403E0,0E0,0E0,0E0],"parents":[2147483647,0,0,1,1,2,2,4,4,7,7],"right_children":[2,4,6,-1,8,-1,-1,10,-1,-1,-1],"split_conditions":[1E0,1E0,1E0,-0E0,1E0,-6.0234927E-3,-0E0,1E0,-0E0,1.0982384E-2,-0E0],"split_indices":[1199,875,726,0,675,0,0,255,0,0,0],"split_type":[0,0,0,0,0,0,0,0,0,0,0],"sum_hessian":[2.18E2,1.38E2,8E1,1.3E1,1.25E2,6.9E1,1.1E1,1.02E2,2.3E1,8.9E1,1.3E1],"tree_param":{"num_deleted":"0","num_feature":"2048","num_nodes":"11","size_leaf_vector":"1"}},{"base_weights":[-0E0,-4.524261E-2,1.700787E-1,-2.0021833E-1,-0E0,-0E0,8.485485E-3,-3.8344142E-1,-0E0,-4.840543E-1,-0E0,-1.7359883E-2,-0E0],"categories":[],"categories_nodes":[],"categories_segments":[],"categories_sizes":[],"default_left":[0,0,0,0,0,0,0,0,0,0,0,0,0],"id":38,"left_children":[1,3,5,7,-1,-1,-1,9,-1,11,-1,-1,-1],"loss_changes":[1.8480698E0,4.9476566E0,1.0559311E0,9.411198E0,0E0,0E0,0E0,4.5105686E0,0E0,2.886839E0,0E0,0E0,0E0],"parents":[2147483647,0,0,1,1,2,2,3,3,7,7,9,9],"right_children":[2,4,6,8,-1,-1,-1,10,-1,12,-1,-1,-1],"split_conditions":[1E0,1E0,1E0,1E0,-0E0,-0E0,8.485485E-3,1E0,-0E0,1E0,-0E0,-1.7359883E-2,-0E0],"split_indices":[656,1733,1928,1243,0,0,0,726,0,182,0,0,0],"split_type":[0,0,0,0,0,0,0,0,0,0,0,0,0],"sum_hessian":[2.18E2,1.67E2,5.1E1,1.31E2,3.6E1,2E1,3.1E1,9.9E1,3.2E1,8.1E1,1.8E1,6.5E1,1.6E1],"tree_param":{"num_deleted":"0","num_feature":"2048","num_nodes":"13","size_leaf_vector":"1"}},{"base_weights":[-0E0,8.918331E-2,-8.593325E-2,5.658496E-3,-0E0,-2.2246724E-1,-0E0,-3.1271657E-1,-0E0,-3.8312826E-1,-0E0,-1.430101E-2,-0E0],"categories":[],"categories_nodes":[],"categories_segments":[],"categories_sizes":[],"default_left":[0,0,0,0,0,0,0,0,0,0,0,0,0],"id":39,"left_children":[1,3,5,-1,-1,7,-1,9,-1,11,-1,-1,-1],"loss_changes":[1.6928918E0,2.5320284E0,3.666307E0,0E0,0E0,3.0274072E0,0E0,2.1090045E0,0E0,1.8209906E0,0E0,0E0,0E0],"parents":[2147483647,0,0,1,1,2,2,5,5,7,7,9,9],"right_children":[2,4,6,-1,-1,8,-1,10,-1,12,-1,-1,-1],"split_conditions":[1E0,1E0,1E0,5.658496E-3,-0E0,1E0,-0E0,1E0,-0E0,1E0,-0E0,-1.430101E-2,-0E0],"split_indices":[1088,675,1866,0,0,1294,0,1243,0,9,0,0,0],"split_type":[0,0,0,0,0,0,0,0,0,0,0,0,0],"sum_hessian":[2.18E2,1.19E2,9.9E1,9.7E1,2.2E1,8.8E1,1.1E1,7.5E1,1.3E1,6.4E1,1.1E1,4.9E1,1.5E1],"tree_param":{"num_deleted":"0","num_feature":"2048","num_nodes":"13","size_leaf_vector":"1"}},{"base_weights":[-0E0,-2.3090111E-2,6.9007613E-3,-3.6032027E-1,-0E0,-1.3297861E-2,-0E0],"categories":[],"categories_nodes":[],"categories_segments":[],"categories_sizes":[],"default_left":[0,0,0,0,0,0,0],"id":40,"left_children":[1,3,-1,5,-1,-1,-1],"loss_changes":[1.6362709E0,6.909025E0,0E0,1.4378366E0,0E0,0E0,0E0],"parents":[2147483647,0,0,1,1,3,3],"right_children":[2,4,-1,6,-1,-1,-1],"split_conditions":[1E0,1E0,6.9007613E-3,1E0,-0E0,-1.3297861E-2,-0E0],"split_indices":[1980,1357,0,1160,0,0,0],"split_type":[0,0,0,0,0,0,0],"sum_hessian":[2.18E2,1.9E2,2.8E1,5.3E1,1.37E2,4.2E1,1.1E1],"tree_param":{"num_deleted":"0","num_feature":"2048","num_nodes":"7","size_leaf_vector":"1"}},{"base_weights":[-0E0,-3.486906E-2,4.8945127E-3,-1.8594393E-1,-0E0,-3.6325777E-1,-0E0,-4.591876E-1,-0E0,-1.6464623E-2,-0E0],"categories":[],"categories_nodes":[],"categories_segments":[],"categories_sizes":[],"default_left":[0,0,0,0,0,0,0,0,0,0,0],"id":41,"left_children":[1,3,-1,5,-1,7,-1,9,-1,-1,-1],"loss_changes":[1.5884023E0,4.359656E0,0E0,8.631701E0,0E0,4.094348E0,0E0,2.5895157E0,0E0,0E0,0E0],"parents":[2147483647,0,0,1,1,3,3,5,5,7,7],"right_children":[2,4,-1,6,-1,8,-1,10,-1,-1,-1],"split_conditions":[1E0,1E0,4.8945127E-3,1E0,-0E0,1E0,-0E0,1E0,-0E0,-1.6464623E-2,-0E0],"split_indices":[656,1733,0,1243,0,726,0,182,0,0,0],"split_type":[0,0,0,0,0,0,0,0,0,0,0],"sum_hessian":[2.18E2,1.67E2,5.1E1,1.31E2,3.6E1,9.9E1,3.2E1,8.1E1,1.8E1,6.5E1,1.6E1],"tree_param":{"num_deleted":"0","num_feature":"2048","num_nodes":"11","size_leaf_vector":"1"}},{"base_weights":[-0E0,-1.5434075E-2,6.6147964E-3,-3.3969304E-1,-0E0,-1.2557689E-2,-0E0],"categories":[],"categories_nodes":[],"categories_segments":[],"categories_sizes":[],"default_left":[0,0,0,0,0,0,0],"id":42,"left_children":[1,3,-1,5,-1,-1,-1],"loss_changes":[1.4553988E0,6.185635E0,0E0,1.3032103E0,0E0,0E0,0E0],"parents":[2147483647,0,0,1,1,3,3],"right_children":[2,4,-1,6,-1,-1,-1],"split_conditions":[1E0,1E0,6.6147964E-3,1E0,-0E0,-1.2557689E-2,-0E0],"split_indices":[1980,1357,0,1160,0,0,0],"split_type":[0,0,0,0,0,0,0],"sum_hessian":[2.18E2,1.9E2,2.8E1,5.3E1,1.37E2,4.2E1,1.1E1],"tree_param":{"num_deleted":"0","num_feature":"2048","num_nodes":"7","size_leaf_vector":"1"}},{"base_weights":[-0E0,7.714033E-2,-8.560378E-2,-0E0,1.9620489E-1,-4.9470495E-3,-0E0,3.034897E-1,-0E0,1.0435722E-2,-0E0],"categories":[],"categories_nodes":[],"categories_segments":[],"categories_sizes":[],"default_left":[0,0,0,0,0,0,0,0,0,0,0],"id":43,"left_children":[1,3,5,-1,7,-1,-1,9,-1,-1,-1],"loss_changes":[1.4207063E0,4.0234036E0,1.3099103E0,0E0,4.6363783E0,0E0,0E0,1.403511E0,0E0,0E0,0E0],"parents":[2147483647,0,0,1,1,2,2,4,4,7,7],"right_children":[2,4,6,-1,8,-1,-1,10,-1,-1,-1],"split_conditions":[1E0,1E0,1E0,-0E0,1E0,-4.9470495E-3,-0E0,1E0,-0E0,1.0435722E-2,-0E0],"split_indices":[1199,875,726,0,675,0,0,255,0,0,0],"split_type":[0,0,0,0,0,0,0,0,0,0,0],"sum_hessian":[2.18E2,1.38E2,8E1,1.3E1,1.25E2,6.9E1,1.1E1,1.02E2,2.3E1,8.9E1,1.3E1],"tree_param":{"num_deleted":"0","num_feature":"2048","num_nodes":"11","size_leaf_vector":"1"}},{"base_weights":[-0E0,-2.7534673E-2,4.515584E-3,-1.7530276E-1,-0E0,-3.469502E-1,-0E0,-4.3905833E-1,-0E0,-1.5761746E-2,-0E0],"categories":[],"categories_nodes":[],"categories_segments":[],"categories_sizes":[],"default_left":[0,0,0,0,0,0,0,0,0,0,0],"id":44,"left_children":[1,3,-1,5,-1,7,-1,9,-1,-1,-1],"loss_changes":[1.3054886E0,3.929129E0,0E0,7.9809446E0,0E0,3.7698784E0,0E0,2.4110727E0,0E0,0E0,0E0],"parents":[2147483647,0,0,1,1,3,3,5,5,7,7],"right_children":[2,4,-1,6,-1,8,-1,10,-1,-1,-1],"split_conditions":[1E0,1E0,4.515584E-3,1E0,-0E0,1E0,-0E0,1E0,-0E0,-1.5761746E-2,-0E0],"split_indices":[656,1733,0,1243,0,726,0,182,0,0,0],"split_type":[0,0,0,0,0,0,0,0,0,0,0],"sum_hessian":[2.18E2,1.67E2,5.1E1,1.31E2,3.6E1,9.9E1,3.2E1,8.1E1,1.8E1,6.5E1,1.6E1],"tree_param":{"num_deleted":"0","num_feature":"2048","num_nodes":"11","size_leaf_vector":"1"}},{"base_weights":[-0E0,-1.0144278E-2,6.1375527E-3,-3.1949505E-1,-0E0,-1.1835141E-2,-0E0],"categories":[],"categories_nodes":[],"categories_segments":[],"categories_sizes":[],"default_left":[0,0,0,0,0,0,0],"id":45,"left_children":[1,3,-1,5,-1,-1,-1],"loss_changes":[1.2334518E0,5.492508E0,0E0,1.1800976E0,0E0,0E0,0E0],"parents":[2147483647,0,0,1,1,3,3],"right_children":[2,4,-1,6,-1,-1,-1],"split_conditions":[1E0,1E0,6.1375527E-3,1E0,-0E0,-1.1835141E-2,-0E0],"split_indices":[1980,1357,0,1160,0,0,0],"split_type":[0,0,0,0,0,0,0],"sum_hessian":[2.18E2,1.9E2,2.8E1,5.3E1,1.37E2,4.2E1,1.1E1],"tree_param":{"num_deleted":"0","num_feature":"2048","num_nodes":"7","size_leaf_vector":"1"}},{"base_weights":[-0E0,8.453063E-2,-5.8230378E-2,5.309836E-3,-0E0,-1.8949325E-1,-0E0,-2.7515244E-1,-0E0,-3.389823E-1,-0E0,-1.2730359E-2,-0E0],"categories":[],"categories_nodes":[],"categories_segments":[],"categories_sizes":[],"default_left":[0,0,0,0,0,0,0,0,0,0,0,0,0],"id":46,"left_children":[1,3,5,-1,-1,7,-1,9,-1,11,-1,-1,-1],"loss_changes":[1.196529E0,2.2126012E0,2.8567073E0,0E0,0E0,2.5580893E0,0E0,1.7152109E0,0E0,1.5343614E0,0E0,0E0,0E0],"parents":[2147483647,0,0,1,1,2,2,5,5,7,7,9,9],"right_children":[2,4,6,-1,-1,8,-1,10,-1,12,-1,-1,-1],"split_conditions":[1E0,1E0,1E0,5.309836E-3,-0E0,1E0,-0E0,1E0,-0E0,1E0,-0E0,-1.2730359E-2,-0E0],"split_indices":[1088,675,1866,0,0,1294,0,1243,0,9,0,0,0],"split_type":[0,0,0,0,0,0,0,0,0,0,0,0,0],"sum_hessian":[2.18E2,1.19E2,9.9E1,9.7E1,2.2E1,8.8E1,1.1E1,7.5E1,1.3E1,6.4E1,1.1E1,4.9E1,1.5E1],"tree_param":{"num_deleted":"0","num_feature":"2048","num_nodes":"13","size_leaf_vector":"1"}},{"base_weights":[-0E0,-1.8280273E-2,4.3271678E-3,-1.6251874E-1,-0E0,-3.2882425E-1,-0E0,-4.1672897E-1,-0E0,-1.4957588E-2,-0E0],"categories":[],"categories_nodes":[],"categories_segments":[],"categories_sizes":[],"default_left":[0,0,0,0,0,0,0,0,0,0,0],"id":47,"left_children":[1,3,-1,5,-1,7,-1,9,-1,-1,-1],"loss_changes":[1.1379935E0,3.4302888E0,0E0,7.326109E0,0E0,3.4278297E0,0E0,2.166462E0,0E0,0E0,0E0],"parents":[2147483647,0,0,1,1,3,3,5,5,7,7],"right_children":[2,4,-1,6,-1,8,-1,10,-1,-1,-1],"split_conditions":[1E0,1E0,4.3271678E-3,1E0,-0E0,1E0,-0E0,1E0,-0E0,-1.4957588E-2,-0E0],"split_indices":[656,1733,0,1243,0,726,0,182,0,0,0],"split_type":[0,0,0,0,0,0,0,0,0,0,0],"sum_hessian":[2.18E2,1.67E2,5.1E1,1.31E2,3.6E1,9.9E1,3.2E1,8.1E1,1.8E1,6.5E1,1.6E1],"tree_param":{"num_deleted":"0","num_feature":"2048","num_nodes":"11","size_leaf_vector":"1"}},{"base_weights":[-0E0,-2.2079432E-3,5.795789E-3,-2.965043E-1,-0E0,-1.1041511E-2,-0E0],"categories":[],"categories_nodes":[],"categories_segments":[],"categories_sizes":[],"default_left":[0,0,0,0,0,0,0],"id":48,"left_children":[1,3,-1,5,-1,-1,-1],"loss_changes":[1.0833135E0,4.746468E0,0E0,1.0774264E0,0E0,0E0,0E0],"parents":[2147483647,0,0,1,1,3,3],"right_children":[2,4,-1,6,-1,-1,-1],"split_conditions":[1E0,1E0,5.795789E-3,1E0,-0E0,-1.1041511E-2,-0E0],"split_indices":[1980,1357,0,1160,0,0,0],"split_type":[0,0,0,0,0,0,0],"sum_hessian":[2.18E2,1.9E2,2.8E1,5.3E1,1.37E2,4.2E1,1.1E1],"tree_param":{"num_deleted":"0","num_feature":"2048","num_nodes":"7","size_leaf_vector":"1"}},{"base_weights":[-0E0,7.378383E-2,-1.7680041E-3,-0E0,1.8838446E-1,2.8918606E-1,-0E0,9.936681E-3,-0E0],"categories":[],"categories_nodes":[],"categories_segments":[],"categories_sizes":[],"default_left":[0,0,0,0,0,0,0,0,0],"id":49,"left_children":[1,3,-1,-1,5,7,-1,-1,-1],"loss_changes":[1.038049E0,3.7148533E0,0E0,0E0,4.142168E0,1.2600193E0,0E0,0E0,0E0],"parents":[2147483647,0,0,1,1,4,4,5,5],"right_children":[2,4,-1,-1,6,8,-1,-1,-1],"split_conditions":[1E0,1E0,-1.7680041E-3,-0E0,1E0,1E0,-0E0,9.936681E-3,-0E0],"split_indices":[1199,875,0,0,675,255,0,0,0],"split_type":[0,0,0,0,0,0,0,0,0],"sum_hessian":[2.18E2,1.38E2,8E1,1.3E1,1.25E2,1.02E2,2.3E1,8.9E1,1.3E1],"tree_param":{"num_deleted":"0","num_feature":"2048","num_nodes":"9","size_leaf_vector":"1"}},{"base_weights":[-0E0],"categories":[],"categories_nodes":[],"categories_segments":[],"categories_sizes":[],"default_left":[0],"id":50,"left_children":[-1],"loss_changes":[0E0],"parents":[2147483647],"right_children":[-1],"split_conditions":[-0E0],"split_indices":[0],"split_type":[0],"sum_hessian":[2.18E2],"tree_param":{"num_deleted":"0","num_feature":"2048","num_nodes":"1","size_leaf_vector":"1"}},{"base_weights":[-0E0],"categories":[],"categories_nodes":[],"categories_segments":[],"categories_sizes":[],"default_left":[0],"id":51,"left_children":[-1],"loss_changes":[0E0],"parents":[2147483647],"right_children":[-1],"split_conditions":[-0E0],"split_indices":[0],"split_type":[0],"sum_hessian":[2.18E2],"tree_param":{"num_deleted":"0","num_feature":"2048","num_nodes":"1","size_leaf_vector":"1"}},{"base_weights":[-0E0],"categories":[],"categories_nodes":[],"categories_segments":[],"categories_sizes":[],"default_left":[0],"id":52,"left_children":[-1],"loss_changes":[0E0],"parents":[2147483647],"right_children":[-1],"split_conditions":[-0E0],"split_indices":[0],"split_type":[0],"sum_hessian":[2.18E2],"tree_param":{"num_deleted":"0","num_feature":"2048","num_nodes":"1","size_leaf_vector":"1"}},{"base_weights":[-0E0],"categories":[],"categories_nodes":[],"categories_segments":[],"categories_sizes":[],"default_left":[0],"id":53,"left_children":[-1],"loss_changes":[0E0],"parents":[2147483647],"right_children":[-1],"split_conditions":[-0E0],"split_indices":[0],"split_type":[0],"sum_hessian":[2.18E2],"tree_param":{"num_deleted":"0","num_feature":"2048","num_nodes":"1","size_leaf_vector":"1"}},{"base_weights":[-0E0],"categories":[],"categories_nodes":[],"categories_segments":[],"categories_sizes":[],"default_left":[0],"id":54,"left_children":[-1],"loss_changes":[0E0],"parents":[2147483647],"right_children":[-1],"split_conditions":[-0E0],"split_indices":[0],"split_type":[0],"sum_hessian":[2.18E2],"tree_param":{"num_deleted":"0","num_feature":"2048","num_nodes":"1","size_leaf_vector":"1"}},{"base_weights":[-0E0],"categories":[],"categories_nodes":[],"categories_segments":[],"categories_sizes":[],"default_left":[0],"id":55,"left_children":[-1],"loss_changes":[0E0],"parents":[2147483647],"right_children":[-1],"split_conditions":[-0E0],"split_indices":[0],"split_type":[0],"sum_hessian":[2.18E2],"tree_param":{"num_deleted":"0","num_feature":"2048","num_nodes":"1","size_leaf_vector":"1"}},{"base_weights":[-0E0],"categories":[],"categories_nodes":[],"categories_segments":[],"categories_sizes":[],"default_left":[0],"id":56,"left_children":[-1],"loss_changes":[0E0],"parents":[2147483647],"right_children":[-1],"split_conditions":[-0E0],"split_indices":[0],"split_type":[0],"sum_hessian":[2.18E2],"tree_param":{"num_deleted":"0","num_feature":"2048","num_nodes":"1","size_leaf_vector":"1"}},{"base_weights":[-0E0],"categories":[],"categories_nodes":[],"categories_segments":[],"categories_sizes":[],"default_left":[0],"id":57,"left_children":[-1],"loss_changes":[0E0],"parents":[2147483647],"right_children":[-1],"split_conditions":[-0E0],"split_indices":[0],"split_type":[0],"sum_hessian":[2.18E2],"tree_param":{"num_deleted":"0","num_feature":"2048","num_nodes":"1","size_leaf_vector":"1"}},{"base_weights":[-0E0],"categories":[],"categories_nodes":[],"categories_segments":[],"categories_sizes":[],"default_left":[0],"id":58,"left_children":[-1],"loss_changes":[0E0],"parents":[2147483647],"right_children":[-1],"split_conditions":[-0E0],"split_indices":[0],"split_type":[0],"sum_hessian":[2.18E2],"tree_param":{"num_deleted":"0","num_feature":"2048","num_nodes":"1","size_leaf_vector":"1"}},{"base_weights":[-0E0],"categories":[],"categories_nodes":[],"categories_segments":[],"categories_sizes":[],"default_left":[0],"id":59,"left_children":[-1],"loss_changes":[0E0],"parents":[2147483647],"right_children":[-1],"split_conditions":[-0E0],"split_indices":[0],"split_type":[0],"sum_hessian":[2.18E2],"tree_param":{"num_deleted":"0","num_feature":"2048","num_nodes":"1","size_leaf_vector":"1"}},{"base_weights":[-0E0],"categories":[],"categories_nodes":[],"categories_segments":[],"categories_sizes":[],"default_left":[0],"id":60,"left_children":[-1],"loss_changes":[0E0],"parents":[2147483647],"right_children":[-1],"split_conditions":[-0E0],"split_indices":[0],"split_type":[0],"sum_hessian":[2.18E2],"tree_param":{"num_deleted":"0","num_feature":"2048","num_nodes":"1","size_leaf_vector":"1"}},{"base_weights":[-0E0],"categories":[],"categories_nodes":[],"categories_segments":[],"categories_sizes":[],"default_left":[0],"id":61,"left_children":[-1],"loss_changes":[0E0],"parents":[2147483647],"right_children":[-1],"split_conditions":[-0E0],"split_indices":[0],"split_type":[0],"sum_hessian":[2.18E2],"tree_param":{"num_deleted":"0","num_feature":"2048","num_nodes":"1","size_leaf_vector":"1"}},{"base_weights":[-0E0],"categories":[],"categories_nodes":[],"categories_segments":[],"categories_sizes":[],"default_left":[0],"id":62,"left_children":[-1],"loss_changes":[0E0],"parents":[2147483647],"right_children":[-1],"split_conditions":[-0E0],"split_indices":[0],"split_type":[0],"sum_hessian":[2.18E2],"tree_param":{"num_deleted":"0","num_feature":"2048","num_nodes":"1","size_leaf_vector":"1"}},{"base_weights":[-0E0],"categories":[],"categories_nodes":[],"categories_segments":[],"categories_sizes":[],"default_left":[0],"id":63,"left_children":[-1],"loss_changes":[0E0],"parents":[2147483647],"right_children":[-1],"split_conditions":[-0E0],"split_indices":[0],"split_type":[0],"sum_hessian":[2.18E2],"tree_param":{"num_deleted":"0","num_feature":"2048","num_nodes":"1","size_leaf_vector":"1"}},{"base_weights":[-0E0],"categories":[],"categories_nodes":[],"categories_segments":[],"categories_sizes":[],"default_left":[0],"id":64,"left_children":[-1],"loss_changes":[0E0],"parents":[2147483647],"right_children":[-1],"split_conditions":[-0E0],"split_indices":[0],"split_type":[0],"sum_hessian":[2.18E2],"tree_param":{"num_deleted":"0","num_feature":"2048","num_nodes":"1","size_leaf_vector":"1"}},{"base_weights":[-0E0],"categories":[],"categories_nodes":[],"categories_segments":[],"categories_sizes":[],"default_left":[0],"id":65,"left_children":[-1],"loss_changes":[0E0],"parents":[2147483647],"right_children":[-1],"split_conditions":[-0E0],"split_indices":[0],"split_type":[0],"sum_hessian":[2.18E2],"tree_param":{"num_deleted":"0","num_feature":"2048","num_nodes":"1","size_leaf_vector":"1"}},{"base_weights":[-0E0],"categories":[],"categories_nodes":[],"categories_segments":[],"categories_sizes":[],"default_left":[0],"id":66,"left_children":[-1],"loss_changes":[0E0],"parents":[2147483647],"right_children":[-1],"split_conditions":[-0E0],"split_indices":[0],"split_type":[0],"sum_hessian":[2.18E2],"tree_param":{"num_deleted":"0","num_feature":"2048","num_nodes":"1","size_leaf_vector":"1"}},{"base_weights":[-0E0],"categories":[],"categories_nodes":[],"categories_segments":[],"categories_sizes":[],"default_left":[0],"id":67,"left_children":[-1],"loss_changes":[0E0],"parents":[2147483647],"right_children":[-1],"split_conditions":[-0E0],"split_indices":[0],"split_type":[0],"sum_hessian":[2.18E2],"tree_param":{"num_deleted":"0","num_feature":"2048","num_nodes":"1","size_leaf_vector":"1"}},{"base_weights":[-0E0],"categories":[],"categories_nodes":[],"categories_segments":[],"categories_sizes":[],"default_left":[0],"id":68,"left_children":[-1],"loss_changes":[0E0],"parents":[2147483647],"right_children":[-1],"split_conditions":[-0E0],"split_indices":[0],"split_type":[0],"sum_hessian":[2.18E2],"tree_param":{"num_deleted":"0","num_feature":"2048","num_nodes":"1","size_leaf_vector":"1"}},{"base_weights":[-0E0],"categories":[],"categories_nodes":[],"categories_segments":[],"categories_sizes":[],"default_left":[0],"id":69,"left_children":[-1],"loss_changes":[0E0],"parents":[2147483647],"right_children":[-1],"split_conditions":[-0E0],"split_indices":[0],"split_type":[0],"sum_hessian":[2.18E2],"tree_param":{"num_deleted":"0","num_feature":"2048","num_nodes":"1","size_leaf_vector":"1"}},{"base_weights":[-0E0],"categories":[],"categories_nodes":[],"categories_segments":[],"categories_sizes":[],"default_left":[0],"id":70,"left_children":[-1],"loss_changes":[0E0],"parents":[2147483647],"right_children":[-1],"split_conditions":[-0E0],"split_indices":[0],"split_type":[0],"sum_hessian":[2.18E2],"tree_param":{"num_deleted":"0","num_feature":"2048","num_nodes":"1","size_leaf_vector":"1"}},{"base_weights":[-0E0],"categories":[],"categories_nodes":[],"categories_segments":[],"categories_sizes":[],"default_left":[0],"id":71,"left_children":[-1],"loss_changes":[0E0],"parents":[2147483647],"right_children":[-1],"split_conditions":[-0E0],"split_indices":[0],"split_type":[0],"sum_hessian":[2.18E2],"tree_param":{"num_deleted":"0","num_feature":"2048","num_nodes":"1","size_leaf_vector":"1"}},{"base_weights":[-0E0],"categories":[],"categories_nodes":[],"categories_segments":[],"categories_sizes":[],"default_left":[0],"id":72,"left_children":[-1],"loss_changes":[0E0],"parents":[2147483647],"right_children":[-1],"split_conditions":[-0E0],"split_indices":[0],"split_type":[0],"sum_hessian":[2.18E2],"tree_param":{"num_deleted":"0","num_feature":"2048","num_nodes":"1","size_leaf_vector":"1"}},{"base_weights":[-0E0],"categories":[],"categories_nodes":[],"categories_segments":[],"categories_sizes":[],"default_left":[0],"id":73,"left_children":[-1],"loss_changes":[0E0],"parents":[2147483647],"right_children":[-1],"split_conditions":[-0E0],"split_indices":[0],"split_type":[0],"sum_hessian":[2.18E2],"tree_param":{"num_deleted":"0","num_feature":"2048","num_nodes":"1","size_leaf_vector":"1"}}]},"name":"gbtree"},"learner_model_param":{"base_score":"7.0729175E0","boost_from_average":"1","num_class":"0","num_feature":"2048","num_target":"1"},"objective":{"name":"reg:squarederror","reg_loss_param":{"scale_pos_weight":"1"}}},"version":[2,0,3]}