{"learner":{"attributes":{"scikit_learn":"{\"_estimator_type\": \"classifier\"}"},"feature_names":[],"feature_types":[],"gradient_booster":{"model":{"gbtree_model_param":{"num_parallel_tree":"1","num_trees":"184"},"iteration_indptr":[0,1,2,3,4,5,6,7,8,9,10,11,12,13,14,15,16,17,18,19,20,21,22,23,24,25,26,27,28,29,30,31,32,33,34,35,36,37,38,39,40,41,42,43,44,45,46,47,48,49,50,51,52,53,54,55,56,57,58,59,60,61,62,63,64,65,66,67,68,69,70,71,72,73,74,75,76,77,78,79,80,81,82,83,84,85,86,87,88,89,90,91,92,93,94,95,96,97,98,99,100,101,102,103,104,105,106,107,108,109,110,111,112,113,114,115,116,117,118,119,120,121,122,123,124,125,126,127,128,129,130,131,132,133,134,135,136,137,138,139,140,141,142,143,144,145,146,147,148,149,150,151,152,153,154,155,156,157,158,159,160,161,162,163,164,165,166,167,168,169,170,171,172,173,174,175,176,177,178,179,180,181,182,183,184],"tree_info":[0,0,0,0,0,0,0,0,0,0,0,0,0,0,0,0,0,0,0,0,0,0,0,0,0,0,0,0,0,0,0,0,0,0,0,0,0,0,0,0,0,0,0,0,0,0,0,0,0,0,0,0,0,0,0,0,0,0,0,0,0,0,0,0,0,0,0,0,0,0,0,0,0,0,0,0,0,0,0,0,0,0,0,0,0,0,0,0,0,0,0,0,0,0,0,0,0,0,0,0,0,0,0,0,0,0,0,0,0,0,0,0,0,0,0,0,0,0,0,0,0,0,0,0,0,0,0,0,0,0,0,0,0,0,0,0,0,0,0,0,0,0,0,0,0,0,0,0,0,0,0,0,0,0,0,0,0,0,0,0,0,0,0,0,0,0,0,0,0,0,0,0,0,0,0,0,0,0,0,0,0,0,0,0],"trees":[{"base_weights":[-0E0,3.6026686E-1,-6.052304E-1,4.5454547E-1,-1.2207792E0,-7.619048E-1,8.8235295E-1,5.3802127E-1,-1.3684211E0,-1.3424658E0,2.5E-1,-3.2608697E-1,-1.1632653E0,6.13694E-1,-1.5454545E0,-8.918919E-1,-5E-1,-1.5151515E0,9.090909E-2,-6.4935066E-2,-1.5625E0,-1.231579E0,7.5E-1,6.888694E-1,-1.3043479E0,-1.6923077E0,-1.1111111E-1,3.3333334E-1,-9.4736844E-1,-9.245283E-1,-1.1764706E-1,4.864865E-1,-8.6614174E-1,-1.7333333E0,2.5E-1,-1.445946E0,-4.5454547E-1,6.666667E-1,-2.5E-1,7.430618E-1,-7.8571427E-1,-1.6190476E0,5E-1,-8.857143E-1,-2.5E-1,-6E-1,-0E0,-5.555556E-1,3.3333334E-1,6.8235296E-1,-6.8421054E-1,-1.1456311E0,2.857143E-1,-9.2156863E-1,-7.692308E-1,-1.491409E0,3.3333334E-1,-1.14285715E-1,-7.2727275E-1,8.374761E-1,-6.1333334E-1,-8.8235295E-1,-6.666667E-1,8.974359E-1,-6.666667E-1,-1.4698795E0,1.6666667E-1,-5.3846157E-1,1.1578947E0,-5E-1,-1.1111111E-1,-1.5477031E0,3.3333334E-1,4.5454547E-1,-9.3333334E-1,1.0034763E0,5.3475935E-2,5.555556E-1,-1.5348837E0,-0E0,-5E-1,1.054054E0,-6.666667E-1,-1.7714286E0,1.1764706E-1,8.235294E-1,-4.5454547E-1,7.1428573E-1,1.1111111E-1,-1.5842294E0,2.5E-1,-0E0,2.5E-1,9.189189E-1,-6.363636E-1,-0E0,-1.2727273E0,1.0843374E0,-9.189189E-1,-4.64E-1,1.030303E0,9.5652175E-1,-5.882353E-2,-8.918919E-1,-0E0,1.1608392E0,-5.555556E-1,-9.0909094E-1,-2.5E-1,-2.5E-1,2.3076923E-1,6.666667E-1,-1.1111111E-1,-1.6628352E0,-3.6363637E-1,1.1515151E0,-2.5E-1,2.5E-1,-2.5E-1,-7.647059E-1,-1.1111111E-1,1.1291513E0,-8.5714287E-1,-1.1515151E0,2.5E-1,-9.306931E-1,6.4285713E-1,-1.3333334E-1,1.2727273E0,6.363636E-1,2.5E-1,1.2700729E0,-4E-1,-1.6887159E0,-0E0,-4.6666667E-1,2.7272728E-1,7.241379E-1,-2.5E-1,1.1602484E0,-6.666667E-1,2.5E-1,-6.4705884E-1,-7.037037E-1,-0E0,-1.2771084E0,5.4545456E-1,2.5E-1,-2.7272728E-1,1.372549E0,-0E0,1.389313E0,-4E-1,-1.7387755E0,-5E-1,6.066838E-1,-1.6129032E-1,-6.923077E-1,1.1111111E-1,-1.4285715E-1,6.666667E-1,2E-1,8E-1,-0E0,7.9130435E-1,-8.961039E-1,-3.3333334E-1,-0E0,-4E-1],"categories":[],"categories_nodes":[],"categories_segments":[],"categories_sizes":[],"default_left":[0,0,0,0,0,0,0,0,0,0,0,0,0,0,0,0,0,0,0,0,0,0,0,0,0,0,0,0,0,0,0,0,0,0,0,0,0,0,0,0,0,0,0,0,0,0,0,0,0,0,0,0,0,0,0,0,0,0,0,0,0,0,0,0,0,0,0,0,0,0,0,0,0,0,0,0,0,0,0,0,0,0,0,0,0,0,0,0,0,0,0,0,0,0,0,0,0,0,0,0,0,0,0,0,0,0,0,0,0,0,0,0,0,0,0,0,0,0,0,0,0,0,0,0,0,0,0,0,0,0,0,0,0,0,0,0,0,0,0,0,0,0,0,0,0,0,0,0,0,0,0,0,0,0,0,0,0,0,0,0,0,0,0,0,0,0,0,0,0],"id":0,"left_children":[1,3,5,7,9,11,-1,13,15,17,-1,19,21,23,25,-1,27,29,-1,31,33,35,37,39,41,43,-1,-1,45,-1,47,49,51,53,-1,55,57,-1,-1,59,-1,61,-1,-1,-1,-1,-1,-1,-1,63,-1,65,67,-1,69,71,-1,73,-1,75,77,-1,79,81,-1,83,85,-1,87,-1,-1,89,91,93,95,97,99,101,103,-1,-1,105,-1,107,109,111,-1,-1,-1,113,-1,-1,-1,115,-1,117,119,121,123,125,127,129,-1,-1,-1,131,-1,-1,-1,-1,-1,-1,-1,133,135,137,-1,-1,-1,-1,-1,139,141,143,-1,145,-1,147,149,-1,-1,151,-1,153,-1,-1,-1,-1,-1,155,-1,-1,-1,-1,-1,157,159,-1,-1,161,-1,163,-1,165,167,-1,-1,-1,-1,-1,-1,-1,-1,-1,-1,-1,-1,-1,-1],"loss_changes":[1.17307915E2,5.0824974E1,7.5884674E1,4.9279617E1,4.702099E0,3.2680565E1,0E0,4.9153694E1,4.2482224E0,5.0792847E0,0E0,2.9604568E1,1.3732498E1,4.3542595E1,1.7614594E0,0E0,3.7631578E0,7.481922E0,0E0,3.4440166E1,6.5041656E0,1.5166931E1,3.5833335E0,3.61082E1,9.958591E0,3.4067154E-2,0E0,0E0,1.1368423E0,0E0,4.0522876E0,1.7737026E1,1.0548649E1,1.701355E-1,0E0,8.101654E0,7.3194814E0,0E0,0E0,3.6275284E1,0E0,2.8011322E-1,0E0,0E0,0E0,0E0,0E0,0E0,0E0,1.962202E1,0E0,1.1201878E1,9.566223E0,0E0,1.880343E-1,7.9889526E0,0E0,8.577489E0,0E0,3.397902E1,2.1050026E1,0E0,6.666666E-1,1.5031183E1,0E0,1.0141785E1,4.9884133E0,0E0,8.8554716E-1,0E0,0E0,6.083847E0,1.6666666E-1,9.992629E0,2.3757577E0,3.4534103E1,2.4109463E1,2.5419154E0,4.1068516E0,0E0,0E0,9.844494E0,0E0,1.3116837E-1,1.1334841E0,2.5620918E0,0E0,0E0,0E0,6.087555E0,0E0,0E0,0E0,3.628583E0,0E0,1E0,1.1431961E0,1.902147E1,3.628583E0,2.6714714E1,4.8242435E0,1.93676E-1,0E0,0E0,0E0,8.673351E0,0E0,0E0,0E0,0E0,0E0,0E0,0E0,2.8080597E0,3.3575757E0,4.767503E0,0E0,0E0,0E0,0E0,0E0,1.7111115E1,3.7605042E0,2.430976E0,0E0,1.360845E1,0E0,1.251515E0,1.7468796E0,0E0,0E0,9.565567E0,0E0,2.9539185E0,0E0,0E0,0E0,0E0,0E0,1.6243225E1,0E0,0E0,0E0,0E0,0E0,3.6523552E0,3.9826841E0,0E0,0E0,2.1803932E0,0E0,8.794956E0,0E0,2.3139038E0,6E-1,0E0,0E0,0E0,0E0,0E0,0E0,0E0,0E0,0E0,0E0,0E0,0E0,0E0,0E0],"parents":[2147483647,0,0,1,1,2,2,3,3,4,4,5,5,7,7,8,8,9,9,11,11,12,12,13,13,14,14,16,16,17,17,19,19,20,20,21,21,22,22,23,23,24,24,25,25,28,28,30,30,31,31,32,32,33,33,35,35,36,36,39,39,41,41,49,49,51,51,52,52,54,54,55,55,57,57,59,59,60,60,62,62,63,63,65,65,66,66,68,68,71,71,72,72,73,73,74,74,75,75,76,76,77,77,78,78,81,81,83,83,84,84,85,85,89,89,93,93,95,95,96,96,97,97,98,98,99,99,100,100,101,101,105,105,113,113,114,114,115,115,121,121,122,122,123,123,125,125,127,127,128,128,131,131,133,133,139,139,145,145,146,146,149,149,151,151,153,153,154,154],"right_children":[2,4,6,8,10,12,-1,14,16,18,-1,20,22,24,26,-1,28,30,-1,32,34,36,38,40,42,44,-1,-1,46,-1,48,50,52,54,-1,56,58,-1,-1,60,-1,62,-1,-1,-1,-1,-1,-1,-1,64,-1,66,68,-1,70,72,-1,74,-1,76,78,-1,80,82,-1,84,86,-1,88,-1,-1,90,92,94,96,98,100,102,104,-1,-1,106,-1,108,110,112,-1,-1,-1,114,-1,-1,-1,116,-1,118,120,122,124,126,128,130,-1,-1,-1,132,-1,-1,-1,-1,-1,-1,-1,134,136,138,-1,-1,-1,-1,-1,140,142,144,-1,146,-1,148,150,-1,-1,152,-1,154,-1,-1,-1,-1,-1,156,-1,-1,-1,-1,-1,158,160,-1,-1,162,-1,164,-1,166,168,-1,-1,-1,-1,-1,-1,-1,-1,-1,-1,-1,-1,-1,-1],"split_conditions":[1E0,1E0,1E0,1E0,1E0,1E0,8.8235295E-1,1E0,1E0,1E0,2.5E-1,1E0,1E0,1E0,1E0,-8.918919E-1,1E0,1E0,9.090909E-2,1E0,1E0,1E0,1E0,1E0,1E0,1E0,-1.1111111E-1,3.3333334E-1,1E0,-9.245283E-1,1E0,1E0,1E0,1E0,2.5E-1,1E0,1E0,6.666667E-1,-2.5E-1,1E0,-7.8571427E-1,1E0,5E-1,-8.857143E-1,-2.5E-1,-6E-1,-0E0,-5.555556E-1,3.3333334E-1,1E0,-6.8421054E-1,1E0,1E0,-9.2156863E-1,1E0,1E0,3.3333334E-1,1E0,-7.2727275E-1,1E0,1E0,-8.8235295E-1,1E0,1E0,-6.666667E-1,1E0,1E0,-5.3846157E-1,1E0,-5E-1,-1.1111111E-1,1E0,1E0,1E0,1E0,1E0,1E0,1E0,1E0,-0E0,-5E-1,1E0,-6.666667E-1,1E0,1E0,1E0,-4.5454547E-1,7.1428573E-1,1.1111111E-1,1E0,2.5E-1,-0E0,2.5E-1,1E0,-6.363636E-1,1E0,1E0,1E0,1E0,1E0,1E0,1E0,-5.882353E-2,-8.918919E-1,-0E0,1E0,-5.555556E-1,-9.0909094E-1,-2.5E-1,-2.5E-1,2.3076923E-1,6.666667E-1,-1.1111111E-1,1E0,1E0,1E0,-2.5E-1,2.5E-1,-2.5E-1,-7.647059E-1,-1.1111111E-1,1E0,1E0,1E0,2.5E-1,1E0,6.4285713E-1,1E0,1E0,6.363636E-1,2.5E-1,1E0,-4E-1,1E0,-0E0,-4.6666667E-1,2.7272728E-1,7.241379E-1,-2.5E-1,1E0,-6.666667E-1,2.5E-1,-6.4705884E-1,-7.037037E-1,-0E0,1E0,1E0,2.5E-1,-2.7272728E-1,1E0,-0E0,1E0,-4E-1,1E0,1E0,6.066838E-1,-1.6129032E-1,-6.923077E-1,1.1111111E-1,-1.4285715E-1,6.666667E-1,2E-1,8E-1,-0E0,7.9130435E-1,-8.961039E-1,-3.3333334E-1,-0E0,-4E-1],"split_indices":[695,507,856,901,1096,1019,0,573,383,84,0,283,430,255,1866,0,1057,1045,0,718,699,1972,772,1773,992,216,0,0,1025,0,1019,1964,1294,31,0,311,961,0,0,1590,0,816,0,0,0,0,0,0,0,1956,0,896,548,0,322,415,0,1733,0,1199,383,0,1261,158,0,573,980,0,564,0,0,1288,739,1039,1349,2,1589,389,978,0,0,1856,0,216,503,1152,0,0,0,2023,0,0,0,387,0,428,1801,1603,961,531,650,294,0,0,0,680,0,0,0,0,0,0,0,1593,781,806,0,0,0,0,0,387,807,816,0,335,0,165,1840,0,0,562,0,980,0,0,0,0,0,121,0,0,0,0,0,504,726,0,0,378,0,1452,0,126,784,0,0,0,0,0,0,0,0,0,0,0,0,0,0],"split_type":[0,0,0,0,0,0,0,0,0,0,0,0,0,0,0,0,0,0,0,0,0,0,0,0,0,0,0,0,0,0,0,0,0,0,0,0,0,0,0,0,0,0,0,0,0,0,0,0,0,0,0,0,0,0,0,0,0,0,0,0,0,0,0,0,0,0,0,0,0,0,0,0,0,0,0,0,0,0,0,0,0,0,0,0,0,0,0,0,0,0,0,0,0,0,0,0,0,0,0,0,0,0,0,0,0,0,0,0,0,0,0,0,0,0,0,0,0,0,0,0,0,0,0,0,0,0,0,0,0,0,0,0,0,0,0,0,0,0,0,0,0,0,0,0,0,0,0,0,0,0,0,0,0,0,0,0,0,0,0,0,0,0,0,0,0,0,0,0,0],"sum_hessian":[5.36E2,3.3625E2,1.9975E2,3.18E2,1.825E1,1.88E2,1.175E1,3.0475E2,1.325E1,1.725E1,1E0,9.1E1,9.7E1,2.9475E2,1E1,8.25E0,5E0,1.55E1,1.75E0,7.6E1,1.5E1,9.4E1,3E0,2.8425E2,1.05E1,8.75E0,1.25E0,1.25E0,3.75E0,1.225E1,3.25E0,4.525E1,3.075E1,1.4E1,1E0,7.3E1,2.1E1,2E0,1E0,2.7825E2,6E0,9.5E0,1E0,7.75E0,1E0,2.75E0,1E0,1.25E0,2E0,4.15E1,3.75E0,2.475E1,6E0,1.175E1,2.25E0,7.175E1,1.25E0,1.65E1,4.5E0,2.605E2,1.775E1,7.5E0,2E0,3.8E1,3.5E0,1.975E1,5E0,2.25E0,3.75E0,1E0,1.25E0,6.975E1,2E0,1E1,6.5E0,2.1475E2,4.575E1,8E0,9.75E0,1E0,1E0,3.6E1,2E0,1.65E1,3.25E0,3.25E0,1.75E0,2.5E0,1.25E0,6.875E1,1E0,1E0,1E0,8.25E0,1.75E0,2E0,4.5E0,2.065E2,8.25E0,3.025E1,1.55E1,4.75E0,3.25E0,8.25E0,1.5E0,3.475E1,1.25E0,1.55E1,1E0,1E0,2.25E0,2E0,1.25E0,6.425E1,4.5E0,7.25E0,1E0,1E0,1E0,3.25E0,1.25E0,2.0225E2,4.25E0,7.25E0,1E0,2.425E1,6E0,2.75E0,1.275E1,1.75E0,3E0,3.325E1,1.5E0,6.325E1,1E0,2.75E0,1.75E0,6.25E0,1E0,2.0025E2,2E0,1E0,3.25E0,5.75E0,1.5E0,1.975E1,4.5E0,1E0,1.75E0,1.175E1,1E0,3.175E1,1.5E0,6.025E1,3E0,1.935E2,6.75E0,1.85E1,1.25E0,2.5E0,2E0,2.75E0,9E0,4E0,2.775E1,5.675E1,3.5E0,1.5E0,1.5E0],"tree_param":{"num_deleted":"0","num_feature":"2048","num_nodes":"169","size_leaf_vector":"1"}},{"base_weights":[-2.836154E-2,1.9767761E-1,-4.1263628E-1,2.645042E-1,-6.319947E-1,-5.4110557E-1,8.293088E-1,4.2801762E-1,-1.8526973E-1,-6.727293E-1,7.2491693E-1,1.1714725E0,-2.2307253E-1,5.8057606E-1,-2.5990182E-1,1.7739205E-1,-7.5254685E-1,-7.742728E-1,9.399808E-1,1.0093417E0,-3.3520615E-1,6.0848624E-1,1.7838301E-1,6.411179E-1,-6.292403E-1,-6.3334686E-1,6.4153814E-1,8.69773E-1,-1.1558687E-1,-1.0766323E0,5.047627E-1,-8.499572E-1,1.8024987E-1,-5.562189E-1,7.154599E-1,1.1184157E0,6.6879485E-3,6.803213E-1,-5.9031624E-1,-3.8742855E-1,-6.769248E-1,-3.0879113E-1,8.5429674E-1,7.2964E-1,-5.0123245E-1,-4.548881E-1,6.5498453E-1,-1.2240046E0,3.1643945E-1,5.0782776E-1,-3.3386222E-1,-9.692392E-1,-2.1779868E-1,7.7988446E-1,-5.4548377E-1,-1.6324067E-2,1.241058E0,7.141915E-1,-6.467463E-1,-1.309652E-1,-5.3499097E-1,1.0232422E0,-2.6643109E-2,5.241474E-2,-4.7526357E-1,-7.4275804E-1,4.7715184E-1,8.524761E-1,-2.961111E-1,-1.4420838E0,-1.2282544E-3,-1.0574453E0,6.005684E-2,-4.5046106E-1,7.847795E-1,5.322393E-1,-1.5964326E-1,-5.613061E-1,1.2587333E-1,7.056667E-1,3.3469433E-1,7.528298E-1,-1.0725774E0,4.0430635E-1,-6.2225825E-1,5.7079595E-1,1.4637475E-1,-8.9424944E-1,4.3944976E-1,4.071798E-1,-8.407624E-2,4.665391E-1,1.0181025E-1,-7.892551E-1,2.4482489E-2,-4.2075738E-1,3.3334604E-1,-1.1307706E0,-4.917669E-2,4.7562057E-1,-6.234298E-1,-7.5081164E-1,3.2313332E-1,5.1041734E-1,1.7182773E-2,7.914013E-1,-9.014499E-1,-1.7325136E-1,-6.142688E-1,6.967331E-1,-3.4840304E-1,1.2924832E-1,-1.0487186E0,-1.0333246E0,2.3563E-1,-4.1319582E-1,7.916578E-2,-1.19485E0,-1.6171422E-2,-6.1552644E-1,3.808997E-1,3.2190487E-2,7.718536E-1,-4.4533646E-1,1.5380953E-2,-1.0803198E0,-3.082884E-1,6.683413E-1,-2.3653385E-1,8.2228076E-1,-5.9383434E-1,-7.007497E-1,1.0807574E-1,9.9143696E-1,-1.1014299E-1,2.7012062E-1,-1.3265517E-1,-5.8552986E-1,-1.7416048E-1,-1.22892E0,1.1675373E-1,-1.2539114E0,-3.0551502E-1,-4.4202992E-1,4.1835997E-1,7.290159E-1,-2.6806605E-1,-3.2203624E-1,3.735826E-1,4.8072582E-1,1.4103988E-1,-1.3628824E-1,-6.035184E-1,1.2468614E-1,-4.9802518E-1,3.7726727E-1,1.1014021E-1,8.533632E-1,-7.617701E-1,5.4941E-1,1.5499522E-1,-5.6558874E-2,-1.3327472E0,-1.2787601E0,1.4515159E-1,2.715042E-1,-5.914496E-1,3.5994008E-1,-7.3705904E-2,5.778944E-1,-1.9694488E-1,-2.4423137E-1,2.016953E-1,4.3816608E-1,-6.0698855E-1,-1.1069918E-1,-4.4734696E-1,-3.8426575E-1,-8.283527E-1,-6.487818E-1,1.7195875E-2,-5.0560963E-1,2.8642192E-1],"categories":[],"categories_nodes":[],"categories_segments":[],"categories_sizes":[],"default_left":[0,0,0,0,0,0,0,0,0,0,0,0,0,0,0,0,0,0,0,0,0,0,0,0,0,0,0,0,0,0,0,0,0,0,0,0,0,0,0,0,0,0,0,0,0,0,0,0,0,0,0,0,0,0,0,0,0,0,0,0,0,0,0,0,0,0,0,0,0,0,0,0,0,0,0,0,0,0,0,0,0,0,0,0,0,0,0,0,0,0,0,0,0,0,0,0,0,0,0,0,0,0,0,0,0,0,0,0,0,0,0,0,0,0,0,0,0,0,0,0,0,0,0,0,0,0,0,0,0,0,0,0,0,0,0,0,0,0,0,0,0,0,0,0,0,0,0,0,0,0,0,0,0,0,0,0,0,0,0,0,0,0,0,0,0,0,0,0,0,0,0,0,0,0,0,0,0,0,0,0,0,0,0],"id":1,"left_children":[1,3,5,7,-1,9,11,13,15,17,19,21,-1,23,25,27,29,31,33,35,-1,-1,-1,37,-1,39,41,43,45,47,49,51,53,-1,-1,55,-1,57,-1,59,-1,-1,61,-1,63,65,67,69,-1,-1,-1,71,73,75,77,-1,79,81,-1,83,-1,85,-1,-1,-1,87,89,91,-1,93,95,97,99,101,103,-1,-1,-1,-1,-1,-1,105,107,109,111,-1,-1,113,-1,-1,-1,-1,-1,-1,-1,115,-1,117,119,121,123,125,127,-1,-1,129,131,-1,-1,133,-1,135,137,139,-1,-1,-1,141,143,-1,145,147,149,-1,-1,151,153,155,-1,157,-1,-1,-1,159,-1,-1,-1,-1,-1,161,-1,163,165,-1,167,169,-1,-1,-1,-1,-1,-1,-1,171,-1,-1,-1,173,175,-1,-1,-1,177,179,-1,-1,181,-1,-1,-1,-1,-1,-1,-1,-1,-1,-1,-1,-1,-1,-1,-1,-1],"loss_changes":[4.17489E1,2.9902714E1,2.8847113E1,2.142947E1,0E0,2.74678E1,7.9767475E0,2.2526432E1,1.6200634E1,2.4829872E1,6.91901E0,7.527542E-2,0E0,2.0270756E1,1.3666719E1,9.9288435E0,1.3031706E1,1.019558E1,1.0831403E1,1.4477835E0,0E0,0E0,0E0,1.2937714E1,0E0,4.4996223E0,3.7517133E0,1.2469304E1,9.429877E0,6.9939594E0,4.8483276E0,9.51403E0,5.2286067E0,0E0,0E0,1.7520065E0,0E0,1.2085785E1,0E0,3.8056486E0,0E0,0E0,1.6975045E0,0E0,1.4914545E0,7.01906E0,3.2358565E0,6.1495323E0,0E0,0E0,0E0,9.887856E0,5.4298887E0,2.3592138E0,2.850943E0,0E0,1.2426758E-1,1.218412E1,0E0,4.8599615E0,0E0,4.5106506E-1,0E0,0E0,0E0,5.544348E0,1.5449172E0,3.320446E-1,0E0,4.0593224E0,1.5392994E0,7.316971E0,2.9912367E0,4.49433E0,7.5562E-1,0E0,0E0,0E0,0E0,0E0,0E0,1.10432205E1,1.5996456E-2,3.3811193E0,3.1901827E0,0E0,0E0,3.945218E0,0E0,0E0,0E0,0E0,0E0,0E0,0E0,9.229816E-1,0E0,6.6170044E0,4.436668E0,8.246938E-1,7.302159E-1,1.6328354E0,1.9149327E0,0E0,0E0,1.0677162E1,2.625609E0,0E0,0E0,2.2738404E0,0E0,8.47251E-1,1.2253046E-1,4.4597034E0,0E0,0E0,0E0,4.2313004E0,2.6571686E0,0E0,2.4617226E0,2.2381473E0,8.478856E-2,0E0,0E0,4.210987E-1,2.2544022E0,6.497979E-3,0E0,8.374451E0,0E0,0E0,0E0,9.387398E-2,0E0,0E0,0E0,0E0,0E0,1.557745E0,0E0,3.5199432E0,1.9693066E0,0E0,9.1137683E-1,2.9116826E0,0E0,0E0,0E0,0E0,0E0,0E0,0E0,1.0990977E0,0E0,0E0,0E0,8.392494E0,5.67286E-2,0E0,0E0,0E0,1.1759129E0,2.043274E0,0E0,0E0,3.2964149E0,0E0,0E0,0E0,0E0,0E0,0E0,0E0,0E0,0E0,0E0,0E0,0E0,0E0,0E0,0E0,0E0],"parents":[2147483647,0,0,1,1,2,2,3,3,5,5,6,6,7,7,8,8,9,9,10,10,11,11,13,13,14,14,15,15,16,16,17,17,18,18,19,19,23,23,25,25,26,26,27,27,28,28,29,29,30,30,31,31,32,32,35,35,37,37,39,39,42,42,44,44,45,45,46,46,47,47,51,51,52,52,53,53,54,54,56,56,57,57,59,59,61,61,65,65,66,66,67,67,69,69,70,70,71,71,72,72,73,73,74,74,81,81,82,82,83,83,84,84,87,87,95,95,97,97,98,98,99,99,100,100,101,101,102,102,105,105,106,106,109,109,111,111,112,112,113,113,117,117,118,118,120,120,121,121,122,122,125,125,126,126,127,127,129,129,133,133,139,139,141,141,142,142,144,144,145,145,153,153,157,157,158,158,162,162,163,163,166,166],"right_children":[2,4,6,8,-1,10,12,14,16,18,20,22,-1,24,26,28,30,32,34,36,-1,-1,-1,38,-1,40,42,44,46,48,50,52,54,-1,-1,56,-1,58,-1,60,-1,-1,62,-1,64,66,68,70,-1,-1,-1,72,74,76,78,-1,80,82,-1,84,-1,86,-1,-1,-1,88,90,92,-1,94,96,98,100,102,104,-1,-1,-1,-1,-1,-1,106,108,110,112,-1,-1,114,-1,-1,-1,-1,-1,-1,-1,116,-1,118,120,122,124,126,128,-1,-1,130,132,-1,-1,134,-1,136,138,140,-1,-1,-1,142,144,-1,146,148,150,-1,-1,152,154,156,-1,158,-1,-1,-1,160,-1,-1,-1,-1,-1,162,-1,164,166,-1,168,170,-1,-1,-1,-1,-1,-1,-1,172,-1,-1,-1,174,176,-1,-1,-1,178,180,-1,-1,182,-1,-1,-1,-1,-1,-1,-1,-1,-1,-1,-1,-1,-1,-1,-1,-1],"split_conditions":[1E0,1E0,1E0,1E0,-6.319947E-1,1E0,1E0,1E0,1E0,1E0,1E0,1E0,-2.2307253E-1,1E0,1E0,1E0,1E0,1E0,1E0,1E0,-3.3520615E-1,6.0848624E-1,1.7838301E-1,1E0,-6.292403E-1,1E0,1E0,1E0,1E0,1E0,1E0,1E0,1E0,-5.562189E-1,7.154599E-1,1E0,6.6879485E-3,1E0,-5.9031624E-1,1E0,-6.769248E-1,-3.0879113E-1,1E0,7.2964E-1,1E0,1E0,1E0,1E0,3.1643945E-1,5.0782776E-1,-3.3386222E-1,1E0,1E0,1E0,1E0,-1.6324067E-2,1E0,1E0,-6.467463E-1,1E0,-5.3499097E-1,1E0,-2.6643109E-2,5.241474E-2,-4.7526357E-1,1E0,1E0,1E0,-2.961111E-1,1E0,1E0,1E0,1E0,1E0,1E0,5.322393E-1,-1.5964326E-1,-5.613061E-1,1.2587333E-1,7.056667E-1,3.3469433E-1,1E0,1E0,1E0,1E0,5.7079595E-1,1.4637475E-1,1E0,4.3944976E-1,4.071798E-1,-8.407624E-2,4.665391E-1,1.0181025E-1,-7.892551E-1,2.4482489E-2,1E0,3.3334604E-1,1E0,1E0,1E0,1E0,1E0,1E0,5.1041734E-1,1.7182773E-2,1E0,1E0,-1.7325136E-1,-6.142688E-1,1E0,-3.4840304E-1,1E0,1E0,1E0,2.3563E-1,-4.1319582E-1,7.916578E-2,1E0,1E0,-6.1552644E-1,1E0,1E0,1E0,-4.4533646E-1,1.5380953E-2,1E0,1E0,1E0,-2.3653385E-1,1E0,-5.9383434E-1,-7.007497E-1,1.0807574E-1,1E0,-1.1014299E-1,2.7012062E-1,-1.3265517E-1,-5.8552986E-1,-1.7416048E-1,1E0,1.1675373E-1,1E0,1E0,-4.4202992E-1,1E0,1E0,-2.6806605E-1,-3.2203624E-1,3.735826E-1,4.8072582E-1,1.4103988E-1,-1.3628824E-1,-6.035184E-1,1E0,-4.9802518E-1,3.7726727E-1,1.1014021E-1,1E0,1E0,5.4941E-1,1.5499522E-1,-5.6558874E-2,1E0,1E0,1.4515159E-1,2.715042E-1,1E0,3.5994008E-1,-7.3705904E-2,5.778944E-1,-1.9694488E-1,-2.4423137E-1,2.016953E-1,4.3816608E-1,-6.0698855E-1,-1.1069918E-1,-4.4734696E-1,-3.8426575E-1,-8.283527E-1,-6.487818E-1,1.7195875E-2,-5.0560963E-1,2.8642192E-1],"split_indices":[1088,92,528,114,0,1264,184,841,881,682,548,981,0,573,1422,935,667,745,102,561,0,0,0,1175,0,1683,1160,1669,223,42,1665,1911,1855,0,0,875,0,591,0,961,0,0,1535,0,360,571,1028,373,0,0,0,230,656,1039,1480,0,1985,1990,0,1917,0,310,0,0,0,674,1057,1192,0,1911,283,1427,708,1928,926,0,0,0,0,0,0,1956,561,45,875,0,0,129,0,0,0,0,0,0,0,1025,0,726,184,45,203,1066,1670,0,0,806,158,0,0,1649,0,831,1722,1446,0,0,0,1370,1199,0,404,1722,564,0,0,1057,378,310,0,357,0,0,0,1106,0,0,0,0,0,1453,0,1038,389,0,1754,1057,0,0,0,0,0,0,0,896,0,0,0,30,310,0,0,0,1019,1389,0,0,1163,0,0,0,0,0,0,0,0,0,0,0,0,0,0,0,0],"split_type":[0,0,0,0,0,0,0,0,0,0,0,0,0,0,0,0,0,0,0,0,0,0,0,0,0,0,0,0,0,0,0,0,0,0,0,0,0,0,0,0,0,0,0,0,0,0,0,0,0,0,0,0,0,0,0,0,0,0,0,0,0,0,0,0,0,0,0,0,0,0,0,0,0,0,0,0,0,0,0,0,0,0,0,0,0,0,0,0,0,0,0,0,0,0,0,0,0,0,0,0,0,0,0,0,0,0,0,0,0,0,0,0,0,0,0,0,0,0,0,0,0,0,0,0,0,0,0,0,0,0,0,0,0,0,0,0,0,0,0,0,0,0,0,0,0,0,0,0,0,0,0,0,0,0,0,0,0,0,0,0,0,0,0,0,0,0,0,0,0,0,0,0,0,0,0,0,0,0,0,0,0,0,0],"sum_hessian":[4.787006E2,3.017122E2,1.769884E2,2.893044E2,1.2407792E1,1.6090805E2,1.6080341E1,2.1220612E2,7.709828E1,1.4617899E2,1.472907E1,1.2743257E1,3.3370848E0,1.7381548E2,3.839065E1,4.74504E1,2.9647877E1,1.380092E2,8.169789E0,1.2464855E1,2.2642152E0,1.1601572E1,1.1416844E0,1.6890645E2,4.9090185E0,2.7355377E1,1.10352745E1,1.3523154E1,3.3927246E1,2.36862E1,5.961677E0,1.2797182E2,1.0037382E1,1.3326358E0,6.8371534E0,1.1123688E1,1.341167E0,1.6596158E2,2.9448736E0,2.1540876E1,5.814502E0,1.3200991E0,9.715176E0,9.411847E0,4.1113076E0,2.3839716E1,1.008753E1,2.2067797E1,1.6184025E0,4.245519E0,1.716158E0,1.0720928E2,2.0762531E1,5.4553256E0,4.5820565E0,1.1417291E0,9.981958E0,1.6378915E2,2.1724222E0,1.6524004E1,5.016872E0,8.083083E0,1.6320921E0,2.076695E0,2.0346127E0,1.8369267E1,5.47045E0,8.981783E0,1.1057477E0,1.8575542E1,3.4922547E0,9.872191E1,8.487375E0,1.72988E1,3.4637322E0,4.3584185E0,1.0969071E0,2.4211822E0,2.1608744E0,6.5594034E0,3.4225552E0,1.6088866E2,2.9004996E0,7.99279E0,8.531215E0,6.4717946E0,1.6112885E0,1.7210098E1,1.159168E0,3.4208739E0,2.0495763E0,7.599697E0,1.3820852E0,1.6964668E1,1.6108732E0,2.3722582E0,1.1199965E0,9.1915924E1,6.8059874E0,5.4673324E0,3.020043E0,1.2482052E1,4.8167477E0,2.3607554E0,1.1029768E0,1.5773253E2,3.1561208E0,1.0825256E0,1.8179739E0,6.605727E0,1.3870629E0,3.3408718E0,5.190343E0,1.5840077E1,1.3700213E0,1.1439213E0,1.2283369E0,8.6850784E1,5.065137E0,1.3189704E0,5.4870167E0,2.6336694E0,2.833663E0,1.8874973E0,1.1325456E0,6.3285017E0,6.1535497E0,3.4719887E0,1.344759E0,1.5588477E2,1.8477614E0,2.0049982E0,1.1511226E0,4.9377294E0,1.6679976E0,1.4555087E0,1.8853631E0,3.846472E0,1.3438709E0,1.3747438E1,2.0926387E0,8.105774E1,5.7930484E0,1.3447527E0,3.7203841E0,4.1258297E0,1.3611875E0,1.4044397E0,1.2292298E0,1.3485637E0,1.4850994E0,1.2854725E0,5.043029E0,4.2786627E0,1.8748872E0,2.338192E0,1.1337967E0,1.5333725E2,2.547521E0,3.7364538E0,1.2012758E0,1.3482002E0,1.2399239E1,7.994323E1,1.1145073E0,1.2335045E0,4.559544E0,2.249277E0,1.471107E0,2.9683795E0,1.15745E0,1.1018897E0,3.1767728E0,1.522221E2,1.1151397E0,1.0291888E0,1.5183324E0,5.752617E0,6.6466217E0,7.882636E1,1.1168694E0,3.4479191E0,1.1116248E0],"tree_param":{"num_deleted":"0","num_feature":"2048","num_nodes":"183","size_leaf_vector":"1"}},{"base_weights":[-3.969136E-2,-7.9121694E-2,9.982447E-1,-1.1824067E-1,1.0708655E0,1.0480869E0,8.721143E-2,-1.586005E-1,9.8746747E-1,5.766324E-1,1.1401433E-1,6.020031E-1,4.8148513E-1,-1.0762714E-3,-4.379111E-1,1.1025898E0,1.3224097E-2,8.35248E-2,3.702863E-1,4.4424128E-2,-1.0088938E0,-4.7834694E-1,3.1317702E-1,1.1755642E0,1.4714198E-1,2.3346992E-1,-2.3156707E-1,-7.1748674E-1,-2.1631327E-2,-5.0481963E-1,5.066845E-1,6.157854E-1,1.7108525E-1,3.7407157E-1,-2.4764624E-1,-5.339039E-3,-6.528754E-1,2.550857E-1,-3.6708122E-1,-5.9585917E-1,-6.770964E-2,4.3275154E-1,-5.5895257E-1,-6.425078E-1,6.9353837E-1,2.832685E-1,-3.5699525E-1,-8.330039E-1,3.0303755E-1,-4.7207484E-1,-9.6698004E-1,-2.3612206E-1,8.4519035E-1,4.8980084E-1,-4.7518286E-1,-8.1182235E-1,1.7105076E-1,4.6237627E-1,-1.3663478E-1,4.1285583E-1,-5.4792494E-1,9.998092E-3,-8.1117034E-1,-1.1072614E0,9.864906E-2,-5.330457E-1,2.7508074E-1,-1.091087E0,2.3657997E-1,1.1296295E-2,-5.4960114E-1,6.327978E-1,9.7089596E-2,5.24402E-1,-6.1068875E-1,-9.04768E-1,-3.552814E-2,2.204228E-1,-5.233212E-2,5.200773E-1,-6.099541E-1,2.2342582E-1,-6.70258E-1,-1.0304726E0,3.6224535E-1,-1.2154455E0,2.2182116E-1,-3.7745926E-1,4.940282E-1,-2.9836676E-1,-8.581787E-1,3.9259383E-1,-4.8802063E-1,-5.763397E-1,-3.9861453E-1,2.7722657E-1,-5.395438E-1,6.1551183E-1,-1.1468915E-1,-9.3793446E-1,-1.2499389E-1,-3.5288596E-1,3.2288316E-1,8.0684584E-1,-1.0172986E-1,5.547596E-1,-5.0087786E-1,-7.2295584E-2,-1.196246E0,-1.3682506E0,-3.608762E-1,-6.075469E-1,1.7723767E-1,-1.4034425E-1,-9.4134396E-1,-9.243213E-1,1.7240007E-1,1.443248E-1,-4.2856306E-1,5.977782E-1,-4.445147E-1,-7.542207E-1,-2.4636178E-3,3.250806E-1,-5.651338E-1,-4.3877846E-1,3.0050713E-1,-5.81039E-1,-3.1746992E-1,4.4987357E-1,-4.0986203E-2,-2.1754852E-1,4.3113503E-1,3.8431567E-1,-2.476861E-1,-4.3522593E-1,9.168586E-2,-7.0997834E-1,-9.8176256E-2,-7.5077593E-1,-8.922131E-2,-3.2369E-1,1.5401106E-1,-7.3722884E-2,2.8172892E-1,-3.85242E-1,5.0723482E-2,-5.1371557E-1,-7.3399566E-2,-5.014664E-1,-1.3226154E-2,4.3016544E-1,-3.2224444E-1,-5.4039426E-2,-2.874408E-1,-4.5970523E-1,-1.227387E-1],"categories":[],"categories_nodes":[],"categories_segments":[],"categories_sizes":[],"default_left":[0,0,0,0,0,0,0,0,0,0,0,0,0,0,0,0,0,0,0,0,0,0,0,0,0,0,0,0,0,0,0,0,0,0,0,0,0,0,0,0,0,0,0,0,0,0,0,0,0,0,0,0,0,0,0,0,0,0,0,0,0,0,0,0,0,0,0,0,0,0,0,0,0,0,0,0,0,0,0,0,0,0,0,0,0,0,0,0,0,0,0,0,0,0,0,0,0,0,0,0,0,0,0,0,0,0,0,0,0,0,0,0,0,0,0,0,0,0,0,0,0,0,0,0,0,0,0,0,0,0,0,0,0,0,0,0,0,0,0,0,0,0,0,0,0,0,0,0,0,0,0,0,0,0,0,0,0],"id":2,"left_children":[1,3,5,7,9,11,-1,13,15,-1,-1,-1,17,19,21,23,-1,-1,-1,25,27,29,-1,31,-1,33,35,-1,37,39,-1,-1,-1,41,43,45,47,-1,-1,49,51,53,-1,55,57,59,61,63,-1,65,67,69,71,73,-1,75,77,-1,-1,79,-1,81,83,85,87,89,91,93,-1,95,-1,-1,-1,97,-1,99,101,-1,-1,103,-1,105,-1,107,-1,109,-1,111,-1,113,115,-1,-1,-1,117,119,121,123,125,127,-1,-1,-1,129,131,133,135,-1,137,139,141,-1,143,145,147,149,-1,-1,-1,151,153,155,-1,-1,-1,-1,-1,-1,-1,-1,-1,-1,-1,-1,-1,-1,-1,-1,-1,-1,-1,-1,-1,-1,-1,-1,-1,-1,-1,-1,-1,-1,-1,-1,-1,-1,-1],"loss_changes":[1.667351E1,1.7741528E1,4.2954922E-1,1.7095839E1,6.3853836E-1,6.449928E-1,0E0,1.6150152E1,1.4650345E0,0E0,0E0,0E0,2.557571E-1,1.0853505E1,5.9959183E0,3.6401844E-1,0E0,0E0,0E0,1.18708935E1,4.2697678E0,5.5697308E0,0E0,7.828617E-2,0E0,9.218897E0,8.81972E0,0E0,1.9272249E0,4.994507E0,0E0,0E0,0E0,9.658957E0,1.2008061E1,6.316276E0,7.8371983E0,0E0,0E0,4.3480186E0,3.7260442E0,8.478813E0,0E0,3.229394E0,2.4156651E0,6.5631104E0,4.682892E0,7.4443417E0,0E0,3.8083267E0,5.021105E0,4.3145494E0,7.9175115E-1,6.454342E0,0E0,1.3203888E0,3.950837E-1,0E0,0E0,6.233374E0,0E0,5.0554004E0,4.9719515E0,4.2741375E0,3.5264394E0,5.440342E0,5.057712E0,5.431347E-1,0E0,2.588221E0,0E0,0E0,0E0,5.7155075E0,0E0,1.2819767E-1,1.8463312E0,0E0,0E0,5.558467E0,0E0,3.9029472E0,0E0,1.4999561E0,0E0,2.2584152E0,0E0,2.805275E0,0E0,4.429176E0,2.76651E0,0E0,0E0,0E0,1.334162E0,3.0160792E0,6.573254E-1,5.876919E0,7.5920734E0,3.169632E-1,0E0,0E0,0E0,1.8185434E0,3.775691E0,2.8150628E0,1.4914526E0,0E0,1.8369217E0,2.5109406E0,1.0723772E0,0E0,6.130315E-1,5.7477417E0,4.4297028E-1,2.0508614E0,0E0,0E0,0E0,3.378503E0,1.2337899E-1,1.1911392E-1,0E0,0E0,0E0,0E0,0E0,0E0,0E0,0E0,0E0,0E0,0E0,0E0,0E0,0E0,0E0,0E0,0E0,0E0,0E0,0E0,0E0,0E0,0E0,0E0,0E0,0E0,0E0,0E0,0E0,0E0,0E0,0E0,0E0,0E0,0E0],"parents":[2147483647,0,0,1,1,2,2,3,3,4,4,5,5,7,7,8,8,12,12,13,13,14,14,15,15,19,19,20,20,21,21,23,23,25,25,26,26,28,28,29,29,33,33,34,34,35,35,36,36,39,39,40,40,41,41,43,43,44,44,45,45,46,46,47,47,49,49,50,50,51,51,52,52,53,53,55,55,56,56,59,59,61,61,62,62,63,63,64,64,65,65,66,66,67,67,69,69,73,73,75,75,76,76,79,79,81,81,83,83,85,85,87,87,89,89,90,90,94,94,95,95,96,96,97,97,98,98,99,99,103,103,104,104,105,105,106,106,108,108,109,109,110,110,112,112,113,113,114,114,115,115,119,119,120,120,121,121],"right_children":[2,4,6,8,10,12,-1,14,16,-1,-1,-1,18,20,22,24,-1,-1,-1,26,28,30,-1,32,-1,34,36,-1,38,40,-1,-1,-1,42,44,46,48,-1,-1,50,52,54,-1,56,58,60,62,64,-1,66,68,70,72,74,-1,76,78,-1,-1,80,-1,82,84,86,88,90,92,94,-1,96,-1,-1,-1,98,-1,100,102,-1,-1,104,-1,106,-1,108,-1,110,-1,112,-1,114,116,-1,-1,-1,118,120,122,124,126,128,-1,-1,-1,130,132,134,136,-1,138,140,142,-1,144,146,148,150,-1,-1,-1,152,154,156,-1,-1,-1,-1,-1,-1,-1,-1,-1,-1,-1,-1,-1,-1,-1,-1,-1,-1,-1,-1,-1,-1,-1,-1,-1,-1,-1,-1,-1,-1,-1,-1,-1,-1,-1],"split_conditions":[1E0,1E0,1E0,1E0,1E0,1E0,8.721143E-2,1E0,1E0,5.766324E-1,1.1401433E-1,6.020031E-1,1E0,1E0,1E0,1E0,1.3224097E-2,8.35248E-2,3.702863E-1,1E0,1E0,1E0,3.1317702E-1,1E0,1.4714198E-1,1E0,1E0,-7.1748674E-1,1E0,1E0,5.066845E-1,6.157854E-1,1.7108525E-1,1E0,1E0,1E0,1E0,2.550857E-1,-3.6708122E-1,1E0,1E0,1E0,-5.5895257E-1,1E0,1E0,1E0,1E0,1E0,3.0303755E-1,1E0,1E0,1E0,1E0,1E0,-4.7518286E-1,1E0,1E0,4.6237627E-1,-1.3663478E-1,1E0,-5.4792494E-1,1E0,1E0,1E0,1E0,1E0,1E0,1E0,2.3657997E-1,1E0,-5.4960114E-1,6.327978E-1,9.7089596E-2,1E0,-6.1068875E-1,1E0,1E0,2.204228E-1,-5.233212E-2,1E0,-6.099541E-1,1E0,-6.70258E-1,1E0,3.6224535E-1,1E0,2.2182116E-1,1E0,4.940282E-1,1E0,1E0,3.9259383E-1,-4.8802063E-1,-5.763397E-1,1E0,1E0,1E0,1E0,1E0,1E0,-1.2499389E-1,-3.5288596E-1,3.2288316E-1,1E0,1E0,1E0,1E0,-7.2295584E-2,1E0,1E0,1E0,-6.075469E-1,1E0,1E0,1E0,1E0,1.7240007E-1,1.443248E-1,-4.2856306E-1,1E0,1E0,1E0,-2.4636178E-3,3.250806E-1,-5.651338E-1,-4.3877846E-1,3.0050713E-1,-5.81039E-1,-3.1746992E-1,4.4987357E-1,-4.0986203E-2,-2.1754852E-1,4.3113503E-1,3.8431567E-1,-2.476861E-1,-4.3522593E-1,9.168586E-2,-7.0997834E-1,-9.8176256E-2,-7.5077593E-1,-8.922131E-2,-3.2369E-1,1.5401106E-1,-7.3722884E-2,2.8172892E-1,-3.85242E-1,5.0723482E-2,-5.1371557E-1,-7.3399566E-2,-5.014664E-1,-1.3226154E-2,4.3016544E-1,-3.2224444E-1,-5.4039426E-2,-2.874408E-1,-4.5970523E-1,-1.227387E-1],"split_indices":[609,188,427,410,1034,1708,0,695,1911,0,0,0,360,1063,836,1710,0,0,0,1791,1665,567,0,197,0,383,1057,0,1385,667,0,0,0,1147,25,561,1648,0,0,114,703,92,0,701,926,980,807,1840,0,167,1004,1990,230,319,0,1951,1057,0,0,2009,0,74,168,322,102,1917,102,45,0,841,0,0,0,233,0,890,843,0,0,1088,0,1535,0,1019,0,739,0,1236,0,961,430,0,0,0,1452,1617,1028,1118,1964,1964,0,0,0,74,960,119,680,0,699,1594,800,0,216,875,428,162,0,0,0,1582,389,1199,0,0,0,0,0,0,0,0,0,0,0,0,0,0,0,0,0,0,0,0,0,0,0,0,0,0,0,0,0,0,0,0,0,0,0],"split_type":[0,0,0,0,0,0,0,0,0,0,0,0,0,0,0,0,0,0,0,0,0,0,0,0,0,0,0,0,0,0,0,0,0,0,0,0,0,0,0,0,0,0,0,0,0,0,0,0,0,0,0,0,0,0,0,0,0,0,0,0,0,0,0,0,0,0,0,0,0,0,0,0,0,0,0,0,0,0,0,0,0,0,0,0,0,0,0,0,0,0,0,0,0,0,0,0,0,0,0,0,0,0,0,0,0,0,0,0,0,0,0,0,0,0,0,0,0,0,0,0,0,0,0,0,0,0,0,0,0,0,0,0,0,0,0,0,0,0,0,0,0,0,0,0,0,0,0,0,0,0,0,0,0,0,0,0,0],"sum_hessian":[4.0447476E2,3.905614E2,1.3913336E1,3.7858047E2,1.1980946E1,1.286289E1,1.0504447E0,3.660748E2,1.2505656E1,1.057844E1,1.402506E0,9.204898E0,3.6579928E0,2.3470877E2,1.3136604E2,1.1036285E1,1.4693704E0,2.395505E0,1.262488E0,2.2548463E2,9.224137E0,1.27087975E2,4.2780643E0,9.705693E0,1.3305922E0,1.3391257E2,9.157207E1,6.1265664E0,3.097571E0,1.2552199E2,1.565987E0,8.646822E0,1.0588719E0,1.0380038E2,3.0112186E1,6.0238663E1,3.1333406E1,1.9363576E0,1.1612132E0,1.0358462E2,2.193737E1,1.0055544E2,3.2449331E0,2.1436237E1,8.675948E0,3.319208E1,2.704658E1,2.7707415E1,3.6259925E0,7.938007E1,2.420455E1,1.914655E1,2.7908194E0,9.719243E1,3.3630147E0,1.7745293E1,3.6909454E0,7.036624E0,1.6393243E0,3.0981571E1,2.2105114E0,1.5499936E1,1.1546642E1,2.1260355E1,6.4470587E0,7.365601E1,5.724061E0,2.250731E1,1.6972383E0,1.5647739E1,3.4988103E0,1.1221315E0,1.6686878E0,9.5945885E1,1.2465465E0,1.5700031E1,2.0452607E0,1.562792E0,2.1281533E0,2.9711905E1,1.2696664E0,1.4105365E1,1.3945712E0,1.0391623E1,1.1550198E0,2.0076225E1,1.18413E0,4.5741034E0,1.8729556E0,4.389241E1,2.97636E1,4.3307447E0,1.3933163E0,2.0058601E1,2.4487104E0,1.0888024E1,4.759715E0,8.400666E1,1.1939224E1,1.45315275E1,1.1685044E0,1.0128808E0,1.0323797E0,2.0130447E1,9.581457E0,9.838711E0,4.2666545E0,1.933162E0,8.458461E0,1.6521011E1,3.5552135E0,1.3479863E0,3.226117E0,3.6211174E1,7.681235E0,2.8431982E1,1.3316185E0,1.1281651E0,1.3205453E0,7.658404E0,3.2296207E0,3.1029475E0,1.6567677E0,8.298715E1,1.019507E0,5.669724E0,6.2695007E0,6.722888E0,7.8086395E0,1.8214348E1,1.9161003E0,7.527112E0,2.0543456E0,8.396688E0,1.4420224E0,2.5936544E0,1.6730001E0,6.5687065E0,1.889754E0,1.4620931E1,1.9000812E0,2.511607E0,1.0436065E0,2.0885613E0,1.1375556E0,9.435209E0,2.6775967E1,6.665893E0,1.0153416E0,2.6035473E1,2.396508E0,6.576016E0,1.0823876E0,1.4127624E0,1.8168582E0,1.7330159E0,1.3699317E0],"tree_param":{"num_deleted":"0","num_feature":"2048","num_nodes":"157","size_leaf_vector":"1"}},{"base_weights":[-4.0353145E-2,8.099027E-2,-2.5619888E-1,1.1437586E-1,-8.792755E-1,-7.1777403E-1,-1.139305E-1,1.4048083E-1,-5.1901054E-1,-4.8836735E-1,-1.3239096E-1,-8.92642E-1,3.311504E-1,-3.0099305E-3,-1.0109515E0,1.6577384E-1,-5.565073E-1,-1.0911787E0,-1.8675402E-1,5.788066E-1,-1.4892043E-1,6.961128E-2,-1.0033705E0,-5.40531E-1,-1.1198933E-1,1.9620433E-1,-7.8163093E-1,-6.0291827E-1,-3.6243284E-1,-4.2399597E-1,2.71655E-1,6.81894E-2,3.555525E-1,2.2586882E-1,-5.2112955E-1,-5.6574345E-1,-1.0745842E-1,2.2337581E-1,-8.249963E-1,-1.0246371E0,1.4385451E-1,-3.450976E-1,2.638787E-2,-2.9452366E-1,5.0210837E-2,1.00635916E-1,5.3625286E-1,-7.203711E-1,2.3168238E-1,2.4535067E-1,-4.8387548E-1,-5.345106E-1,-8.476653E-2,-5.922399E-1,-9.194749E-2,1.9638932E-1,-8.7241E-1,-9.419499E-1,3.178842E-1,-9.564969E-2,2.2351128E-1,3.3301795E-1,-7.127598E-2,2.9896224E-1,-8.90303E-1,-5.3785753E-1,2.5657497E-3,-1.0964493E0,1.3083136E-1,3.0438399E-2,2.0756161E-1,4.3441063E-1,-1.6573332E-1,8.903377E-2,-1.1581187E0,3.8919616E-1,-6.531007E-1,-5.492459E-1,-3.6825866E-2,-1.1734462E0,-9.8100625E-2,4.7299582E-1,-9.760399E-1,1.1708293E-1,-6.2990516E-1,3.452532E-1,-5.9497315E-1,-7.943035E-1,-3.99918E-1,5.4963183E-1,-1.516433E-1,-4.734197E-1,9.985779E-2,-6.5048945E-1,-2.0456119E-1,5.251973E-1,-5.9730774E-1,-7.0516974E-1,9.375392E-3,2.7018186E-1,-5.9773815E-1,-8.121502E-1,2.4721241E-1,5.485093E-1,-1.8261857E-1,-8.510342E-1,2.83453E-1,-2.335974E-1,-6.4805456E-2,6.5950507E-1,-4.9676996E-1,-4.7271693E-1,2.4830875E-1,2.7839836E-1,-4.959819E-1,-6.0296315E-1,2.6881665E-1,1.901772E-1,-1.804256E-1,-5.8043426E-1,1.366322E-1,-4.5856658E-1,-8.2166106E-2,4.7733304E-1,1.0360932E-1,1.0402467E-1,-3.2415062E-1,-4.680729E-1,-5.216843E-2,-1.2478924E-1,3.315644E-1,3.738907E-1,-2.0641117E-1,-3.5716563E-1,-1.5441475E-2,-3.7522414E-1,2.657843E-1],"categories":[],"categories_nodes":[],"categories_segments":[],"categories_sizes":[],"default_left":[0,0,0,0,0,0,0,0,0,0,0,0,0,0,0,0,0,0,0,0,0,0,0,0,0,0,0,0,0,0,0,0,0,0,0,0,0,0,0,0,0,0,0,0,0,0,0,0,0,0,0,0,0,0,0,0,0,0,0,0,0,0,0,0,0,0,0,0,0,0,0,0,0,0,0,0,0,0,0,0,0,0,0,0,0,0,0,0,0,0,0,0,0,0,0,0,0,0,0,0,0,0,0,0,0,0,0,0,0,0,0,0,0,0,0,0,0,0,0,0,0,0,0,0,0,0,0,0,0,0,0,0,0,0,0,0,0],"id":3,"left_children":[1,3,5,7,9,11,13,15,-1,-1,-1,17,19,21,23,25,-1,27,29,31,-1,33,35,-1,-1,37,39,-1,41,43,-1,-1,-1,45,47,-1,-1,49,51,53,-1,-1,-1,-1,-1,55,-1,57,59,61,-1,-1,-1,-1,-1,63,65,67,69,-1,-1,71,73,75,77,-1,-1,79,-1,-1,-1,81,83,85,87,89,91,-1,-1,93,-1,95,97,99,101,103,105,-1,107,109,111,-1,-1,-1,-1,113,115,-1,-1,117,119,121,-1,123,125,127,129,-1,-1,131,133,-1,135,-1,-1,-1,-1,-1,-1,-1,-1,-1,-1,-1,-1,-1,-1,-1,-1,-1,-1,-1,-1,-1,-1,-1,-1],"loss_changes":[9.154678E0,7.2817173E0,8.175213E0,6.684618E0,1.9899416E-1,5.6948624E0,9.678437E0,6.951003E0,0E0,0E0,0E0,3.3699818E0,9.4121796E-1,6.4336333E0,3.4850883E-1,6.2097263E0,0E0,1.2087154E0,1.4088775E0,1.3018382E-1,0E0,7.7427497E0,3.6226892E-1,0E0,0E0,5.8540373E0,2.0457454E0,0E0,5.9539604E-1,5.522741E-1,0E0,0E0,0E0,6.892272E0,2.8039937E0,0E0,0E0,5.4678173E0,6.9991755E-1,5.494838E-1,0E0,0E0,0E0,0E0,0E0,5.6330037E0,0E0,3.553698E0,4.8957348E-1,5.492094E0,0E0,0E0,0E0,0E0,0E0,6.305746E0,9.7524214E-1,2.5016499E0,5.5589765E-2,0E0,0E0,7.8830376E0,7.6894712E0,4.571843E0,7.5637364E-1,0E0,0E0,5.1476574E-1,0E0,0E0,0E0,7.462639E0,3.5945E0,7.0182347E0,1.2147956E0,4.1211395E0,1.372591E0,0E0,0E0,4.1327953E-1,0E0,7.3473206E0,1.6474061E0,2.0776222E0,2.5142794E0,3.2023335E0,2.706596E0,0E0,1.0808706E-3,4.478636E0,3.8634646E0,0E0,0E0,0E0,0E0,6.332485E0,5.015446E0,0E0,0E0,1.1876613E0,1.9847808E0,4.7845125E-1,0E0,2.7304497E0,1.7336798E0,4.5755625E-1,8.179771E-1,0E0,0E0,3.442316E0,3.8349313E-1,0E0,2.77317E0,0E0,0E0,0E0,0E0,0E0,0E0,0E0,0E0,0E0,0E0,0E0,0E0,0E0,0E0,0E0,0E0,0E0,0E0,0E0,0E0,0E0,0E0,0E0,0E0],"parents":[2147483647,0,0,1,1,2,2,3,3,4,4,5,5,6,6,7,7,11,11,12,12,13,13,14,14,15,15,17,17,18,18,19,19,21,21,22,22,25,25,26,26,28,28,29,29,33,33,34,34,37,37,38,38,39,39,45,45,47,47,48,48,49,49,55,55,56,56,57,57,58,58,61,61,62,62,63,63,64,64,67,67,71,71,72,72,73,73,74,74,75,75,76,76,79,79,81,81,82,82,83,83,84,84,85,85,86,86,88,88,89,89,90,90,95,95,96,96,99,99,100,100,101,101,103,103,104,104,105,105,106,106,109,109,110,110,112,112],"right_children":[2,4,6,8,10,12,14,16,-1,-1,-1,18,20,22,24,26,-1,28,30,32,-1,34,36,-1,-1,38,40,-1,42,44,-1,-1,-1,46,48,-1,-1,50,52,54,-1,-1,-1,-1,-1,56,-1,58,60,62,-1,-1,-1,-1,-1,64,66,68,70,-1,-1,72,74,76,78,-1,-1,80,-1,-1,-1,82,84,86,88,90,92,-1,-1,94,-1,96,98,100,102,104,106,-1,108,110,112,-1,-1,-1,-1,114,116,-1,-1,118,120,122,-1,124,126,128,130,-1,-1,132,134,-1,136,-1,-1,-1,-1,-1,-1,-1,-1,-1,-1,-1,-1,-1,-1,-1,-1,-1,-1,-1,-1,-1,-1,-1,-1],"split_conditions":[1E0,1E0,1E0,1E0,1E0,1E0,1E0,1E0,-5.1901054E-1,-4.8836735E-1,-1.3239096E-1,1E0,1E0,1E0,1E0,1E0,-5.565073E-1,1E0,1E0,1E0,-1.4892043E-1,1E0,1E0,-5.40531E-1,-1.1198933E-1,1E0,1E0,-6.0291827E-1,1E0,1E0,2.71655E-1,6.81894E-2,3.555525E-1,1E0,1E0,-5.6574345E-1,-1.0745842E-1,1E0,1E0,1E0,1.4385451E-1,-3.450976E-1,2.638787E-2,-2.9452366E-1,5.0210837E-2,1E0,5.3625286E-1,1E0,1E0,1E0,-4.8387548E-1,-5.345106E-1,-8.476653E-2,-5.922399E-1,-9.194749E-2,1E0,1E0,1E0,1E0,-9.564969E-2,2.2351128E-1,1E0,1E0,1E0,1E0,-5.3785753E-1,2.5657497E-3,1E0,1.3083136E-1,3.0438399E-2,2.0756161E-1,1E0,1E0,1E0,1E0,1E0,1E0,-5.492459E-1,-3.6825866E-2,1E0,-9.8100625E-2,1E0,1E0,1E0,1E0,1E0,1E0,-7.943035E-1,1E0,1E0,1E0,-4.734197E-1,9.985779E-2,-6.5048945E-1,-2.0456119E-1,1E0,1E0,-7.0516974E-1,9.375392E-3,1E0,1E0,1E0,2.4721241E-1,1E0,1E0,1E0,1E0,-2.335974E-1,-6.4805456E-2,1E0,1E0,-4.7271693E-1,1E0,2.7839836E-1,-4.959819E-1,-6.0296315E-1,2.6881665E-1,1.901772E-1,-1.804256E-1,-5.8043426E-1,1.366322E-1,-4.5856658E-1,-8.2166106E-2,4.7733304E-1,1.0360932E-1,1.0402467E-1,-3.2415062E-1,-4.680729E-1,-5.216843E-2,-1.2478924E-1,3.315644E-1,3.738907E-1,-2.0641117E-1,-3.5716563E-1,-1.5441475E-2,-3.7522414E-1,2.657843E-1],"split_indices":[1088,92,875,1077,1028,1978,41,387,0,0,0,844,378,1839,1998,197,0,1385,1683,80,0,1028,368,0,0,1920,856,0,1163,1928,0,0,0,1853,56,0,0,1102,1964,366,0,0,0,0,0,294,0,1734,751,961,0,0,0,0,0,1665,896,1272,80,0,0,1260,1589,652,1589,0,0,784,0,0,0,1409,881,322,552,1765,119,0,0,1446,0,950,1391,699,978,881,667,0,60,728,1199,0,0,0,0,981,716,0,0,63,29,62,0,294,1243,1567,652,0,0,1712,807,0,1683,0,0,0,0,0,0,0,0,0,0,0,0,0,0,0,0,0,0,0,0,0,0,0,0],"split_type":[0,0,0,0,0,0,0,0,0,0,0,0,0,0,0,0,0,0,0,0,0,0,0,0,0,0,0,0,0,0,0,0,0,0,0,0,0,0,0,0,0,0,0,0,0,0,0,0,0,0,0,0,0,0,0,0,0,0,0,0,0,0,0,0,0,0,0,0,0,0,0,0,0,0,0,0,0,0,0,0,0,0,0,0,0,0,0,0,0,0,0,0,0,0,0,0,0,0,0,0,0,0,0,0,0,0,0,0,0,0,0,0,0,0,0,0,0,0,0,0,0,0,0,0,0,0,0,0,0,0,0,0,0,0,0,0,0],"sum_hessian":[3.477369E2,2.2299765E2,1.2473927E2,2.1635646E2,6.6411805E0,2.8436089E1,9.6303185E1,2.124226E2,3.9338603E0,5.2232704E0,1.41791E0,2.4500553E1,3.9355347E0,8.659829E1,9.704902E0,2.0907172E2,3.350895E0,1.8696259E1,5.804295E0,2.8809779E0,1.0545568E0,8.1604614E1,4.993676E0,8.567901E0,1.1370004E0,2.0333357E2,5.7381406E0,1.5588891E1,3.1073668E0,4.6971436E0,1.1071516E0,1.1306708E0,1.7503071E0,6.5022964E1,1.6581648E1,3.9214122E0,1.0722637E0,1.9882463E2,4.508943E0,4.7096763E0,1.0284643E0,1.3664312E0,1.7409356E0,3.4789605E0,1.2181829E0,5.7618946E1,7.404019E0,1.3145588E1,3.4360597E0,1.9600262E2,2.8219945E0,2.8259275E0,1.6830155E0,3.613772E0,1.0959041E0,5.3183544E1,4.435401E0,1.0909994E1,2.2355938E0,1.1968296E0,2.2392302E0,1.534608E2,4.254184E1,4.9258884E1,3.924659E0,3.4177606E0,1.0176404E0,9.747775E0,1.1622188E0,1.0600044E0,1.1755896E0,1.2764122E2,2.5819574E1,3.7873554E1,4.668284E0,4.5534462E1,3.7244241E0,2.8523839E0,1.0722752E0,8.70019E0,1.0475857E0,1.2488931E2,2.7519028E0,1.6508709E1,9.310866E0,2.7912989E1,9.9605665E0,2.2790573E0,2.389227E0,3.5104683E1,1.0429778E1,2.6882503E0,1.0361739E0,6.854361E0,1.845828E0,1.19567024E2,5.3222933E0,1.624823E0,1.12708E0,1.4108917E1,2.3997908E0,8.251089E0,1.0597776E0,2.0124853E1,7.7881346E0,7.736547E0,2.224019E0,1.3298538E0,1.059373E0,3.210352E1,3.0011616E0,3.0374467E0,7.3923316E0,1.17747574E2,1.8194464E0,3.4237454E0,1.8985481E0,1.2349977E1,1.7589407E0,1.2553633E0,1.1444275E0,6.74267E0,1.5084189E0,8.3685465E0,1.1756308E1,4.536031E0,3.2521036E0,6.7171807E0,1.0193663E0,1.0677066E0,1.1563125E0,2.994134E1,2.1621811E0,1.6822896E0,1.318872E0,1.2689084E0,6.123423E0],"tree_param":{"num_deleted":"0","num_feature":"2048","num_nodes":"137","size_leaf_vector":"1"}},{"base_weights":[-6.730269E-2,-9.1385275E-2,7.154811E-1,-1.1820812E-1,6.766636E-1,8.67682E-1,-5.2619103E-2,-1.4436726E-1,7.3015225E-1,2.7670613E-1,8.7589306E-1,4.845078E-1,4.6812814E-2,-6.7077465E-2,-4.094088E-1,8.0709845E-2,8.490655E-1,-1.774417E-1,2.944458E-1,4.9172682E-1,8.607762E-2,-4.2048957E-2,-6.033829E-1,-5.4745483E-1,5.989955E-2,4.9473897E-1,4.933717E-2,-1.0908109E-2,-8.171996E-1,-6.15004E-1,4.872817E-1,-4.4956744E-1,6.561656E-1,1.6348658E-2,-4.759731E-1,-8.9170057E-1,-7.394909E-2,-7.33038E-1,1.4400977E-1,-8.0843605E-2,4.8804095E-1,-8.561827E-1,1.5047848E-1,2.8101963E-1,4.6364117E-1,1.0257999E-1,-3.0417946E-1,-4.9225956E-1,-1.5252993E-1,-7.95738E-1,2.3749179E-1,5.179557E-1,-2.7251583E-1,-1.3636248E-1,-4.781465E-1,-8.593904E-2,1.6858469E-1,2.789319E-1,-1.4573407E-1,1.24938115E-1,-7.575306E-1,-4.1295153E-1,4.0889874E-1,-8.722692E-1,7.5482465E-2,2.2656934E-2,1.5576667E-1,-3.3602867E-2,3.9842755E-1,1.4932287E-1,-4.6298045E-1,-7.3301506E-1,-6.689928E-2,6.7067355E-1,-2.3322201E-1,-9.375628E-1,1.4745036E-1,-2.4363296E-1,4.129226E-1,1.7611134E-1,-4.0014473E-1,-9.3932366E-1,-2.650641E-1,2.108441E-1,-6.67465E-1,4.063893E-1,4.294237E-2,-1.0687745E0,-3.526608E-1,1.11801766E-1,-2.036009E-1,-4.949614E-1,-9.0839654E-2,-2.7844438E-1,1.1577308E-1,3.9371547E-1,-3.3321463E-2,-4.7723386E-1,-1.16632365E-1,-5.8003426E-1,-3.4478564E-2,3.870497E-1,-3.552515E-1],"categories":[],"categories_nodes":[],"categories_segments":[],"categories_sizes":[],"default_left":[0,0,0,0,0,0,0,0,0,0,0,0,0,0,0,0,0,0,0,0,0,0,0,0,0,0,0,0,0,0,0,0,0,0,0,0,0,0,0,0,0,0,0,0,0,0,0,0,0,0,0,0,0,0,0,0,0,0,0,0,0,0,0,0,0,0,0,0,0,0,0,0,0,0,0,0,0,0,0,0,0,0,0,0,0,0,0,0,0,0,0,0,0,0,0,0,0,0,0,0,0,0,0],"id":4,"left_children":[1,3,5,7,9,11,-1,13,15,17,19,-1,-1,21,23,-1,25,-1,-1,-1,-1,27,-1,29,31,-1,-1,33,35,37,39,41,43,45,-1,47,-1,49,51,-1,-1,53,55,57,-1,59,61,-1,-1,63,65,67,-1,-1,-1,-1,-1,-1,-1,69,-1,71,73,75,77,-1,-1,-1,-1,79,-1,81,83,85,-1,87,-1,-1,-1,89,-1,91,93,95,97,-1,-1,99,101,-1,-1,-1,-1,-1,-1,-1,-1,-1,-1,-1,-1,-1,-1],"loss_changes":[5.7656903E0,6.141738E0,1.232832E0,6.433877E0,5.6067276E-1,5.224242E-1,0E0,5.6564894E0,4.509902E-1,1.1579208E0,3.0493212E-1,0E0,0E0,6.1111417E0,4.078657E0,0E0,6.3535213E-1,0E0,0E0,0E0,0E0,5.1185E0,0E0,3.6794071E0,4.880693E0,0E0,0E0,5.2794623E0,2.7652073E-1,4.211706E0,1.2747741E0,2.2597551E0,4.881792E-1,5.570981E0,0E0,9.014082E-2,0E0,2.6126518E0,2.0869915E0,0E0,0E0,5.2006245E-2,3.2144117E-1,8.794892E-1,0E0,5.9285855E0,3.4840806E0,0E0,0E0,2.5756226E0,3.1232893E-2,8.7818205E-1,0E0,0E0,0E0,0E0,0E0,0E0,0E0,4.172999E0,0E0,4.1135993E0,1.7242191E0,2.9195461E0,2.0745502E0,0E0,0E0,0E0,0E0,4.0772657E0,0E0,1.626276E0,3.3364704E0,3.583057E-1,0E0,2.1621227E0,0E0,0E0,0E0,4.2828264E0,0E0,3.2188225E-1,1.192173E0,2.2700467E0,5.622585E-1,0E0,0E0,2.3415356E0,3.595911E0,0E0,0E0,0E0,0E0,0E0,0E0,0E0,0E0,0E0,0E0,0E0,0E0,0E0,0E0],"parents":[2147483647,0,0,1,1,2,2,3,3,4,4,5,5,7,7,8,8,9,9,10,10,13,13,14,14,16,16,21,21,23,23,24,24,27,27,28,28,29,29,30,30,31,31,32,32,33,33,35,35,37,37,38,38,41,41,42,42,43,43,45,45,46,46,49,49,50,50,51,51,59,59,61,61,62,62,63,63,64,64,69,69,71,71,72,72,73,73,75,75,79,79,81,81,82,82,83,83,84,84,87,87,88,88],"right_children":[2,4,6,8,10,12,-1,14,16,18,20,-1,-1,22,24,-1,26,-1,-1,-1,-1,28,-1,30,32,-1,-1,34,36,38,40,42,44,46,-1,48,-1,50,52,-1,-1,54,56,58,-1,60,62,-1,-1,64,66,68,-1,-1,-1,-1,-1,-1,-1,70,-1,72,74,76,78,-1,-1,-1,-1,80,-1,82,84,86,-1,88,-1,-1,-1,90,-1,92,94,96,98,-1,-1,100,102,-1,-1,-1,-1,-1,-1,-1,-1,-1,-1,-1,-1,-1,-1],"split_conditions":[1E0,1E0,1E0,1E0,1E0,1E0,-5.2619103E-2,1E0,1E0,1E0,1E0,4.845078E-1,4.6812814E-2,1E0,1E0,8.0709845E-2,1E0,-1.774417E-1,2.944458E-1,4.9172682E-1,8.607762E-2,1E0,-6.033829E-1,1E0,1E0,4.9473897E-1,4.933717E-2,1E0,1E0,1E0,1E0,1E0,1E0,1E0,-4.759731E-1,1E0,-7.394909E-2,1E0,1E0,-8.0843605E-2,4.8804095E-1,1E0,1E0,1E0,4.6364117E-1,1E0,1E0,-4.9225956E-1,-1.5252993E-1,1E0,1E0,1E0,-2.7251583E-1,-1.3636248E-1,-4.781465E-1,-8.593904E-2,1.6858469E-1,2.789319E-1,-1.4573407E-1,1E0,-7.575306E-1,1E0,1E0,1E0,1E0,2.2656934E-2,1.5576667E-1,-3.3602867E-2,3.9842755E-1,1E0,-4.6298045E-1,1E0,1E0,1E0,-2.3322201E-1,1E0,1.4745036E-1,-2.4363296E-1,4.129226E-1,1E0,-4.0014473E-1,1E0,1E0,1E0,1E0,4.063893E-1,4.294237E-2,1E0,1E0,1.11801766E-1,-2.036009E-1,-4.949614E-1,-9.0839654E-2,-2.7844438E-1,1.1577308E-1,3.9371547E-1,-3.3321463E-2,-4.7723386E-1,-1.16632365E-1,-5.8003426E-1,-3.4478564E-2,3.870497E-1,-3.552515E-1],"split_indices":[252,609,1911,188,1765,1710,0,1028,1480,460,1145,0,0,1839,486,0,1034,0,0,0,0,392,0,119,1964,0,0,92,797,504,184,56,1097,1765,0,383,0,1734,1088,0,0,1057,751,1224,0,1786,1911,0,0,880,80,1160,0,0,0,0,0,0,0,1333,0,1589,77,831,992,0,0,0,0,1721,0,1825,1114,718,0,158,0,0,0,507,0,291,29,230,1800,0,0,1416,1034,0,0,0,0,0,0,0,0,0,0,0,0,0,0],"split_type":[0,0,0,0,0,0,0,0,0,0,0,0,0,0,0,0,0,0,0,0,0,0,0,0,0,0,0,0,0,0,0,0,0,0,0,0,0,0,0,0,0,0,0,0,0,0,0,0,0,0,0,0,0,0,0,0,0,0,0,0,0,0,0,0,0,0,0,0,0,0,0,0,0,0,0,0,0,0,0,0,0,0,0,0,0,0,0,0,0,0,0,0,0,0,0,0,0,0,0,0,0,0,0],"sum_hessian":[3.013802E2,2.932418E2,8.138416E0,2.841639E2,9.077866E0,6.8169956E0,1.3214204E0,2.7646884E2,7.695074E0,3.81269E0,5.265176E0,5.805161E0,1.0118345E0,2.150193E2,6.144954E1,1.7383649E0,5.9567094E0,1.2159343E0,2.5967557E0,4.222352E0,1.0428239E0,2.1141339E2,3.6059191E0,4.7353962E1,1.4095577E1,4.749392E0,1.2073174E0,2.04223E2,7.1903696E0,4.4832848E1,2.5211136E0,7.7337046E0,6.3618727E0,1.9942926E2,4.793757E0,6.1711626E0,1.0192072E0,3.882881E1,6.004034E0,1.3706067E0,1.1505071E0,4.3554287E0,3.3782759E0,3.523252E0,2.8386207E0,1.5768689E2,4.1742367E1,4.7425604E0,1.4286021E0,3.6641716E1,2.1870968E0,4.0528364E0,1.9511976E0,1.1832888E0,3.1721401E0,1.2680666E0,2.1102092E0,2.3920481E0,1.1312039E0,1.5644733E2,1.2395617E0,3.658294E1,5.1594267E0,3.368178E1,2.959936E0,1.0566149E0,1.1304818E0,1.5531629E0,2.4996736E0,1.5373795E2,2.709381E0,1.8424192E1,1.8158747E1,4.1516695E0,1.0077573E0,3.208368E1,1.5980989E0,1.8917838E0,1.0681521E0,1.503122E2,3.4257474E0,1.2087698E1,6.3364944E0,1.2860214E1,5.2985334E0,3.0263839E0,1.1252856E0,2.552938E1,6.5542994E0,1.395657E2,1.0746494E1,1.1043575E1,1.0441233E0,3.914704E0,2.4217901E0,3.5811872E0,9.279026E0,2.4685938E0,2.8299396E0,2.324645E1,2.282931E0,1.2994372E0,5.2548623E0],"tree_param":{"num_deleted":"0","num_feature":"2048","num_nodes":"103","size_leaf_vector":"1"}},{"base_weights":[-4.9523816E-2,-3.2076705E-2,-5.0626326E-1,-1.3720973E-2,-8.1222796E-1,1.7750854E-2,-5.08741E-1,-5.5077416E-1,-6.461772E-2,3.3246413E-2,-9.193522E-1,-7.417326E-1,3.459776E-1,-1.0259067E-2,4.7111416E-1,-6.25029E-1,-2.8310562E-2,-1.2642494E0,1.1361741E-1,3.1166945E-2,-8.816953E-1,5.891947E-1,-3.6284906E-1,-6.8228334E-1,-2.1724984E-1,4.4640103E-1,-3.1892708E-1,5.0825957E-2,-5.823217E-1,-5.38571E-1,9.323979E-2,7.846288E-1,-3.6751577E-1,2.6150811E-2,7.79697E-1,8.7639296E-1,2.5288358E-1,2.3309195E-2,-3.940196E-1,5.8274604E-2,-6.0641384E-1,5.3332436E-1,-2.198918E-1,4.8196387E-1,9.061972E-2,3.3081704E-1,-8.717522E-2,-1.00682884E-1,1.1676775E-1,8.158999E-2,-7.476451E-1,-9.694502E-1,2.4228029E-1,9.8886326E-2,-9.967063E-1,-5.0194275E-1,-9.431231E-3,-1.1704866E0,6.529221E-2,5.959791E-2,-4.042859E-1,-6.218198E-1,-1.47766E-1,-3.3272663E-1,-7.471572E-1],"categories":[],"categories_nodes":[],"categories_segments":[],"categories_sizes":[],"default_left":[0,0,0,0,0,0,0,0,0,0,0,0,0,0,0,0,0,0,0,0,0,0,0,0,0,0,0,0,0,0,0,0,0,0,0,0,0,0,0,0,0,0,0,0,0,0,0,0,0,0,0,0,0,0,0,0,0,0,0,0,0,0,0,0,0],"id":5,"left_children":[1,3,-1,5,7,9,11,-1,-1,13,15,17,-1,19,21,-1,-1,23,25,27,29,31,-1,-1,-1,-1,-1,33,-1,-1,-1,35,37,39,41,43,45,47,-1,49,51,-1,-1,-1,-1,-1,-1,-1,-1,53,55,57,-1,59,61,-1,-1,63,-1,-1,-1,-1,-1,-1,-1],"loss_changes":[4.6266084E0,3.9039836E0,0E0,4.186286E0,1.0961366E0,3.705363E0,5.0065165E0,0E0,0E0,4.765672E0,1.1136794E0,6.371251E0,0E0,8.269467E0,3.6225905E0,0E0,0E0,1.3396645E-1,4.2007513E0,5.20553E0,2.3710203E0,4.2391095E0,0E0,0E0,0E0,0E0,0E0,3.870336E0,0E0,0E0,0E0,6.500864E-1,7.1936053E-1,4.308359E0,2.9358206E0,7.277031E-1,8.1996167E-1,1.9731721E-1,0E0,3.8384583E0,4.52958E0,0E0,0E0,0E0,0E0,0E0,0E0,0E0,0E0,3.7593217E0,1.0549812E0,1.9274125E0,0E0,3.6735034E0,1.8461704E-1,0E0,0E0,1.3157845E-1,0E0,0E0,0E0,0E0,0E0,0E0,0E0],"parents":[2147483647,0,0,1,1,3,3,4,4,5,5,6,6,9,9,10,10,11,11,13,13,14,14,17,17,18,18,19,19,20,20,21,21,27,27,31,31,32,32,33,33,34,34,35,35,36,36,37,37,39,39,40,40,49,49,50,50,51,51,53,53,54,54,57,57],"right_children":[2,4,-1,6,8,10,12,-1,-1,14,16,18,-1,20,22,-1,-1,24,26,28,30,32,-1,-1,-1,-1,-1,34,-1,-1,-1,36,38,40,42,44,46,48,-1,50,52,-1,-1,-1,-1,-1,-1,-1,-1,54,56,58,-1,60,62,-1,-1,64,-1,-1,-1,-1,-1,-1,-1],"split_conditions":[1E0,1E0,-5.0626326E-1,1E0,1E0,1E0,1E0,-5.5077416E-1,-6.461772E-2,1E0,1E0,1E0,3.459776E-1,1E0,1E0,-6.25029E-1,-2.8310562E-2,1E0,1E0,1E0,1E0,1E0,-3.6284906E-1,-6.8228334E-1,-2.1724984E-1,4.4640103E-1,-3.1892708E-1,1E0,-5.823217E-1,-5.38571E-1,9.323979E-2,1E0,1E0,1E0,1E0,1E0,1E0,1E0,-3.940196E-1,1E0,1E0,5.3332436E-1,-2.198918E-1,4.8196387E-1,9.061972E-2,3.3081704E-1,-8.717522E-2,-1.00682884E-1,1.1676775E-1,1E0,1E0,1E0,2.4228029E-1,1E0,1E0,-5.0194275E-1,-9.431231E-3,1E0,6.529221E-2,5.959791E-2,-4.042859E-1,-6.218198E-1,-1.47766E-1,-3.3272663E-1,-7.471572E-1],"split_indices":[1312,1603,0,1476,216,1089,1826,0,0,1840,1357,1255,0,193,389,0,0,654,1928,34,772,1998,0,0,0,0,0,1747,0,0,0,695,1057,1570,1325,1243,650,327,0,1631,1453,0,0,0,0,0,0,0,0,1275,1163,1972,0,590,875,0,0,216,0,0,0,0,0,0,0],"split_type":[0,0,0,0,0,0,0,0,0,0,0,0,0,0,0,0,0,0,0,0,0,0,0,0,0,0,0,0,0,0,0,0,0,0,0,0,0,0,0,0,0,0,0,0,0,0,0,0,0,0,0,0,0,0,0,0,0,0,0,0,0,0,0,0,0],"sum_hessian":[2.7629996E2,2.723981E2,3.9018376E0,2.6713052E2,5.267574E0,2.5206892E2,1.5061612E1,3.269686E0,1.9978878E0,2.4891745E2,3.1514773E0,1.2934047E1,2.1275656E0,2.2730913E2,2.1608316E1,1.9536433E0,1.197834E0,7.7324142E0,5.2016325E0,2.1791425E2,9.394892E0,2.0129942E1,1.478375E0,6.323364E0,1.4090506E0,2.461394E0,2.7402382E0,2.153317E2,2.582537E0,7.93467E0,1.4602216E0,1.686473E1,3.2652106E0,2.0928255E2,6.049157E0,1.3829932E1,3.0347989E0,2.181938E0,1.0832727E0,2.000321E2,9.250438E0,4.9983406E0,1.0508165E0,1.1939812E1,1.89012E0,1.2705607E0,1.764238E0,1.0750974E0,1.1068404E0,1.9528136E2,4.750758E0,7.024374E0,2.226064E0,1.9309236E2,2.1889913E0,3.2356267E0,1.5151312E0,5.884846E0,1.1395279E0,1.8971506E2,3.3772957E0,1.0467157E0,1.1422756E0,3.4926937E0,2.3921525E0],"tree_param":{"num_deleted":"0","num_feature":"2048","num_nodes":"65","size_leaf_vector":"1"}},{"base_weights":[-4.8505567E-2,-6.6239245E-2,6.006132E-1,-2.1072527E-2,-3.9048162E-1,7.490019E-1,-1.5308922E-2,-5.756388E-2,4.6843413E-1,-5.580539E-1,4.2898625E-2,4.4052592E-1,5.306454E-2,-3.3722185E-2,-7.902362E-1,5.6356573E-1,-1.2993422E-1,-6.711506E-1,3.651853E-1,-3.864656E-1,5.5510116E-1,-1.2721344E-2,-7.542804E-1,-5.0550205E-1,6.2727086E-2,6.789117E-1,-8.510753E-2,-7.6132065E-1,9.534938E-2,2.522467E-1,2.4827536E-2,-4.985637E-2,-3.272441E-1,3.4046048E-1,5.1610738E-2,9.104323E-3,-6.431918E-1,-4.838874E-1,-2.956966E-2,7.5821453E-1,-4.0330935E-2,-8.224457E-1,7.7185504E-2,-2.618832E-1,2.0281318E-1,3.5556216E-2,-5.403092E-1,-5.010181E-1,8.6112715E-2,8.4112626E-1,5.5374254E-2,-1.0063007E0,-5.171299E-1,4.8812296E-2,-4.997609E-1,-7.902649E-1,2.8451142E-1,9.1652954E-1,9.4691925E-2,-5.7501996E-1,-1.7075638E-1,-3.6185408E-1,1.00859806E-1,2.4272446E-2,3.7664565E-1,-5.805434E-1,7.58287E-2,5.1101124E-1,1.4473824E-1,-2.2443311E-1,9.245412E-2,-1.5165327E-1,-5.178212E-1,1.842034E-1,-1.9406109E-1,-2.5806973E-2,-2.713309E-1,1.18216634E-1,-3.4081373E-1,-4.3279323E-1,9.594454E-3],"categories":[],"categories_nodes":[],"categories_segments":[],"categories_sizes":[],"default_left":[0,0,0,0,0,0,0,0,0,0,0,0,0,0,0,0,0,0,0,0,0,0,0,0,0,0,0,0,0,0,0,0,0,0,0,0,0,0,0,0,0,0,0,0,0,0,0,0,0,0,0,0,0,0,0,0,0,0,0,0,0,0,0,0,0,0,0,0,0,0,0,0,0,0,0,0,0,0,0,0,0],"id":6,"left_children":[1,3,5,7,9,11,-1,13,15,17,19,-1,-1,21,23,25,-1,27,29,31,33,35,37,-1,-1,39,-1,41,-1,-1,-1,43,-1,-1,-1,45,47,-1,-1,49,-1,51,-1,-1,-1,53,55,-1,-1,57,-1,59,61,63,-1,65,-1,67,-1,-1,-1,-1,-1,69,-1,-1,-1,-1,-1,71,73,75,-1,77,79,-1,-1,-1,-1,-1,-1],"loss_changes":[3.063479E0,3.7494955E0,6.86532E-1,4.0688214E0,2.2981386E0,3.967793E-1,0E0,3.6672642E0,1.2416494E0,2.6105824E0,2.339128E0,0E0,0E0,3.1053298E0,1.4650621E0,1.3256054E0,0E0,1.7409925E0,1.12089455E-1,4.9468857E-1,2.0352101E-1,2.7721639E0,8.053727E-1,0E0,0E0,8.174262E-1,0E0,1.1786718E0,0E0,0E0,0E0,1.0053836E0,0E0,0E0,0E0,2.8574085E0,2.1448956E0,0E0,0E0,5.2227783E-1,0E0,4.7723866E-1,0E0,0E0,0E0,2.6182053E0,2.9542067E0,0E0,0E0,3.1841087E-1,0E0,5.661917E-1,1.4433999E0,3.1945882E0,0E0,2.897036E0,0E0,2.804861E-1,0E0,0E0,0E0,0E0,0E0,3.0836124E0,0E0,0E0,0E0,0E0,0E0,2.1546311E0,3.7809021E0,1.4233103E0,0E0,5.064402E0,5.0348964E0,0E0,0E0,0E0,0E0,0E0,0E0],"parents":[2147483647,0,0,1,1,2,2,3,3,4,4,5,5,7,7,8,8,9,9,10,10,13,13,14,14,15,15,17,17,18,18,19,19,20,20,21,21,22,22,25,25,27,27,31,31,35,35,36,36,39,39,41,41,45,45,46,46,49,49,51,51,52,52,53,53,55,55,57,57,63,63,69,69,70,70,71,71,73,73,74,74],"right_children":[2,4,6,8,10,12,-1,14,16,18,20,-1,-1,22,24,26,-1,28,30,32,34,36,38,-1,-1,40,-1,42,-1,-1,-1,44,-1,-1,-1,46,48,-1,-1,50,-1,52,-1,-1,-1,54,56,-1,-1,58,-1,60,62,64,-1,66,-1,68,-1,-1,-1,-1,-1,70,-1,-1,-1,-1,-1,72,74,76,-1,78,80,-1,-1,-1,-1,-1,-1],"split_conditions":[1E0,1E0,1E0,1E0,1E0,1E0,-1.5308922E-2,1E0,1E0,1E0,1E0,4.4052592E-1,5.306454E-2,1E0,1E0,1E0,-1.2993422E-1,1E0,1E0,1E0,1E0,1E0,1E0,-5.0550205E-1,6.2727086E-2,1E0,-8.510753E-2,1E0,9.534938E-2,2.522467E-1,2.4827536E-2,1E0,-3.272441E-1,3.4046048E-1,5.1610738E-2,1E0,1E0,-4.838874E-1,-2.956966E-2,1E0,-4.0330935E-2,1E0,7.7185504E-2,-2.618832E-1,2.0281318E-1,1E0,1E0,-5.010181E-1,8.6112715E-2,1E0,5.5374254E-2,1E0,1E0,1E0,-4.997609E-1,1E0,2.8451142E-1,1E0,9.4691925E-2,-5.7501996E-1,-1.7075638E-1,-3.6185408E-1,1.00859806E-1,1E0,3.7664565E-1,-5.805434E-1,7.58287E-2,5.1101124E-1,1.4473824E-1,1E0,1E0,1E0,-5.178212E-1,1E0,1E0,-2.5806973E-2,-2.713309E-1,1.18216634E-1,-3.4081373E-1,-4.3279323E-1,9.594454E-3],"split_indices":[410,283,1911,162,561,1627,0,1279,1781,373,945,0,0,1920,1114,716,0,562,486,1928,1160,1956,843,0,0,1199,0,1147,0,0,0,1039,0,0,0,1405,850,0,0,322,0,750,0,0,0,1020,716,0,0,1028,0,389,1964,129,0,736,0,834,0,0,0,0,0,875,0,0,0,0,0,1171,961,1998,0,2004,184,0,0,0,0,0,0],"split_type":[0,0,0,0,0,0,0,0,0,0,0,0,0,0,0,0,0,0,0,0,0,0,0,0,0,0,0,0,0,0,0,0,0,0,0,0,0,0,0,0,0,0,0,0,0,0,0,0,0,0,0,0,0,0,0,0,0,0,0,0,0,0,0,0,0,0,0,0,0,0,0,0,0,0,0,0,0,0,0,0,0],"sum_hessian":[2.6167276E2,2.5558813E2,6.084616E0,2.252728E2,3.031534E1,4.7754397E0,1.3091763E0,2.1046559E2,1.4807217E1,2.1654613E1,8.660725E0,3.6543279E0,1.121112E0,2.0484578E2,5.6198063E0,1.3296595E1,1.5106217E0,1.9534668E1,2.1199467E0,4.8448844E0,3.8158402E0,2.0003342E2,4.8123665E0,4.444236E0,1.1755702E0,1.1554995E1,1.7416003E0,1.7790047E1,1.7446206E0,1.0551968E0,1.06475E0,2.6733913E0,2.171493E0,2.5882998E0,1.2275405E0,1.9429292E2,5.7404857E0,3.3815978E0,1.4307686E0,1.0464268E1,1.0907266E0,1.6772282E1,1.0177665E0,1.2367214E0,1.4366698E0,1.8626057E2,8.032361E0,3.8273175E0,1.9131681E0,9.011224E0,1.4530438E0,9.035407E0,7.736874E0,1.8484612E2,1.4144528E0,6.790043E0,1.2423178E0,7.7126355E0,1.2985886E0,6.828932E0,2.2064748E0,6.0045633E0,1.7323107E0,1.7962355E2,5.2225595E0,4.705051E0,2.084992E0,6.062776E0,1.6498595E0,3.8154846E1,1.414687E2,3.6102737E1,2.0521073E0,1.0742549E2,3.404322E1,2.9649046E1,6.453691E0,1.01999466E2,5.426026E0,7.4678617E0,2.6575357E1],"tree_param":{"num_deleted":"0","num_feature":"2048","num_nodes":"81","size_leaf_vector":"1"}},{"base_weights":[-3.9278604E-2,4.0876348E-2,-1.9546284E-1,8.834684E-2,-3.863055E-1,-1.5252562E-1,-4.764985E-1,1.0790114E-1,-4.922922E-1,-8.150241E-1,4.002649E-1,-1.1915754E-1,-5.0986916E-1,1.530628E-1,-2.7934256E-1,-4.580253E-1,-1.206664E0,3.6681142E-1,-1.4079705E-1,-1.6114703E-1,2.94845E-1,1.9085623E-1,-4.316632E-1,-5.3202736E-1,4.0301868E-1,-3.7640753E-1,-3.5668265E-5,-8.0450785E-1,-2.9796258E-1,-2.535861E-1,1.8674599E-1,2.1059531E-1,-4.302815E-1,-1.0088863E0,2.1889026E-1,-8.847758E-1,-3.5304725E-2,-7.888049E-2,3.1350952E-1,1.9011956E-1,-1.3475545E-1,-7.0038795E-1,-1.8474205E-1,4.1350043E-1,-2.567777E-1,2.3558542E-1,-6.585879E-1,-6.08887E-1,-1.4392251E-1,-6.626274E-2,2.3769115E-1,-1.1986306E0,1.2042455E-1,-4.1800293E-1,3.775862E-1,-4.798423E-1,1.2987062E-1,-2.2936802E-1,3.622842E-1,6.283073E-1,-1.5738562E-1,1.4992433E-3,-3.7133312E-1,2.5797427E-1,-6.926899E-1,-6.026681E-1,9.092341E-2,-6.631377E-1,-2.0335354E-1,-4.2021334E-1,1.2057005E-1,3.0257004E-1,-6.5269385E-4,-3.4533674E-1,1.3340548E-1,-2.0777717E-2,9.649269E-1,1.3873078E-2,-1.5161373E-1,1.3890871E-1,-2.7195197E-1,3.1272796E-1,-1.6514811E-1,-4.4490516E-1,-8.9278065E-2,-2.5512752E-1,-4.877918E-1,2.7760476E-1,-2.1965753E-1,-1.9855231E-1,1.6167529E-1,5.950848E-1,3.942604E-2,4.171893E-1,6.313356E-2,-5.509017E-2,-3.9002264E-1,-3.1123626E-1,2.239738E-1,3.8943848E-1,-9.621778E-2,4.5815107E-1,-2.8743434E-1,1.5052448E-1,-5.1397455E-1,-4.1923323E-1,1.4922343E-1,-2.0637555E-1,-6.556797E-1,5.694378E-1,-1.3969032E-1,2.723123E-1,-5.5102278E-2,-4.9813446E-2,2.754115E-1,-3.978528E-3,-3.4992954E-1,2.2890286E-1,-1.4243229E-1,-4.586534E-2,-2.468248E-1,7.1661826E-3,-4.256631E-1,3.608761E-1,2.2358086E-2,-4.0324372E-1,2.9349932E-1],"categories":[],"categories_nodes":[],"categories_segments":[],"categories_sizes":[],"default_left":[0,0,0,0,0,0,0,0,0,0,0,0,0,0,0,0,0,0,0,0,0,0,0,0,0,0,0,0,0,0,0,0,0,0,0,0,0,0,0,0,0,0,0,0,0,0,0,0,0,0,0,0,0,0,0,0,0,0,0,0,0,0,0,0,0,0,0,0,0,0,0,0,0,0,0,0,0,0,0,0,0,0,0,0,0,0,0,0,0,0,0,0,0,0,0,0,0,0,0,0,0,0,0,0,0,0,0,0,0,0,0,0,0,0,0,0,0,0,0,0,0,0,0,0,0,0,0],"id":7,"left_children":[1,3,5,7,9,11,-1,13,-1,15,17,19,-1,21,23,25,27,-1,-1,29,-1,31,33,35,37,-1,39,-1,-1,41,43,45,-1,47,49,51,53,-1,-1,-1,-1,55,57,59,61,63,65,-1,-1,-1,-1,67,-1,69,71,-1,-1,73,-1,75,77,79,-1,81,83,-1,-1,-1,-1,-1,-1,-1,-1,85,87,89,91,-1,-1,-1,-1,93,95,-1,-1,97,-1,99,-1,-1,-1,-1,-1,101,103,105,-1,107,-1,109,-1,111,-1,113,-1,115,117,119,121,123,125,-1,-1,-1,-1,-1,-1,-1,-1,-1,-1,-1,-1,-1,-1,-1,-1],"loss_changes":[3.1074233E0,3.368719E0,2.591419E0,3.2282825E0,5.9347887E0,2.2171206E0,0E0,2.614369E0,0E0,9.9842453E-1,1.6926669E0,2.4450626E0,0E0,3.006796E0,2.9234858E0,1.0011425E0,1.9080782E-1,0E0,0E0,2.4697323E0,0E0,2.7753382E0,3.3528545E0,2.053316E0,7.037437E-1,0E0,5.0253594E-1,0E0,0E0,1.714227E0,1.7544295E0,2.837541E0,0E0,3.4195423E-1,4.905073E-1,2.7316656E0,1.1030363E0,0E0,0E0,0E0,0E0,2.152266E0,2.3287377E0,1.4757384E0,7.743148E-1,2.6888294E0,1.9261668E0,0E0,0E0,0E0,0E0,2.4110794E-2,0E0,1.1991943E0,2.9417422E-1,0E0,0E0,2.2151725E0,0E0,1.8463073E0,1.1288457E-1,9.077752E-1,0E0,2.8007565E0,1.5689135E-1,0E0,0E0,0E0,0E0,0E0,0E0,0E0,0E0,1.9882021E0,1.2129796E0,6.2483627E-1,1.0088525E0,0E0,0E0,0E0,0E0,2.722063E0,9.214134E-1,0E0,0E0,1.5507097E0,0E0,6.6191757E-1,0E0,0E0,0E0,0E0,0E0,3.2758665E0,3.2325826E0,1.0418779E0,0E0,1.0826533E0,0E0,9.7015727E-1,0E0,3.5863485E0,0E0,3.134819E0,0E0,5.7075757E-1,1.3586801E0,8.541806E-1,9.836421E-1,5.411215E-1,2.0126338E0,0E0,0E0,0E0,0E0,0E0,0E0,0E0,0E0,0E0,0E0,0E0,0E0,0E0,0E0,0E0,0E0],"parents":[2147483647,0,0,1,1,2,2,3,3,4,4,5,5,7,7,9,9,10,10,11,11,13,13,14,14,15,15,16,16,19,19,21,21,22,22,23,23,24,24,26,26,29,29,30,30,31,31,33,33,34,34,35,35,36,36,41,41,42,42,43,43,44,44,45,45,46,46,51,51,53,53,54,54,57,57,59,59,60,60,61,61,63,63,64,64,73,73,74,74,75,75,76,76,81,81,82,82,85,85,87,87,93,93,94,94,95,95,97,97,99,99,101,101,103,103,105,105,106,106,107,107,108,108,109,109,110,110],"right_children":[2,4,6,8,10,12,-1,14,-1,16,18,20,-1,22,24,26,28,-1,-1,30,-1,32,34,36,38,-1,40,-1,-1,42,44,46,-1,48,50,52,54,-1,-1,-1,-1,56,58,60,62,64,66,-1,-1,-1,-1,68,-1,70,72,-1,-1,74,-1,76,78,80,-1,82,84,-1,-1,-1,-1,-1,-1,-1,-1,86,88,90,92,-1,-1,-1,-1,94,96,-1,-1,98,-1,100,-1,-1,-1,-1,-1,102,104,106,-1,108,-1,110,-1,112,-1,114,-1,116,118,120,122,124,126,-1,-1,-1,-1,-1,-1,-1,-1,-1,-1,-1,-1,-1,-1,-1,-1],"split_conditions":[1E0,1E0,1E0,1E0,1E0,1E0,-4.764985E-1,1E0,-4.922922E-1,1E0,1E0,1E0,-5.0986916E-1,1E0,1E0,1E0,1E0,3.6681142E-1,-1.4079705E-1,1E0,2.94845E-1,1E0,1E0,1E0,1E0,-3.7640753E-1,1E0,-8.0450785E-1,-2.9796258E-1,1E0,1E0,1E0,-4.302815E-1,1E0,1E0,1E0,1E0,-7.888049E-2,3.1350952E-1,1.9011956E-1,-1.3475545E-1,1E0,1E0,1E0,1E0,1E0,1E0,-6.08887E-1,-1.4392251E-1,-6.626274E-2,2.3769115E-1,1E0,1.2042455E-1,1E0,1E0,-4.798423E-1,1.2987062E-1,1E0,3.622842E-1,1E0,1E0,1E0,-3.7133312E-1,1E0,1E0,-6.026681E-1,9.092341E-2,-6.631377E-1,-2.0335354E-1,-4.2021334E-1,1.2057005E-1,3.0257004E-1,-6.5269385E-4,1E0,1E0,1E0,1E0,1.3873078E-2,-1.5161373E-1,1.3890871E-1,-2.7195197E-1,1E0,1E0,-4.4490516E-1,-8.9278065E-2,1E0,-4.877918E-1,1E0,-2.1965753E-1,-1.9855231E-1,1.6167529E-1,5.950848E-1,3.942604E-2,1E0,1E0,1E0,-3.9002264E-1,1E0,2.239738E-1,1E0,-9.621778E-2,1E0,-2.8743434E-1,1E0,-5.1397455E-1,1E0,1E0,1E0,1E0,1E0,1E0,2.723123E-1,-5.5102278E-2,-4.9813446E-2,2.754115E-1,-3.978528E-3,-3.4992954E-1,2.2890286E-1,-1.4243229E-1,-4.586534E-2,-2.468248E-1,7.1661826E-3,-4.256631E-1,3.608761E-1,2.2358086E-2,-4.0324372E-1,2.9349932E-1],"split_indices":[1088,407,1260,1554,1964,993,0,1410,0,561,45,1249,0,1693,1045,941,184,0,0,739,0,812,1795,1665,322,0,695,0,0,875,1634,745,0,45,1971,656,1855,0,0,0,0,191,178,1405,378,888,569,0,0,0,0,1971,0,223,203,0,0,699,0,1057,719,191,0,464,1683,0,0,0,0,0,0,0,0,1236,1754,184,1791,0,0,0,0,1163,63,0,0,1246,0,1476,0,0,0,0,0,978,102,1917,0,881,0,1998,0,165,0,623,0,378,1261,1039,80,394,1722,0,0,0,0,0,0,0,0,0,0,0,0,0,0,0,0],"split_type":[0,0,0,0,0,0,0,0,0,0,0,0,0,0,0,0,0,0,0,0,0,0,0,0,0,0,0,0,0,0,0,0,0,0,0,0,0,0,0,0,0,0,0,0,0,0,0,0,0,0,0,0,0,0,0,0,0,0,0,0,0,0,0,0,0,0,0,0,0,0,0,0,0,0,0,0,0,0,0,0,0,0,0,0,0,0,0,0,0,0,0,0,0,0,0,0,0,0,0,0,0,0,0,0,0,0,0,0,0,0,0,0,0,0,0,0,0,0,0,0,0,0,0,0,0,0,0],"sum_hessian":[2.4657953E2,1.6343944E2,8.31401E1,1.4780754E2,1.5631893E1,7.9817375E1,3.3227234E0,1.4604529E2,1.7622592E0,1.0094003E1,5.5378904E0,7.795526E1,1.8621117E0,1.3133347E2,1.4711818E1,6.415484E0,3.678519E0,3.6684732E0,1.869417E0,7.432518E1,3.6300833E0,1.2399286E2,7.3406067E0,1.0896904E1,3.814913E0,3.51152E0,2.9039643E0,1.2322072E0,2.4463117E0,5.8936237E1,1.5388941E1,1.2249291E2,1.4999478E0,3.597661E0,3.7429457E0,5.9150763E0,4.9818277E0,1.1732986E0,2.6416144E0,1.0339092E0,1.8700551E0,6.643836E0,5.22924E1,1.022767E1,5.161271E0,1.197781E2,2.714813E0,2.2553656E0,1.3422953E0,1.783169E0,1.9597768E0,4.574675E0,1.3404013E0,2.579019E0,2.402809E0,5.231467E0,1.4123696E0,5.0558895E1,1.7335082E0,7.3583617E0,2.8693082E0,4.020869E0,1.1404026E0,1.1766232E2,2.1157765E0,1.3817365E0,1.3330765E0,3.358577E0,1.2160981E0,1.4041284E0,1.1748906E0,1.1281402E0,1.2746687E0,3.8348118E1,1.2210774E1,2.833314E0,4.525048E0,1.6211591E0,1.2481492E0,2.9944217E0,1.0264469E0,1.0441192E2,1.3250404E1,1.0012109E0,1.1145655E0,3.4775414E1,3.5727072E0,1.0166377E1,2.0443974E0,1.2798119E0,1.553502E0,3.334273E0,1.1907748E0,7.313265E1,3.1279264E1,1.21629925E1,1.0874121E0,3.272141E1,2.0540023E0,8.350964E0,1.8154135E0,7.07496E1,2.383049E0,2.9757835E1,1.5214305E0,3.9935238E0,8.169469E0,2.6310673E1,6.410737E0,6.17438E0,2.176584E0,6.1442993E1,9.306608E0,1.8775755E1,1.09820795E1,2.0368042E0,1.9567195E0,4.7430882E0,3.4263806E0,1.9748705E1,6.5619683E0,1.6583357E0,4.7524014E0,4.4942956E0,1.6800842E0,1.0778013E0,1.0987827E0],"tree_param":{"num_deleted":"0","num_feature":"2048","num_nodes":"127","size_leaf_vector":"1"}},{"base_weights":[-5.315004E-2,-4.247717E-2,-5.614821E-1,-3.0800186E-2,-7.223952E-1,-4.5220304E-2,5.464568E-1,6.5709148E-3,-5.374954E-1,-3.195423E-2,-7.580032E-1,-4.9712628E-2,3.778281E-1,-2.2874998E-2,-4.7739235E-1,-4.5472637E-1,-7.979799E-2,-6.008866E-3,-4.9890384E-1,1.7053884E-2,-3.9862493E-1,-6.954946E-1,2.311478E-2,6.4240646E-4,6.2721735E-1,-1.8680625E-1,-6.210658E-1,-7.101128E-2,-4.814971E-1,1.6117102E-2,-6.1605084E-1,4.1737086E-1,8.7425755E-3,5.9499852E-2,-6.559967E-1,2.6520193E-2,-4.4368345E-1,-5.196613E-1,7.604303E-2,3.3433485E-1,-3.0182514E-1,-4.0478414E-1,-7.455382E-2,4.519755E-2,-4.993684E-1,6.336349E-1,-1.0667345E-1,4.1107185E-2,-1.301809E-1,-4.294977E-1,-1.6139958E-2,-1.6602032E-2,4.989015E-1],"categories":[],"categories_nodes":[],"categories_segments":[],"categories_sizes":[],"default_left":[0,0,0,0,0,0,0,0,0,0,0,0,0,0,0,0,0,0,0,0,0,0,0,0,0,0,0,0,0,0,0,0,0,0,0,0,0,0,0,0,0,0,0,0,0,0,0,0,0,0,0,0,0],"id":8,"left_children":[1,3,-1,5,7,9,11,-1,-1,13,15,-1,-1,17,-1,-1,-1,19,21,23,25,27,-1,29,31,33,-1,-1,-1,35,37,-1,-1,39,41,43,-1,-1,-1,45,-1,-1,-1,47,49,51,-1,-1,-1,-1,-1,-1,-1],"loss_changes":[2.5505502E0,1.7748251E0,0E0,1.8857503E0,9.937265E-1,2.047048E0,8.216908E-1,0E0,0E0,1.7886765E0,2.1359205E-1,0E0,0E0,1.7232488E0,0E0,0E0,0E0,1.8961983E0,8.1930864E-1,1.9827532E0,1.8437697E0,6.7169523E-1,0E0,1.8599467E0,6.416404E-1,1.2482035E0,0E0,0E0,0E0,1.8101703E0,1.7092359E0,0E0,0E0,1.6194378E0,1.6614568E-1,1.8779328E0,0E0,0E0,0E0,1.1420944E0,0E0,0E0,0E0,2.0950546E0,1.0744815E0,1.0588685E0,0E0,0E0,0E0,0E0,0E0,0E0,0E0],"parents":[2147483647,0,0,1,1,3,3,4,4,5,5,6,6,9,9,10,10,13,13,17,17,18,18,19,19,20,20,21,21,23,23,24,24,25,25,29,29,30,30,33,33,34,34,35,35,39,39,43,43,44,44,45,45],"right_children":[2,4,-1,6,8,10,12,-1,-1,14,16,-1,-1,18,-1,-1,-1,20,22,24,26,28,-1,30,32,34,-1,-1,-1,36,38,-1,-1,40,42,44,-1,-1,-1,46,-1,-1,-1,48,50,52,-1,-1,-1,-1,-1,-1,-1],"split_conditions":[1E0,1E0,-5.614821E-1,1E0,1E0,1E0,1E0,6.5709148E-3,-5.374954E-1,1E0,1E0,-4.9712628E-2,3.778281E-1,1E0,-4.7739235E-1,-4.5472637E-1,-7.979799E-2,1E0,1E0,1E0,1E0,1E0,2.311478E-2,1E0,1E0,1E0,-6.210658E-1,-7.101128E-2,-4.814971E-1,1E0,1E0,4.1737086E-1,8.7425755E-3,1E0,1E0,1E0,-4.4368345E-1,-5.196613E-1,7.604303E-2,1E0,-3.0182514E-1,-4.0478414E-1,-7.455382E-2,1E0,1E0,1E0,-1.0667345E-1,4.1107185E-2,-1.301809E-1,-4.294977E-1,-1.6139958E-2,-1.6602032E-2,4.989015E-1],"split_indices":[413,1089,0,188,1145,1586,1480,0,0,288,1964,0,0,249,0,0,0,14,1070,410,203,1480,0,1235,1911,961,0,0,0,381,197,0,0,1928,1272,74,0,0,0,1236,0,0,0,724,1349,524,0,0,0,0,0,0,0],"split_type":[0,0,0,0,0,0,0,0,0,0,0,0,0,0,0,0,0,0,0,0,0,0,0,0,0,0,0,0,0,0,0,0,0,0,0,0,0,0,0,0,0,0,0,0,0,0,0,0,0,0,0,0,0],"sum_hessian":[2.2655766E2,2.253492E2,1.2084637E0,2.2257202E2,2.7771754E0,2.1804678E2,4.525235E0,1.2118683E0,1.5653071E0,2.1508847E2,2.9583235E0,1.2354968E0,3.2897387E0,2.1400775E2,1.0807192E0,1.9460205E0,1.012303E0,2.0766269E2,6.345054E0,1.9704462E2,1.0618078E1,4.4606066E0,1.8844473E0,1.9285838E2,4.1862307E0,9.46318E0,1.1548991E0,1.9522388E0,2.5083678E0,1.8908748E2,3.7709105E0,2.8479064E0,1.3383243E0,6.7781234E0,2.6850557E0,1.8789462E2,1.1928501E0,2.2036011E0,1.5673093E0,5.1426497E0,1.6354741E0,1.6024365E0,1.0826192E0,1.8233298E2,5.5616474E0,3.2238972E0,1.9187524E0,1.6328308E2,1.9049902E1,2.6682394E0,2.8934083E0,1.4597421E0,1.764155E0],"tree_param":{"num_deleted":"0","num_feature":"2048","num_nodes":"53","size_leaf_vector":"1"}},{"base_weights":[-4.8270907E-2,-3.6638826E-2,-4.0713516E-1,-1.9545881E-2,-4.8324072E-1,-9.301914E-3,-3.823737E-1,-7.667011E-1,3.4093194E-2,-5.408537E-4,-4.4941515E-1,-2.4550896E-2,-4.6263778E-1,-1.4003146E-1,1.2833679E-1,2.1579275E-2,-3.3466163E-1,3.8175635E-2,-5.197846E-1,-5.321139E-1,2.5777498E-1,8.2541816E-2,-1.9850074E-1,-4.1026443E-1,1.4237338E-1,-2.58623E-1,-5.2008986E-1,1.0766757E-1,-6.1156756E-1,-5.4623555E-2,-7.0474094E-1,-4.5554286E-1,1.8057585E-1,2.4918136E-1,2.3423815E-2,-5.0317246E-1,5.6903392E-2,1.3264565E-1,-3.9171234E-1,-8.594194E-1,-1.5649451E-2,-5.78067E-1,2.565555E-2,3.7970805E-1,-2.3807333E-1,5.221425E-2,-6.5557206E-1,3.1119266E-1,-4.016967E-1,-7.848817E-1,1.348411E-1,-5.1901835E-1,-6.059582E-2,-2.4923459E-2,-7.1913E-1,4.4768307E-1,-2.414864E-1,-3.6228874E-1,2.0328222E-1,8.766392E-2,-4.5597985E-1,-4.5619056E-1,1.4834011E-2,5.461658E-1,1.3225753E-2,-9.957603E-1,-1.2339979E-3,1.5707098E-1,-1.2829222E-1,-7.329464E-2,-5.046572E-1,2.6377353E-1,-1.5105481E-1,6.9726676E-2,-2.858344E-1,-3.0175477E-1,7.3234305E-2,7.792315E-2,-1.15718156E-1,-3.4229872E-1,1.318647E-2,1.3872395E-2,3.2936203E-1,-2.0487005E-1,1.0252667E-1,-5.810648E-1,-1.7503919E-1],"categories":[],"categories_nodes":[],"categories_segments":[],"categories_sizes":[],"default_left":[0,0,0,0,0,0,0,0,0,0,0,0,0,0,0,0,0,0,0,0,0,0,0,0,0,0,0,0,0,0,0,0,0,0,0,0,0,0,0,0,0,0,0,0,0,0,0,0,0,0,0,0,0,0,0,0,0,0,0,0,0,0,0,0,0,0,0,0,0,0,0,0,0,0,0,0,0,0,0,0,0,0,0,0,0,0,0],"id":9,"left_children":[1,3,-1,5,7,9,-1,11,13,15,-1,-1,-1,-1,-1,17,19,21,23,25,-1,27,29,-1,-1,31,-1,33,35,37,39,41,-1,43,45,-1,-1,47,49,51,-1,53,-1,55,57,59,61,63,-1,65,67,-1,-1,-1,69,71,73,75,-1,77,79,-1,-1,81,83,85,-1,-1,-1,-1,-1,-1,-1,-1,-1,-1,-1,-1,-1,-1,-1,-1,-1,-1,-1,-1,-1],"loss_changes":[1.945713E0,1.665771E0,0E0,1.6143222E0,1.2062218E0,1.640248E0,0E0,5.5099344E-1,3.38016E-1,1.5554527E0,0E0,0E0,0E0,0E0,0E0,1.7935345E0,2.468123E0,2.0374298E0,1.6709741E0,1.2729449E0,0E0,2.904989E0,2.195979E0,0E0,0E0,1.2073777E0,0E0,1.8772829E0,1.7859533E0,1.6283927E0,6.7157316E-1,4.598223E-1,0E0,3.8325992E0,1.9913965E0,0E0,0E0,3.0579047E0,2.0046048E0,5.882325E-1,0E0,3.8587642E-1,0E0,2.083993E0,1.1919782E0,1.7869503E0,7.5670767E-1,1.0311152E0,0E0,8.881049E-1,4.156695E-1,0E0,0E0,0E0,5.818095E-1,2.7060394E0,7.419483E-1,1.4957201E0,0E0,2.026558E0,7.331333E-1,0E0,0E0,4.641168E-1,6.976976E-1,4.9613E-2,0E0,0E0,0E0,0E0,0E0,0E0,0E0,0E0,0E0,0E0,0E0,0E0,0E0,0E0,0E0,0E0,0E0,0E0,0E0,0E0,0E0],"parents":[2147483647,0,0,1,1,3,3,4,4,5,5,7,7,8,8,9,9,15,15,16,16,17,17,18,18,19,19,21,21,22,22,25,25,27,27,28,28,29,29,30,30,31,31,33,33,34,34,37,37,38,38,39,39,41,41,43,43,44,44,45,45,46,46,47,47,49,49,50,50,54,54,55,55,56,56,57,57,59,59,60,60,63,63,64,64,65,65],"right_children":[2,4,-1,6,8,10,-1,12,14,16,-1,-1,-1,-1,-1,18,20,22,24,26,-1,28,30,-1,-1,32,-1,34,36,38,40,42,-1,44,46,-1,-1,48,50,52,-1,54,-1,56,58,60,62,64,-1,66,68,-1,-1,-1,70,72,74,76,-1,78,80,-1,-1,82,84,86,-1,-1,-1,-1,-1,-1,-1,-1,-1,-1,-1,-1,-1,-1,-1,-1,-1,-1,-1,-1,-1],"split_conditions":[1E0,1E0,-4.0713516E-1,1E0,1E0,1E0,-3.823737E-1,1E0,1E0,1E0,-4.4941515E-1,-2.4550896E-2,-4.6263778E-1,-1.4003146E-1,1.2833679E-1,1E0,1E0,1E0,1E0,1E0,2.5777498E-1,1E0,1E0,-4.1026443E-1,1.4237338E-1,1E0,-5.2008986E-1,1E0,1E0,1E0,1E0,1E0,1.8057585E-1,1E0,1E0,-5.0317246E-1,5.6903392E-2,1E0,1E0,1E0,-1.5649451E-2,1E0,2.565555E-2,1E0,1E0,1E0,1E0,1E0,-4.016967E-1,1E0,1E0,-5.1901835E-1,-6.059582E-2,-2.4923459E-2,1E0,1E0,1E0,1E0,2.0328222E-1,1E0,1E0,-4.5619056E-1,1.4834011E-2,1E0,1E0,1E0,-1.2339979E-3,1.5707098E-1,-1.2829222E-1,-7.329464E-2,-5.046572E-1,2.6377353E-1,-1.5105481E-1,6.9726676E-2,-2.858344E-1,-3.0175477E-1,7.3234305E-2,7.792315E-2,-1.15718156E-1,-3.4229872E-1,1.318647E-2,1.3872395E-2,3.2936203E-1,-2.0487005E-1,1.0252667E-1,-5.810648E-1,-1.7503919E-1],"split_indices":[1627,1077,0,1399,1665,413,0,843,736,1570,0,0,0,0,0,1147,161,294,107,216,0,950,695,0,0,1261,0,1019,231,114,885,680,0,1199,1738,0,0,784,25,1501,0,378,0,980,361,1409,73,1171,0,1791,926,0,0,0,1057,283,784,1160,0,1260,1917,0,0,1019,878,1964,0,0,0,0,0,0,0,0,0,0,0,0,0,0,0,0,0,0,0,0,0],"split_type":[0,0,0,0,0,0,0,0,0,0,0,0,0,0,0,0,0,0,0,0,0,0,0,0,0,0,0,0,0,0,0,0,0,0,0,0,0,0,0,0,0,0,0,0,0,0,0,0,0,0,0,0,0,0,0,0,0,0,0,0,0,0,0,0,0,0,0,0,0,0,0,0,0,0,0,0,0,0,0,0,0,0,0,0,0,0,0],"sum_hessian":[2.2071834E2,2.1844891E2,2.269423E0,2.1140163E2,7.0472803E0,2.0953374E2,1.8678887E0,4.241327E0,2.805954E0,2.08481E2,1.0527436E0,1.0046437E0,3.236683E0,1.0565106E0,1.7494433E0,1.9641309E2,1.2067915E1,1.9147267E2,4.940412E0,1.0097112E1,1.9708033E0,1.6179468E2,2.9677986E1,3.581658E0,1.3587542E0,7.5447965E0,2.552315E0,1.5695792E2,4.8367667E0,2.3972675E1,5.7053103E0,5.926703E0,1.6180935E0,5.7839874E1,9.911804E1,2.8813024E0,1.9554642E0,1.5800967E1,8.171709E0,4.41508E0,1.2902299E0,4.659774E0,1.2669289E0,4.5793377E1,1.2046495E1,9.5971794E1,3.1462462E0,1.3830398E1,1.970569E0,4.397535E0,3.7741742E0,3.227945E0,1.1871351E0,1.2673733E0,3.3924007E0,4.1528397E1,4.2649813E0,1.0467505E1,1.5789899E0,9.048725E1,5.484544E0,2.047444E0,1.0988021E0,7.266862E0,6.563536E0,3.249139E0,1.1483958E0,2.7238827E0,1.0502915E0,1.6473331E0,1.7450675E0,3.7798687E1,3.7297082E0,2.2484896E0,2.0164917E0,6.9744277E0,3.4930782E0,7.497821E1,1.5509043E1,3.4364872E0,2.0480568E0,1.5186683E0,5.7481933E0,1.6935035E0,4.870033E0,1.9474912E0,1.301648E0],"tree_param":{"num_deleted":"0","num_feature":"2048","num_nodes":"87","size_leaf_vector":"1"}},{"base_weights":[-5.4231547E-2,-4.3781266E-2,-3.740069E-1,-3.283953E-2,-7.0053595E-1,1.2842427E-1,-8.011483E-2,-4.6871552E-1,-5.8331925E-2,1.8144192E-1,-5.015173E-1,-6.536768E-2,-5.1424265E-1,2.4349736E-1,-4.8914236E-1,9.702855E-2,-5.1564413E-1,-4.6362247E-2,-6.6574365E-1,3.6875284E-1,-1.4037642E-1,-3.5953876E-1,-2.0928092E-2,-1.8340725E-2,-4.2118376E-1,-4.1709113E-1,-4.474777E-2,-3.048678E-1,4.2305368E-1,-2.805183E-1,3.045984E-1,5.1569906E-3,-4.8995548E-1,-5.940498E-1,2.4802653E-1,2.982289E-1,4.3838027E-1,-6.549227E-2,-2.9315564E-1,1.9476555E-2,-4.817862E-1,-8.731028E-1,2.0039433E-1,-7.322451E-1,-1.7063822E-1,4.322756E-1,-2.9008884E-2,-8.9154266E-2,-3.6283722E-3,3.4358446E-2,-4.0805468E-1,-5.146186E-1,-1.1133952E-1,-8.3743256E-1,-3.1245153E-2,-1.19848706E-1,-8.508376E-3,5.774571E-1,-3.3202622E-2,1.024084E-1,-2.0144723E-1,8.753158E-2,-2.2906959E-1,-1.109877E-1,-4.7177777E-1,7.113474E-1,1.4022195E-1,1.3362153E-1,-1.7075281E-1,2.6227957E-1,-1.3080476E-1,1.1495279E-1,-4.4784185E-1,-3.1131107E-1,2.6013055E-1,3.9640027E-1,4.502374E-3,2.2675869E-1,-1.138625E-1,-2.4531204E-2,-1.2341632E-1,2.230696E-1,-1.2159945E-1,6.60532E-2,-3.3423346E-1,-3.4910807E-1,5.77362E-2,-6.2633697E-3,-2.687909E-1],"categories":[],"categories_nodes":[],"categories_segments":[],"categories_sizes":[],"default_left":[0,0,0,0,0,0,0,0,0,0,0,0,0,0,0,0,0,0,0,0,0,0,0,0,0,0,0,0,0,0,0,0,0,0,0,0,0,0,0,0,0,0,0,0,0,0,0,0,0,0,0,0,0,0,0,0,0,0,0,0,0,0,0,0,0,0,0,0,0,0,0,0,0,0,0,0,0,0,0,0,0,0,0,0,0,0,0,0,0],"id":10,"left_children":[1,3,-1,5,7,9,11,-1,-1,13,15,17,-1,19,21,-1,-1,23,25,27,29,-1,-1,31,33,-1,-1,-1,35,37,-1,39,41,43,-1,45,-1,47,-1,49,-1,51,-1,53,55,57,59,-1,-1,61,-1,-1,-1,63,-1,-1,-1,65,67,69,-1,71,73,-1,-1,75,77,-1,79,81,-1,83,85,87,-1,-1,-1,-1,-1,-1,-1,-1,-1,-1,-1,-1,-1,-1,-1],"loss_changes":[1.486495E0,1.468077E0,0E0,1.5742799E0,3.5415232E-1,1.6570386E0,2.1600838E0,0E0,0E0,1.9494512E0,1.6393707E0,1.7706677E0,0E0,2.0196116E0,3.872441E-1,0E0,0E0,1.6109594E0,3.8831067E-1,1.9121661E0,1.3046603E0,0E0,0E0,1.6031997E0,1.9872426E0,0E0,0E0,0E0,1.4424739E0,6.0451746E-1,0E0,1.9410526E0,2.6930227E0,4.272387E-1,0E0,1.1140354E0,0E0,4.3819062E-2,0E0,1.7383249E0,0E0,2.9027367E-1,0E0,4.274981E-1,3.4389243E-2,1.227262E0,4.458483E-1,0E0,0E0,1.9263003E0,0E0,0E0,0E0,1.6975498E-1,0E0,0E0,0E0,7.011609E-1,2.6035348E-1,4.6958655E-1,0E0,1.7244369E0,1.5875423E0,0E0,0E0,5.7799673E-1,6.1657757E-1,0E0,2.653528E-2,5.9984136E-1,0E0,1.5557953E0,8.9253426E-1,1.4448087E0,0E0,0E0,0E0,0E0,0E0,0E0,0E0,0E0,0E0,0E0,0E0,0E0,0E0,0E0,0E0],"parents":[2147483647,0,0,1,1,3,3,4,4,5,5,6,6,9,9,10,10,11,11,13,13,14,14,17,17,18,18,19,19,20,20,23,23,24,24,28,28,29,29,31,31,32,32,33,33,35,35,37,37,39,39,41,41,43,43,44,44,45,45,46,46,49,49,53,53,57,57,58,58,59,59,61,61,62,62,65,65,66,66,68,68,69,69,71,71,72,72,73,73],"right_children":[2,4,-1,6,8,10,12,-1,-1,14,16,18,-1,20,22,-1,-1,24,26,28,30,-1,-1,32,34,-1,-1,-1,36,38,-1,40,42,44,-1,46,-1,48,-1,50,-1,52,-1,54,56,58,60,-1,-1,62,-1,-1,-1,64,-1,-1,-1,66,68,70,-1,72,74,-1,-1,76,78,-1,80,82,-1,84,86,88,-1,-1,-1,-1,-1,-1,-1,-1,-1,-1,-1,-1,-1,-1,-1],"split_conditions":[1E0,1E0,-3.740069E-1,1E0,1E0,1E0,1E0,-4.6871552E-1,-5.8331925E-2,1E0,1E0,1E0,-5.1424265E-1,1E0,1E0,9.702855E-2,-5.1564413E-1,1E0,1E0,1E0,1E0,-3.5953876E-1,-2.0928092E-2,1E0,1E0,-4.1709113E-1,-4.474777E-2,-3.048678E-1,1E0,1E0,3.045984E-1,1E0,1E0,1E0,2.4802653E-1,1E0,4.3838027E-1,1E0,-2.9315564E-1,1E0,-4.817862E-1,1E0,2.0039433E-1,1E0,1E0,1E0,1E0,-8.9154266E-2,-3.6283722E-3,1E0,-4.0805468E-1,-5.146186E-1,-1.1133952E-1,1E0,-3.1245153E-2,-1.19848706E-1,-8.508376E-3,1E0,1E0,1E0,-2.0144723E-1,1E0,1E0,-1.109877E-1,-4.7177777E-1,1E0,1E0,1.3362153E-1,1E0,1E0,-1.3080476E-1,1E0,1E0,1E0,2.6013055E-1,3.9640027E-1,4.502374E-3,2.2675869E-1,-1.138625E-1,-2.4531204E-2,-1.2341632E-1,2.230696E-1,-1.2159945E-1,6.60532E-2,-3.3423346E-1,-3.4910807E-1,5.77362E-2,-6.2633697E-3,-2.687909E-1],"split_indices":[1333,319,0,935,843,13,1627,0,0,1416,1057,387,0,1726,184,0,0,961,389,1152,896,0,0,1954,1039,0,0,0,922,1928,0,1275,13,1308,0,216,0,878,0,426,0,191,0,1598,80,718,1754,0,0,1039,0,0,0,1057,0,0,0,283,841,1235,0,1617,772,0,0,1090,1928,0,961,695,0,140,573,1088,0,0,0,0,0,0,0,0,0,0,0,0,0,0,0],"split_type":[0,0,0,0,0,0,0,0,0,0,0,0,0,0,0,0,0,0,0,0,0,0,0,0,0,0,0,0,0,0,0,0,0,0,0,0,0,0,0,0,0,0,0,0,0,0,0,0,0,0,0,0,0,0,0,0,0,0,0,0,0,0,0,0,0,0,0,0,0,0,0,0,0,0,0,0,0,0,0,0,0,0,0,0,0,0,0,0,0],"sum_hessian":[2.085445E2,2.0649718E2,2.0473146E0,2.0414604E2,2.3511329E0,4.5890274E1,1.5825577E2,1.2417676E0,1.1093653E0,4.2984547E1,2.9057295E0,1.5688513E2,1.3706359E0,3.9926647E1,3.0578983E0,1.5302501E0,1.3754793E0,1.5311536E2,3.7697787E0,3.013363E1,9.7930155E0,1.6183252E0,1.4395732E0,1.4344072E2,9.674645E0,2.5707371E0,1.1990417E0,1.0465318E0,2.90871E1,8.777683E0,1.0153325E0,1.3757524E2,5.865478E0,8.436935E0,1.2377094E0,2.4110958E1,4.976141E0,5.866605E0,2.9110782E0,1.3653687E2,1.038366E0,4.1151714E0,1.7503067E0,5.8109384E0,2.6259975E0,1.6876741E1,7.2342176E0,1.2953494E0,4.571255E0,1.3508978E2,1.4470851E0,2.8488855E0,1.2662857E0,4.8058105E0,1.0051275E0,1.4250615E0,1.200936E0,1.2681002E1,4.195739E0,5.8900256E0,1.344192E0,1.1295705E2,2.2132738E1,1.1614861E0,3.6443245E0,9.228211E0,3.4527903E0,1.0215434E0,3.1741953E0,4.286811E0,1.603215E0,1.0820043E2,4.756616E0,2.0470573E1,1.6621637E0,8.153793E0,1.0744183E0,1.7392831E0,1.7135073E0,1.8538406E0,1.3203547E0,3.229518E0,1.0572928E0,1.0669562E2,1.5048138E0,3.1272013E0,1.6294147E0,9.276531E0,1.1194042E1],"tree_param":{"num_deleted":"0","num_feature":"2048","num_nodes":"89","size_leaf_vector":"1"}},{"base_weights":[-5.4501776E-2,-4.502991E-2,-3.8520685E-1,-3.5063792E-2,-3.5371074E-1,-2.2555195E-2,-5.551451E-1,-8.904995E-3,-5.4213005E-1,-4.0747744E-1,-3.3573747E-2,4.5103943E-3,-5.6710064E-1,-3.9798677E-1,3.0349713E-2,2.3438787E-2,-4.0810332E-1,-4.7848856E-1,1.8019018E-1,3.4964915E-2,-4.089186E-1,-5.5938226E-1,1.6456671E-1,6.747971E-2,-2.6253113E-1,-7.773795E-1,-2.264717E-2,9.527069E-2,-3.393228E-1,-3.3077817E-2,-5.5220497E-1,-1.1433812E-1,-4.3452585E-1,1.18296966E-1,-5.82078E-1,-5.141236E-1,1.4326991E-1,-1.9612998E-1,2.0278265E-1,-4.9269634E-1,-3.2052547E-2,1.2983958E-1,-3.8122725E-1,-3.828471E-1,-1.2888177E-2,-7.042389E-1,6.860762E-3,3.189549E-1,-1.5314855E-1,9.7810015E-2,-4.4876292E-1,1.422897E-1,-1.24527186E-1,9.139789E-2,-4.1980304E-2,-4.5300275E-1,-1.3787775E-1,6.934062E-3,-1.5825426E-3,2.6960024E-1,-1.8808712E-1,-4.277275E-1,-7.7973967E-3],"categories":[],"categories_nodes":[],"categories_segments":[],"categories_sizes":[],"default_left":[0,0,0,0,0,0,0,0,0,0,0,0,0,0,0,0,0,0,0,0,0,0,0,0,0,0,0,0,0,0,0,0,0,0,0,0,0,0,0,0,0,0,0,0,0,0,0,0,0,0,0,0,0,0,0,0,0,0,0,0,0,0,0],"id":11,"left_children":[1,3,-1,5,-1,7,9,11,13,-1,-1,15,17,-1,-1,19,21,-1,-1,23,-1,25,-1,27,29,31,-1,33,35,37,39,-1,-1,41,43,45,47,49,-1,-1,51,53,-1,-1,-1,55,57,-1,-1,59,61,-1,-1,-1,-1,-1,-1,-1,-1,-1,-1,-1,-1],"loss_changes":[1.31923E0,1.2830673E0,0E0,1.2640752E0,0E0,1.361627E0,5.242444E-1,1.4160097E0,8.004992E-1,0E0,0E0,1.4568897E0,1.9495945E0,0E0,0E0,1.7558752E0,1.096704E0,0E0,0E0,1.7267733E0,0E0,7.671926E-1,0E0,1.8419957E0,1.1523721E0,5.10602E-2,0E0,2.4179764E0,9.556391E-1,8.5852057E-1,1.7081261E0,0E0,0E0,1.5882869E0,5.033215E-1,7.8662467E-1,9.875111E-1,6.8356407E-1,0E0,0E0,3.8295075E-1,1.6621842E0,0E0,0E0,0E0,2.5094938E-1,2.6172667E-4,0E0,0E0,1.2075902E0,8.34279E-1,0E0,0E0,0E0,0E0,0E0,0E0,0E0,0E0,0E0,0E0,0E0,0E0],"parents":[2147483647,0,0,1,1,3,3,5,5,6,6,7,7,8,8,11,11,12,12,15,15,16,16,19,19,21,21,23,23,24,24,25,25,27,27,28,28,29,29,30,30,33,33,34,34,35,35,36,36,37,37,40,40,41,41,45,45,46,46,49,49,50,50],"right_children":[2,4,-1,6,-1,8,10,12,14,-1,-1,16,18,-1,-1,20,22,-1,-1,24,-1,26,-1,28,30,32,-1,34,36,38,40,-1,-1,42,44,46,48,50,-1,-1,52,54,-1,-1,-1,56,58,-1,-1,60,62,-1,-1,-1,-1,-1,-1,-1,-1,-1,-1,-1,-1],"split_conditions":[1E0,1E0,-3.8520685E-1,1E0,-3.5371074E-1,1E0,1E0,1E0,1E0,-4.0747744E-1,-3.3573747E-2,1E0,1E0,-3.9798677E-1,3.0349713E-2,1E0,1E0,-4.7848856E-1,1.8019018E-1,1E0,-4.089186E-1,1E0,1.6456671E-1,1E0,1E0,1E0,-2.264717E-2,1E0,1E0,1E0,1E0,-1.1433812E-1,-4.3452585E-1,1E0,1E0,1E0,1E0,1E0,2.0278265E-1,-4.9269634E-1,1E0,1E0,-3.8122725E-1,-3.828471E-1,-1.2888177E-2,1E0,1E0,3.189549E-1,-1.5314855E-1,1E0,1E0,1.422897E-1,-1.24527186E-1,9.139789E-2,-4.1980304E-2,-4.5300275E-1,-1.3787775E-1,6.934062E-3,-1.5825426E-3,2.6960024E-1,-1.8808712E-1,-4.277275E-1,-7.7973967E-3],"split_indices":[1991,666,0,1603,0,1956,216,350,850,0,0,121,154,0,0,1839,1803,0,0,1410,0,1514,0,14,1160,1480,0,507,841,881,1855,0,0,381,294,74,961,1057,0,0,1028,1417,0,0,0,1810,1798,0,0,1452,1754,0,0,0,0,0,0,0,0,0,0,0,0],"split_type":[0,0,0,0,0,0,0,0,0,0,0,0,0,0,0,0,0,0,0,0,0,0,0,0,0,0,0,0,0,0,0,0,0,0,0,0,0,0,0,0,0,0,0,0,0,0,0,0,0,0,0,0,0,0,0,0,0,0,0,0,0,0,0],"sum_hessian":[1.9866336E2,1.9711829E2,1.5450729E0,1.9523381E2,1.8844857E0,1.9166734E2,3.5664673E0,1.8775189E2,3.915453E0,1.8901528E0,1.6763145E0,1.8431409E2,3.4377913E0,2.5297942E0,1.3856587E0,1.771315E2,7.182601E0,2.3979747E0,1.0398166E0,1.7568294E2,1.4485533E0,6.159859E0,1.0227416E0,1.5907053E2,1.6612417E1,3.9659562E0,2.1939032E0,1.4961526E2,9.455261E0,9.891478E0,6.7209396E0,1.0679923E0,2.8979638E0,1.4549457E2,4.1206937E0,6.8931456E0,2.562116E0,7.614056E0,2.2774212E0,3.1790047E0,3.541935E0,1.4445401E2,1.0405501E0,2.8151178E0,1.3055757E0,4.7925305E0,2.100615E0,1.020433E0,1.5416828E0,3.8025746E0,3.8114817E0,1.313689E0,2.228246E0,1.1589339E2,2.8560629E1,2.500591E0,2.2919397E0,1.0108587E0,1.0897563E0,1.8977413E0,1.9048334E0,1.463012E0,2.3484695E0],"tree_param":{"num_deleted":"0","num_feature":"2048","num_nodes":"63","size_leaf_vector":"1"}},{"base_weights":[-5.5330478E-2,-4.4546448E-2,-6.501143E-1,-3.2999273E-2,-5.769778E-1,-4.2601764E-1,-5.2849174E-2,-2.4740169E-2,-3.6594033E-1,-5.3039354E-1,1.383385E-1,-9.484656E-3,-4.2657796E-1,-5.8836717E-4,-3.4560823E-1,-6.801128E-1,6.409447E-3,9.672133E-3,-2.9368338E-1,-4.091987E-1,-1.0279681E-1,5.366866E-2,-3.98353E-2,-2.2581094E-3,5.799156E-1,7.02864E-3,-3.274048E-1,3.6520705E-2,3.9153147E-1,1.3572109E-1,-4.4341393E-2,2.3627867E-1,-3.1121632E-1,-1.8223584E-2,-4.9059942E-1,3.0333415E-1,-3.639738E-1,-4.653414E-2,-4.247653E-1,-8.4006833E-4,-3.8020754E-1,-4.4268098E-1,1.9168846E-1,-3.0427335E-2,2.0316176E-1,-2.8499082E-1,5.2152015E-2,1.6456851E-1,-3.319854E-1,7.6429816E-3,-3.8000193E-1],"categories":[],"categories_nodes":[],"categories_segments":[],"categories_sizes":[],"default_left":[0,0,0,0,0,0,0,0,0,0,0,0,0,0,0,0,0,0,0,0,0,0,0,0,0,0,0,0,0,0,0,0,0,0,0,0,0,0,0,0,0,0,0,0,0,0,0,0,0,0,0],"id":12,"left_children":[1,3,5,7,9,-1,-1,11,-1,-1,-1,13,15,17,-1,19,21,23,-1,-1,-1,-1,-1,25,27,29,-1,-1,-1,31,33,35,37,39,41,43,45,47,-1,49,-1,-1,-1,-1,-1,-1,-1,-1,-1,-1,-1],"loss_changes":[1.2079635E0,1.1520576E0,2.7936888E-1,1.0641634E0,1.9383942E0,0E0,0E0,1.1382891E0,0E0,0E0,0E0,1.0946157E0,7.5007105E-1,1.0847386E0,0E0,1.1348462E-1,3.8953286E-2,1.2063506E0,0E0,0E0,0E0,0E0,0E0,1.0620644E0,3.1696975E-1,1.1499556E0,0E0,0E0,0E0,2.3032455E0,1.4412699E0,1.7634141E0,1.3202796E0,1.5293226E0,2.699637E0,1.4307709E0,5.014119E-1,1.9479561E0,0E0,1.4423923E0,0E0,0E0,0E0,0E0,0E0,0E0,0E0,0E0,0E0,0E0,0E0],"parents":[2147483647,0,0,1,1,2,2,3,3,4,4,7,7,11,11,12,12,13,13,15,15,16,16,17,17,23,23,24,24,25,25,29,29,30,30,31,31,32,32,33,33,34,34,35,35,36,36,37,37,39,39],"right_children":[2,4,6,8,10,-1,-1,12,-1,-1,-1,14,16,18,-1,20,22,24,-1,-1,-1,-1,-1,26,28,30,-1,-1,-1,32,34,36,38,40,42,44,46,48,-1,50,-1,-1,-1,-1,-1,-1,-1,-1,-1,-1,-1],"split_conditions":[1E0,1E0,1E0,1E0,1E0,-4.2601764E-1,-5.2849174E-2,1E0,-3.6594033E-1,-5.3039354E-1,1.383385E-1,1E0,1E0,1E0,-3.4560823E-1,1E0,1E0,1E0,-2.9368338E-1,-4.091987E-1,-1.0279681E-1,5.366866E-2,-3.98353E-2,1E0,1E0,1E0,-3.274048E-1,3.6520705E-2,3.9153147E-1,1E0,1E0,1E0,1E0,1E0,1E0,1E0,1E0,1E0,-4.247653E-1,1E0,-3.8020754E-1,-4.4268098E-1,1.9168846E-1,-3.0427335E-2,2.0316176E-1,-2.8499082E-1,5.2152015E-2,1.6456851E-1,-3.319854E-1,7.6429816E-3,-3.8000193E-1],"split_indices":[888,1027,1480,1923,586,0,0,1077,0,0,0,36,1665,646,0,1989,80,720,0,0,0,0,0,1324,695,1057,0,0,0,322,1384,84,1422,222,699,875,1734,1152,0,121,0,0,0,0,0,0,0,0,0,0,0],"split_type":[0,0,0,0,0,0,0,0,0,0,0,0,0,0,0,0,0,0,0,0,0,0,0,0,0,0,0,0,0,0,0,0,0,0,0,0,0,0,0,0,0,0,0,0,0,0,0,0,0,0,0],"sum_hessian":[1.918425E2,1.8948189E2,2.3606021E0,1.8649915E2,2.9827466E0,1.3097705E0,1.0508316E0,1.8534422E2,1.1549252E0,1.7489094E0,1.2338371E0,1.7955127E2,5.7929454E0,1.7822636E2,1.3249096E0,3.2936254E0,2.49932E0,1.7613004E2,2.0963216E0,1.9892339E0,1.3043915E0,1.0367707E0,1.4625494E0,1.734963E2,2.6337311E0,1.720372E2,1.4591086E0,1.1425349E0,1.4911963E0,4.8612045E1,1.23425156E2,4.0068314E1,8.543734E0,1.1758423E2,5.840927E0,3.6486935E1,3.5813775E0,6.4558964E0,2.0878372E0,1.1587144E2,1.7127942E0,4.0145745E0,1.8263528E0,8.13373E0,2.8353207E1,2.3363626E0,1.245015E0,4.3040714E0,2.1518252E0,1.1442079E2,1.4506427E0],"tree_param":{"num_deleted":"0","num_feature":"2048","num_nodes":"51","size_leaf_vector":"1"}},{"base_weights":[-5.0177757E-2,-2.9768294E-2,-3.5529062E-1,-1.7710265E-2,-4.159549E-1,-1.9376352E-1,-4.47548E-1,-5.5152844E-3,-3.6953172E-1,1.9389655E-1,-6.4547837E-1,5.229849E-3,-3.891617E-1,4.253053E-1,-1.6311264E-1,-5.2339435E-1,5.6513663E-2,1.9589279E-2,-4.4220644E-1,-2.3172969E-2,5.7359123E-1,6.018871E-2,-1.7135887E-1,-6.715802E-1,1.0279356E-1,3.5715517E-1,5.6487404E-2,9.1931954E-2,-4.509725E-1,-8.930911E-2,-6.447407E-1,-5.323169E-1,1.06254704E-1,1.1375034E-1,-6.044802E-1,-6.5321064E-1,2.2462632E-1,-1.6583231E-1,2.555448E-1,-4.3528712E-1,-3.5358125E-3,1.2778424E-1,-4.0101483E-1,-3.93804E-1,-9.2109896E-2,-8.508973E-1,2.3298712E-2,-2.476987E-1,2.1800368E-1,1.84559E-1,-1.2276668E-1,-5.6909245E-1,-4.237021E-2,-6.3297987E-1,-1.4973989E-1,2.0239624E-1,-4.0461197E-1,-1.9132544E-1,2.2926745E-1,-3.9610142E-1,-5.944051E-2,-5.3095847E-2,-4.6264365E-1,1.0964623E-1,-3.20175E-1,-2.0690648E-1,3.233456E-2,8.057536E-3,-2.3673461E-1,-3.2192707E-1,-1.0606129E-1],"categories":[],"categories_nodes":[],"categories_segments":[],"categories_sizes":[],"default_left":[0,0,0,0,0,0,0,0,0,0,0,0,0,0,0,0,0,0,0,0,0,0,0,0,0,0,0,0,0,0,0,0,0,0,0,0,0,0,0,0,0,0,0,0,0,0,0,0,0,0,0,0,0,0,0,0,0,0,0,0,0,0,0,0,0,0,0,0,0,0,0],"id":13,"left_children":[1,3,5,7,-1,9,-1,11,-1,13,15,17,-1,19,-1,-1,-1,21,23,-1,25,27,29,31,-1,-1,-1,33,35,37,39,-1,-1,41,43,45,-1,47,-1,-1,-1,49,-1,-1,-1,51,-1,53,-1,55,57,-1,-1,59,61,63,-1,65,-1,-1,-1,67,69,-1,-1,-1,-1,-1,-1,-1,-1],"loss_changes":[1.1631827E0,1.7046344E0,8.490238E-1,1.5455145E0,0E0,1.9291409E0,0E0,1.4508737E0,0E0,8.985866E-1,1.6369092E0,1.119117E0,0E0,3.625176E-1,0E0,0E0,0E0,1.3159596E0,9.4291735E-1,0E0,1.610105E-1,2.3070538E0,1.0995023E0,1.6977581E0,0E0,0E0,0E0,2.078926E0,1.8106155E0,1.3046004E0,6.044214E-1,0E0,0E0,1.7619023E0,1.7639196E-1,1.0373933E0,0E0,1.3054696E0,0E0,0E0,0E0,1.8439012E0,0E0,0E0,0E0,1.1527605E0,0E0,7.3672783E-1,0E0,2.0211263E0,1.0542846E0,0E0,0E0,2.4603486E-1,5.4623294E-1,1.6174736E0,0E0,1.3025544E0,0E0,0E0,0E0,4.6007383E-1,5.9744596E-2,0E0,0E0,0E0,0E0,0E0,0E0,0E0,0E0],"parents":[2147483647,0,0,1,1,2,2,3,3,5,5,7,7,9,9,10,10,11,11,13,13,17,17,18,18,20,20,21,21,22,22,23,23,27,27,28,28,29,29,30,30,33,33,34,34,35,35,37,37,41,41,45,45,47,47,49,49,50,50,53,53,54,54,55,55,57,57,61,61,62,62],"right_children":[2,4,6,8,-1,10,-1,12,-1,14,16,18,-1,20,-1,-1,-1,22,24,-1,26,28,30,32,-1,-1,-1,34,36,38,40,-1,-1,42,44,46,-1,48,-1,-1,-1,50,-1,-1,-1,52,-1,54,-1,56,58,-1,-1,60,62,64,-1,66,-1,-1,-1,68,70,-1,-1,-1,-1,-1,-1,-1,-1],"split_conditions":[1E0,1E0,1E0,1E0,-4.159549E-1,1E0,-4.47548E-1,1E0,-3.6953172E-1,1E0,1E0,1E0,-3.891617E-1,1E0,-1.6311264E-1,-5.2339435E-1,5.6513663E-2,1E0,1E0,-2.3172969E-2,1E0,1E0,1E0,1E0,1.0279356E-1,3.5715517E-1,5.6487404E-2,1E0,1E0,1E0,1E0,-5.323169E-1,1.06254704E-1,1E0,1E0,1E0,2.2462632E-1,1E0,2.555448E-1,-4.3528712E-1,-3.5358125E-3,1E0,-4.0101483E-1,-3.93804E-1,-9.2109896E-2,1E0,2.3298712E-2,1E0,2.1800368E-1,1E0,1E0,-5.6909245E-1,-4.237021E-2,1E0,1E0,1E0,-4.0461197E-1,1E0,2.2926745E-1,-3.9610142E-1,-5.944051E-2,1E0,1E0,1.0964623E-1,-3.20175E-1,-2.0690648E-1,3.233456E-2,8.057536E-3,-2.3673461E-1,-3.2192707E-1,-1.0606129E-1],"split_indices":[1205,1441,785,1347,0,1452,0,1839,0,165,1325,1999,0,1160,0,0,0,1168,901,0,352,1349,1452,586,0,0,0,392,1573,1274,656,0,0,1602,1928,1928,0,1387,0,0,0,1998,0,0,0,1261,0,1754,0,1809,831,0,0,1530,1114,1020,0,1385,0,0,0,1028,1349,0,0,0,0,0,0,0,0],"split_type":[0,0,0,0,0,0,0,0,0,0,0,0,0,0,0,0,0,0,0,0,0,0,0,0,0,0,0,0,0,0,0,0,0,0,0,0,0,0,0,0,0,0,0,0,0,0,0,0,0,0,0,0,0,0,0,0,0,0,0,0,0,0,0,0,0,0,0,0,0,0,0],"sum_hessian":[1.8748941E2,1.7676303E2,1.0726381E1,1.7515216E2,1.6108608E0,9.301904E0,1.4244776E0,1.7323122E2,1.9209491E0,5.313032E0,3.988871E0,1.7183525E2,1.3959666E0,3.803226E0,1.5098063E0,2.360114E0,1.628757E0,1.6741856E2,4.4166913E0,1.074149E0,2.729077E0,1.3862819E2,2.8790363E1,3.2346368E0,1.1820545E0,1.6685591E0,1.0605179E0,1.3129489E2,7.333296E0,2.5550447E1,3.2399154E0,2.0977793E0,1.1368576E0,1.2811768E2,3.1772256E0,6.2121177E0,1.1211784E0,2.330405E1,2.2463973E0,2.1228526E0,1.1170627E0,1.2703144E2,1.0862329E0,1.6041324E0,1.5730932E0,4.6754603E0,1.5366573E0,2.1031616E1,2.2724347E0,1.0377862E2,2.325282E1,3.0472493E0,1.628211E0,3.1562183E0,1.7875399E1,1.0273106E2,1.0475651E0,2.1399792E1,1.8530262E0,1.9968224E0,1.1593959E0,1.4550875E1,3.3245232E0,1.0143713E2,1.293925E0,1.1119355E1,1.0280437E1,1.3319583E1,1.2312917E0,1.0180632E0,2.3064601E0],"tree_param":{"num_deleted":"0","num_feature":"2048","num_nodes":"71","size_leaf_vector":"1"}},{"base_weights":[-5.7194512E-2,-6.573844E-2,2.9877537E-1,-5.7116456E-2,-4.0002164E-1,-4.246087E-2,-4.2004842E-1,-3.2158412E-2,-5.580901E-1,-6.6204935E-1,7.28363E-2,-1.3190005E-2,-3.315021E-1,-4.021394E-1,-1.0917694E-2,-4.5499572E-1,4.3883935E-2,-2.0203894E-4,-5.145972E-1,-4.6783537E-1,-5.3411048E-2,3.7419558E-2,-1.9840978E-1,-3.316438E-2,-4.2064765E-1,-4.217844E-1,3.196755E-1,6.1817184E-2,-3.4758896E-1,-2.5133088E-1,1.6856706E-1,1.0771371E-1,-5.5293316E-1,4.379838E-2,1.994497E-1,9.098832E-2,-2.9407397E-1,-6.891419E-2,-4.3841937E-1,-1.6598257E-1,-6.9058675E-1,1.3465795E-1,-6.630679E-2,1.6609137E-1,-1.24665074E-1,9.389699E-2,-6.2148917E-1,1.3993219E-1,-2.4933861E-1,-4.471209E-2,-4.3247357E-1,-4.226994E-1,-1.0066052E-1,2.009927E-1,-4.5313632E-1,-6.3707344E-2,-3.7752107E-1,3.558769E-1,-2.502552E-1,-4.06659E-1,-1.2561466E-1,1.505653E-1,-3.2877608E-3,-1.6584948E-1,2.4730761E-1,-5.909572E-1,4.165353E-2,1.108969E-1,-3.6200148E-1,-3.7549818E-1,-2.308464E-2,9.917517E-3,-4.263418E-1,3.1715274E-1,-1.0332659E-1,-1.8547343E-1,1.1150826E-2,-5.5164296E-2,-3.5085362E-1],"categories":[],"categories_nodes":[],"categories_segments":[],"categories_sizes":[],"default_left":[0,0,0,0,0,0,0,0,0,0,0,0,0,0,0,0,0,0,0,0,0,0,0,0,0,0,0,0,0,0,0,0,0,0,0,0,0,0,0,0,0,0,0,0,0,0,0,0,0,0,0,0,0,0,0,0,0,0,0,0,0,0,0,0,0,0,0,0,0,0,0,0,0,0,0,0,0,0,0],"id":14,"left_children":[1,3,-1,5,-1,7,9,11,13,15,-1,17,19,-1,-1,-1,-1,21,23,-1,25,27,29,-1,-1,31,33,35,37,39,-1,41,-1,-1,-1,43,45,47,-1,49,51,-1,-1,53,55,57,59,61,-1,63,65,-1,-1,67,69,71,-1,73,-1,-1,-1,-1,-1,75,-1,77,-1,-1,-1,-1,-1,-1,-1,-1,-1,-1,-1,-1,-1],"loss_changes":[1.0575538E0,1.0976007E0,0E0,9.372589E-1,0E0,9.04824E-1,1.0352104E0,9.6864915E-1,4.2359364E-1,1.0062609E0,0E0,1.0561485E0,1.6587751E0,0E0,0E0,0E0,0E0,1.1938132E0,5.4388344E-1,0E0,1.2377679E0,1.2854484E0,8.085666E-1,0E0,0E0,1.7379549E0,4.8823565E-2,1.3492901E0,1.1445237E0,7.782216E-1,0E0,1.6894627E-1,0E0,0E0,0E0,1.9400108E0,1.3142757E0,6.4754003E-1,0E0,6.676541E-1,9.931743E-2,0E0,0E0,1.9998882E0,1.1500661E0,1.0180551E0,1.8583345E-1,1.22729056E-1,0E0,1.1093668E0,5.8324766E-1,0E0,0E0,1.7826378E0,5.738163E-1,1.9629071E0,0E0,8.0898315E-1,0E0,0E0,0E0,0E0,0E0,5.3268045E-1,0E0,1.951654E-1,0E0,0E0,0E0,0E0,0E0,0E0,0E0,0E0,0E0,0E0,0E0,0E0,0E0],"parents":[2147483647,0,0,1,1,3,3,5,5,6,6,7,7,8,8,9,9,11,11,12,12,17,17,18,18,20,20,21,21,22,22,25,25,26,26,27,27,28,28,29,29,31,31,35,35,36,36,37,37,39,39,40,40,43,43,44,44,45,45,46,46,47,47,49,49,50,50,53,53,54,54,55,55,57,57,63,63,65,65],"right_children":[2,4,-1,6,-1,8,10,12,14,16,-1,18,20,-1,-1,-1,-1,22,24,-1,26,28,30,-1,-1,32,34,36,38,40,-1,42,-1,-1,-1,44,46,48,-1,50,52,-1,-1,54,56,58,60,62,-1,64,66,-1,-1,68,70,72,-1,74,-1,-1,-1,-1,-1,76,-1,78,-1,-1,-1,-1,-1,-1,-1,-1,-1,-1,-1,-1,-1],"split_conditions":[1E0,1E0,2.9877537E-1,1E0,-4.0002164E-1,1E0,1E0,1E0,1E0,1E0,7.28363E-2,1E0,1E0,-4.021394E-1,-1.0917694E-2,-4.5499572E-1,4.3883935E-2,1E0,1E0,-4.6783537E-1,1E0,1E0,1E0,-3.316438E-2,-4.2064765E-1,1E0,1E0,1E0,1E0,1E0,1.6856706E-1,1E0,-5.5293316E-1,4.379838E-2,1.994497E-1,1E0,1E0,1E0,-4.3841937E-1,1E0,1E0,1.3465795E-1,-6.630679E-2,1E0,1E0,1E0,1E0,1E0,-2.4933861E-1,1E0,1E0,-4.226994E-1,-1.0066052E-1,1E0,1E0,1E0,-3.7752107E-1,1E0,-2.502552E-1,-4.06659E-1,-1.2561466E-1,1.505653E-1,-3.2877608E-3,1E0,2.4730761E-1,1E0,4.165353E-2,1.108969E-1,-3.6200148E-1,-3.7549818E-1,-2.308464E-2,9.917517E-3,-4.263418E-1,3.1715274E-1,-1.0332659E-1,-1.8547343E-1,1.1150826E-2,-5.5164296E-2,-3.5085362E-1],"split_indices":[1811,213,0,1910,0,1089,1028,527,1357,1045,0,1631,586,0,0,0,0,294,935,0,1964,993,1853,0,0,561,304,1604,1088,1911,0,841,0,0,0,389,1325,1928,0,1697,1697,0,0,2004,305,352,1810,1039,0,1799,1357,0,0,335,1800,1060,0,322,0,0,0,0,0,878,0,935,0,0,0,0,0,0,0,0,0,0,0,0,0],"split_type":[0,0,0,0,0,0,0,0,0,0,0,0,0,0,0,0,0,0,0,0,0,0,0,0,0,0,0,0,0,0,0,0,0,0,0,0,0,0,0,0,0,0,0,0,0,0,0,0,0,0,0,0,0,0,0,0,0,0,0,0,0,0,0,0,0,0,0,0,0,0,0,0,0,0,0,0,0,0,0],"sum_hessian":[1.8102612E2,1.795823E2,1.443816E0,1.7856345E2,1.0188549E0,1.7270638E2,5.857077E0,1.7036479E2,2.3415828E0,3.9829834E0,1.8740935E0,1.6119449E2,9.170292E0,1.2622774E0,1.0793053E0,2.8326826E0,1.1503009E0,1.5809964E2,3.0948572E0,2.1451693E0,7.025122E0,1.3355997E2,2.4539663E1,1.8118342E0,1.283023E0,3.4692109E0,3.5559113E0,1.2639019E2,7.1697874E0,2.2815765E1,1.7238971E0,2.4304888E0,1.038722E0,1.440829E0,2.1150823E0,1.17503204E2,8.886984E0,5.437107E0,1.7326802E0,2.0257555E1,2.5582116E0,1.3811483E0,1.0493405E0,8.732232E1,3.0180885E1,4.3937836E0,4.4932003E0,4.11284E0,1.3242669E0,1.4724668E1,5.5328875E0,1.3903792E0,1.1678324E0,8.3302574E1,4.0197434E0,2.8523693E1,1.6571912E0,3.3281996E0,1.065584E0,2.1715322E0,2.3216681E0,1.4557395E0,2.657101E0,1.2589459E1,2.1352084E0,4.1209054E0,1.4119816E0,8.221399E1,1.0885872E0,1.8328948E0,2.1868486E0,2.667411E1,1.8495833E0,2.140934E0,1.1872656E0,5.5586357E0,7.030823E0,1.1455758E0,2.9753299E0],"tree_param":{"num_deleted":"0","num_feature":"2048","num_nodes":"79","size_leaf_vector":"1"}},{"base_weights":[-6.2017195E-2,-6.983543E-2,2.9246533E-1,-5.964604E-2,-5.263249E-1,-3.9978784E-2,-2.9587469E-1,-4.009618E-1,5.2782025E-2,-5.0480515E-2,3.3550504E-1,-4.341614E-1,1.3050999E-1,-3.5550352E-2,-5.453375E-1,-5.602501E-1,8.934036E-2,-8.1906766E-2,1.714623E-1,-1.8037915E-2,-4.1450354E-1,-4.054861E-1,-4.8255652E-2,-6.987547E-1,6.73805E-2,-4.396245E-3,-5.895051E-1,-6.685304E-1,2.3899142E-1,-8.5086507E-1,4.996602E-3,1.0284904E-2,-5.301314E-1,-3.5384625E-1,-9.001601E-2,-4.888385E-1,-6.4087495E-2,-4.8514706E-1,-9.183888E-2,2.4604397E-2,-5.1000535E-1,4.0717227E-3,-3.700478E-1,4.2606212E-2,-3.905067E-1,-2.6234165E-2,-3.560548E-1,6.0738217E-2,-3.9012378E-1,-6.171241E-1,3.137223E-2,3.586567E-2,-3.3398053E-1,-3.3786005E-1,4.2633194E-2,-3.9638004E-1,-2.2448102E-2],"categories":[],"categories_nodes":[],"categories_segments":[],"categories_sizes":[],"default_left":[0,0,0,0,0,0,0,0,0,0,0,0,0,0,0,0,0,0,0,0,0,0,0,0,0,0,0,0,0,0,0,0,0,0,0,0,0,0,0,0,0,0,0,0,0,0,0,0,0,0,0,0,0,0,0,0,0],"id":15,"left_children":[1,3,-1,5,7,9,11,-1,-1,13,-1,15,17,19,21,23,-1,-1,-1,25,27,-1,-1,29,-1,31,33,35,-1,37,-1,39,41,-1,-1,-1,-1,-1,-1,43,45,-1,-1,47,49,-1,-1,51,53,55,-1,-1,-1,-1,-1,-1,-1],"loss_changes":[9.2988074E-1,7.805579E-1,0E0,7.867151E-1,7.261379E-1,1.2272247E0,8.263564E-1,0E0,0E0,1.1511312E0,0E0,8.7963486E-1,3.0410653E-1,1.0202256E0,4.6660578E-1,9.2283607E-1,0E0,0E0,0E0,1.1594748E0,1.8600374E0,0E0,0E0,7.997792E-1,0E0,1.1369374E0,4.0418863E-2,8.2790613E-1,0E0,3.0420303E-1,0E0,1.0823685E0,4.582715E-1,0E0,0E0,0E0,0E0,0E0,0E0,1.068071E0,3.225484E-1,0E0,0E0,1.0888702E0,6.495121E-1,0E0,0E0,1.0986052E0,8.171535E-1,3.7211823E-1,0E0,0E0,0E0,0E0,0E0,0E0,0E0],"parents":[2147483647,0,0,1,1,3,3,4,4,5,5,6,6,9,9,11,11,12,12,13,13,14,14,15,15,19,19,20,20,23,23,25,25,26,26,27,27,29,29,31,31,32,32,39,39,40,40,43,43,44,44,47,47,48,48,49,49],"right_children":[2,4,-1,6,8,10,12,-1,-1,14,-1,16,18,20,22,24,-1,-1,-1,26,28,-1,-1,30,-1,32,34,36,-1,38,-1,40,42,-1,-1,-1,-1,-1,-1,44,46,-1,-1,48,50,-1,-1,52,54,56,-1,-1,-1,-1,-1,-1,-1],"split_conditions":[1E0,1E0,2.9246533E-1,1E0,1E0,1E0,1E0,-4.009618E-1,5.2782025E-2,1E0,3.3550504E-1,1E0,1E0,1E0,1E0,1E0,8.934036E-2,-8.1906766E-2,1.714623E-1,1E0,1E0,-4.054861E-1,-4.8255652E-2,1E0,6.73805E-2,1E0,1E0,1E0,2.3899142E-1,1E0,4.996602E-3,1E0,1E0,-3.5384625E-1,-9.001601E-2,-4.888385E-1,-6.4087495E-2,-4.8514706E-1,-9.183888E-2,1E0,1E0,4.0717227E-3,-3.700478E-1,1E0,1E0,-2.6234165E-2,-3.560548E-1,1E0,1E0,1E0,3.137223E-2,3.586567E-2,-3.3398053E-1,-3.3786005E-1,4.2633194E-2,-3.9638004E-1,-2.2448102E-2],"split_indices":[1638,140,0,90,394,1826,1045,0,0,1564,0,656,294,1476,1260,383,0,0,0,1603,154,0,0,1224,0,806,1791,1255,0,1088,0,1768,378,0,0,0,0,0,0,1910,980,0,0,387,1964,0,0,1554,1249,1798,0,0,0,0,0,0,0],"split_type":[0,0,0,0,0,0,0,0,0,0,0,0,0,0,0,0,0,0,0,0,0,0,0,0,0,0,0,0,0,0,0,0,0,0,0,0,0,0,0,0,0,0,0,0,0,0,0,0,0,0,0,0,0,0,0,0,0],"sum_hessian":[1.747678E2,1.735624E2,1.205413E0,1.7087885E2,2.6835582E0,1.5882507E2,1.2053771E1,1.681209E0,1.0023493E0,1.5742876E2,1.3963171E0,9.0880575E0,2.965713E0,1.5385858E2,3.5701754E0,7.6084747E0,1.4795828E0,1.3390778E0,1.6266351E0,1.4806375E2,5.794821E0,1.7359133E0,1.8342621E0,6.3396893E0,1.2687855E0,1.4559589E2,2.4678717E0,4.7062297E0,1.088591E0,5.0544033E0,1.2852862E0,1.4259438E2,3.0015094E0,1.3499354E0,1.1179364E0,2.4787643E0,2.2274656E0,3.9016817E0,1.1527214E0,1.3970218E2,2.8921905E0,1.1119848E0,1.8895247E0,1.3475569E2,4.9464884E0,1.2720499E0,1.6201407E0,1.3016139E2,4.594308E0,3.056663E0,1.8898256E0,1.2911513E2,1.0462613E0,2.6068256E0,1.9874824E0,2.0439222E0,1.0127409E0],"tree_param":{"num_deleted":"0","num_feature":"2048","num_nodes":"57","size_leaf_vector":"1"}},{"base_weights":[-5.2108493E-2,-4.065515E-2,-4.5131165E-1,4.1108523E-3,-1.5388213E-1,-6.362266E-1,-2.3634428E-2,2.4632355E-2,-3.32941E-1,-1.07664295E-1,-6.942512E-1,-9.353521E-2,-3.810356E-1,5.1542196E-2,-2.481006E-1,3.2515716E-2,-5.4244715E-1,2.7025549E-2,-3.2808775E-1,-5.548217E-1,9.250059E-2,7.809818E-2,-2.4656543E-1,-5.4209664E-2,-3.6449957E-1,-4.1262445E-1,-2.4223687E-2,-3.311867E-2,3.526768E-1,-5.011495E-1,2.607403E-1,1.2806155E-1,-1.4288555E-1,-3.1517345E-2,-5.9857893E-1,1.9447377E-1,-2.1979429E-1,-1.1433451E-1,4.741768E-1,-4.0136386E-2,-7.4432284E-1,2.2613427E-1,-4.8830986E-2,1.6029185E-1,-4.5558852E-1,-2.4059436E-1,4.0215635E-1,1.0735736E-1,-1.830921E-1,-3.9810786E-1,-5.4207005E-2,4.5226264E-1,-1.8931657E-1,9.779179E-2,-2.8187895E-1,3.691558E-1,1.7260998E-2,8.277312E-2,-1.0663275E-1,-4.6746463E-1,-2.5258082E-1,1.8235362E-1,-2.976601E-1,-7.901274E-1,1.6818711E-1,-3.289748E-1,1.7156023E-1,5.6807667E-2,2.4232027E-1,2.5667626E-1,-7.612027E-2,3.5902134E-1,-2.0278065E-2,2.5505802E-1,-3.4079376E-1,-3.7960672E-1,1.7991042E-1,-5.844533E-2,1.6045877E-1,1.2161468E-1,-2.5738618E-1,2.071143E-1,-4.555661E-1,-5.2538675E-1,-9.5009655E-2,-4.1973525E-1,1.4269626E-1,1.7247947E-1,1.6039014E-2,5.0521654E-1,-2.0836313E-1,-2.8525203E-1,5.659083E-2,-3.5456678E-1,-1.3333035E-1,2.4010493E-1,-2.3551929E-1,-3.1278935E-1,-2.4249379E-2,-6.7718136E-1,-1.6251689E-1,3.6562762E-1,8.327021E-2,-2.1915054E-1,3.4429114E-2,-2.1974282E-1,1.13232955E-1,2.5967708E-1,-2.430592E-1,1.2674154E-1,-5.024192E-1,-8.0474E-1,-9.463382E-3,3.8848985E-2,-2.8698474E-1,-5.325921E-3,-4.9439737E-1,1.3983758E-1,-1.8779695E-1,1.3230388E-2,-3.8045257E-1,-4.5942545E-1,-1.088195E-1,-1.9463834E-1,1.5939467E-1,1.3346444E-1,-1.960715E-1,-8.123305E-2,-2.9305333E-1],"categories":[],"categories_nodes":[],"categories_segments":[],"categories_sizes":[],"default_left":[0,0,0,0,0,0,0,0,0,0,0,0,0,0,0,0,0,0,0,0,0,0,0,0,0,0,0,0,0,0,0,0,0,0,0,0,0,0,0,0,0,0,0,0,0,0,0,0,0,0,0,0,0,0,0,0,0,0,0,0,0,0,0,0,0,0,0,0,0,0,0,0,0,0,0,0,0,0,0,0,0,0,0,0,0,0,0,0,0,0,0,0,0,0,0,0,0,0,0,0,0,0,0,0,0,0,0,0,0,0,0,0,0,0,0,0,0,0,0,0,0,0,0,0,0,0,0,0,0],"id":16,"left_children":[1,3,5,7,9,11,-1,13,15,17,19,-1,-1,21,23,-1,25,27,29,-1,-1,31,33,35,-1,-1,-1,37,-1,39,41,43,45,47,49,51,-1,53,55,57,59,-1,-1,61,63,65,67,69,-1,-1,-1,71,-1,73,75,-1,-1,77,-1,-1,79,81,-1,83,-1,85,-1,-1,-1,87,-1,-1,-1,89,91,93,-1,-1,-1,-1,-1,95,97,-1,-1,99,-1,-1,-1,101,103,-1,-1,-1,105,107,109,-1,-1,111,113,-1,-1,-1,-1,115,-1,117,-1,-1,119,121,-1,123,-1,125,127,-1,-1,-1,-1,-1,-1,-1,-1,-1,-1,-1,-1],"loss_changes":[7.6694083E-1,8.524885E-1,3.2042527E-1,8.480165E-1,1.115168E0,3.4814835E-2,0E0,8.595805E-1,6.220136E-1,1.3470709E0,1.5093356E0,0E0,0E0,8.5718745E-1,9.4267476E-1,0E0,6.190326E-1,1.2024959E0,1.8805816E0,0E0,0E0,1.0997441E0,6.547292E-1,9.08484E-1,0E0,0E0,0E0,1.1873661E0,0E0,1.4963174E0,3.5707757E-1,1.5856936E0,1.0838134E0,3.4509784E-1,2.351979E-1,1.0447824E0,0E0,8.987925E-1,4.3784058E-1,1.4018244E-1,5.938854E-1,0E0,0E0,1.3912349E0,1.4496584E0,9.5597315E-1,2.0903945E-2,2.4929145E-1,0E0,0E0,0E0,6.2298125E-1,0E0,8.842696E-1,1.0116463E0,0E0,0E0,2.3188703E-1,0E0,0E0,6.2490207E-1,1.2873306E0,0E0,3.3841038E-1,0E0,9.396895E-1,0E0,0E0,0E0,6.458107E-2,0E0,0E0,0E0,1.1580005E0,4.2738578E-1,9.276757E-1,0E0,0E0,0E0,0E0,0E0,1.1282854E0,1.8659317E-1,0E0,0E0,7.651174E-1,0E0,0E0,0E0,3.5203838E-1,2.7823702E-1,0E0,0E0,0E0,3.121754E-1,1.1041E0,8.576551E-1,0E0,0E0,5.1286316E-1,6.790505E-1,0E0,0E0,0E0,0E0,4.280429E-1,0E0,9.643998E-1,0E0,0E0,5.6083685E-1,1.5136552E-1,0E0,8.7420243E-1,0E0,6.4364827E-1,2.046764E-3,0E0,0E0,0E0,0E0,0E0,0E0,0E0,0E0,0E0,0E0,0E0,0E0],